/*!
 * The following copyright notice may not be removed under any circumstances.
 * 
 * Copyright:
 * Typeface © FontSite Inc., 1996-2008. All Rights Reserved. www.fontsite.com
 * 
 * Trademark:
 * CartoGothic is a trademark of FontSite Inc.
 * 
 * Designer:
 * FontSite.com
 * 
 * Vendor URL:
 * http://www.fontsite.com
 * 
 * License information:
 * http://www.fontsite.com/license.html
 */
Cufon.registerFont({"w":560,"face":{"font-family":"CartoGothic Std","font-weight":400,"font-style":"italic","font-stretch":"normal","units-per-em":"1000","panose-1":"2 11 6 2 2 2 4 9 2 4","ascent":"758","descent":"-242","x-height":"8","bbox":"-147 -901 1035 211.416","underline-thickness":"50","underline-position":"-50","slope":"-12","unicode-range":"U+0020-U+2122"},"glyphs":{" ":{"w":250},"!":{"d":"100,-185r95,-482r106,0r-115,482r-86,0xm53,0r22,-103r106,0r-22,103r-106,0","w":319},"\"":{"d":"252,-453r42,-267r99,0r-72,267r-69,0xm111,-453r41,-267r100,0r-72,267r-69,0","w":346},"#":{"d":"87,0r43,-202r-89,0r14,-64r86,0r31,-147r-86,0r14,-64r89,0r40,-190r75,0r-40,187r129,0r40,-187r75,0r-41,190r88,0r-14,64r-87,0r-31,147r89,0r-14,64r-89,0r-43,202r-75,0r43,-202r-129,0r-43,202r-75,0xm219,-266r129,0r31,-147r-129,0"},"$":{"d":"255,-315v-80,-42,-141,-74,-143,-173v-2,-119,93,-178,227,-181r19,-88r53,0r-19,90v48,4,96,16,143,35r-24,82v-38,-25,-83,-39,-134,-44r-45,212r12,7v65,39,75,38,109,77v46,53,43,147,3,206v-42,61,-111,95,-217,96r-19,85r-54,0r19,-85v-51,-3,-105,-16,-160,-39r30,-84v47,25,96,40,148,44xm324,-595v-64,3,-114,36,-114,97v0,53,31,70,74,91xm257,-74v70,-1,130,-44,130,-111v0,-65,-32,-73,-85,-105"},"%":{"d":"70,39r525,-744r63,0r-526,744r-62,0xm347,-556v0,100,-53,189,-150,189v-82,0,-129,-45,-129,-126v0,-48,20,-107,42,-134v29,-34,67,-51,115,-51v77,-1,122,45,122,122xm223,-629v-55,-1,-85,80,-85,142v0,46,19,69,58,69v57,-1,82,-78,81,-141v0,-47,-18,-70,-54,-70xm512,11v-82,0,-130,-45,-129,-126v2,-102,56,-185,157,-185v76,0,124,45,123,121v0,101,-51,190,-151,190xm538,-251v-54,0,-85,83,-85,142v0,46,20,69,59,69v56,-1,82,-78,81,-141v0,-47,-18,-70,-55,-70","w":697},"&":{"d":"270,9v-124,0,-216,-67,-216,-185v0,-65,26,-116,79,-152v23,-15,60,-31,111,-48v-34,-51,-51,-97,-51,-138v-1,-97,89,-160,192,-160v99,0,175,52,175,145v0,43,-15,80,-45,110v-30,30,-77,55,-141,76r108,157v38,-46,63,-104,75,-175r84,0v-13,97,-56,196,-114,245r75,116r-106,0r-35,-54v-51,42,-114,63,-191,63xm382,-602v-54,0,-102,39,-101,91v0,38,16,74,48,109v45,-10,85,-30,110,-53v23,-21,35,-45,35,-71v0,-46,-43,-76,-92,-76xm287,-314v-74,23,-134,50,-136,131v-1,69,57,118,129,116v65,-2,94,-20,138,-54","w":685},"'":{"d":"111,-453r41,-267r100,0r-72,267r-69,0","w":205},"(":{"d":"141,203v-86,-289,-105,-510,39,-741v31,-50,80,-111,147,-182r93,0v-91,101,-157,195,-195,282v-88,201,-68,405,-1,641r-83,0","w":333},")":{"d":"163,21v-29,47,-78,107,-146,182r-94,0v91,-100,157,-193,195,-281v88,-205,68,-400,1,-642r83,0v86,297,105,505,-39,741","w":333},"*":{"d":"226,-374r-58,-62r127,-91r-142,-66r43,-73r127,93r15,-156r85,18r-46,147r150,-29r8,84r-155,0r78,135r-78,33r-49,-146"},"+":{"d":"262,-117r0,-187r-193,0r0,-73r193,0r0,-186r73,0r0,186r194,0r0,73r-194,0r0,187r-73,0"},",":{"d":"-27,128r111,-236r115,0r-135,236r-91,0","w":309},"-":{"d":"-7,-219r16,-75r251,0r-16,75r-251,0","w":251},".":{"d":"17,0r23,-107r108,0r-22,107r-109,0","w":249},"\/":{"d":"-65,203r-82,0r538,-923r82,0","w":377},"0":{"d":"358,-676v123,0,182,80,181,208v0,152,-49,297,-117,387v-45,60,-105,90,-180,90v-124,0,-186,-74,-186,-222v0,-100,42,-248,80,-315v56,-98,129,-148,222,-148xm442,-472v-1,-79,-19,-127,-90,-127v-55,0,-102,45,-142,135v-27,61,-57,184,-57,266v0,87,31,131,93,131v53,0,99,-42,138,-125v32,-67,58,-185,58,-280"},"1":{"d":"193,0r108,-510v5,-23,11,-41,16,-54v-33,32,-85,62,-125,90r-43,-71r199,-122r83,0r-142,667r-96,0"},"2":{"d":"320,-676v109,-1,191,50,192,151v0,76,-47,160,-142,252v-82,79,-163,143,-241,193r312,0r-17,80r-424,0r21,-97v79,-58,160,-123,242,-196v101,-90,151,-163,151,-218v0,-57,-48,-86,-110,-85v-53,0,-107,14,-164,41r10,-88v57,-22,114,-33,170,-33"},"3":{"d":"458,-207v0,132,-120,216,-272,216v-62,0,-121,-11,-178,-33r23,-82v47,25,98,38,153,38v92,0,179,-52,179,-137v0,-69,-57,-104,-170,-104v-11,0,-20,0,-28,1r17,-80v71,4,138,-8,178,-33v38,-23,58,-54,58,-94v-1,-58,-46,-85,-110,-84v-48,0,-102,11,-161,33r11,-89v61,-14,114,-21,158,-21v113,-1,198,46,199,149v1,94,-71,167,-171,180v75,19,114,58,114,140"},"4":{"d":"14,-146r17,-80r367,-441r137,0r-94,441r84,0r-17,80r-84,0r-31,146r-97,0r31,-146r-313,0xm136,-226r208,0r74,-310v7,-28,15,-56,26,-84v-19,34,-45,71,-77,110"},"5":{"d":"218,-416v140,-24,261,40,256,173v-6,160,-112,254,-282,252v-56,0,-108,-8,-156,-23r18,-81v54,18,99,27,134,27v105,2,191,-66,190,-166v-1,-74,-64,-111,-145,-110v-39,0,-81,6,-124,18r80,-341r358,0r-17,80r-270,0"},"6":{"d":"263,9v-128,0,-197,-78,-196,-209v0,-104,25,-205,76,-303v80,-157,236,-208,425,-149r-28,77v-124,-53,-236,-17,-304,91v-15,23,-34,63,-55,122v43,-47,94,-70,154,-70v106,-1,174,69,171,176v-4,154,-85,265,-243,265xm308,-355v-83,0,-144,86,-144,175v0,66,38,112,102,112v81,0,144,-96,144,-183v0,-61,-41,-104,-102,-104"},"7":{"d":"73,0r378,-587r-326,0r17,-80r427,0r-20,88r-363,579r-113,0"},"8":{"d":"253,9v-119,0,-214,-62,-214,-174v0,-108,78,-180,180,-190v-63,-39,-94,-88,-94,-147v0,-112,97,-174,217,-174v114,0,204,47,204,150v0,94,-74,148,-158,174v69,31,103,82,103,153v-1,125,-103,208,-238,208xm341,-599v-64,0,-122,36,-122,95v0,43,33,83,100,119v47,-23,81,-43,101,-63v20,-20,29,-43,29,-68v0,-53,-50,-83,-108,-83xm259,-68v93,0,177,-104,118,-186v-14,-20,-56,-43,-94,-62v-74,22,-144,60,-146,143v-2,65,54,105,122,105"},"9":{"d":"88,-423v0,-143,106,-253,248,-253v123,0,185,67,185,200v-1,123,-43,259,-92,343v-54,94,-139,142,-256,142v-53,0,-103,-9,-152,-27r28,-81v133,63,242,29,312,-90v10,-18,27,-61,52,-128v-42,46,-70,71,-146,72v-108,2,-179,-70,-179,-178xm185,-430v0,63,33,108,94,108v82,0,145,-82,145,-168v0,-60,-37,-109,-94,-109v-78,0,-145,87,-145,169"},":":{"d":"99,-382r23,-107r108,0r-23,107r-108,0xm18,0r23,-107r108,0r-23,107r-108,0","w":249},";":{"d":"136,-382r23,-107r108,0r-23,107r-108,0xm-27,129r111,-235r114,0r-134,235r-91,0","w":309},"<":{"d":"51,-299r0,-77r433,-209r0,90r-337,157r337,158r0,89","w":500},"=":{"d":"69,-374r0,-73r460,0r0,73r-460,0xm69,-234r0,-73r460,0r0,73r-460,0"},">":{"d":"51,-91r0,-89r337,-158r-337,-157r0,-89r433,208r0,77","w":500},"?":{"d":"267,-677v112,-1,189,47,193,150v2,58,-43,122,-82,155v-8,10,-106,80,-122,115v-7,16,-14,40,-19,71r-89,0v8,-46,21,-98,40,-128v20,-33,138,-121,151,-139v14,-21,23,-41,23,-62v-1,-58,-47,-82,-111,-81v-45,0,-92,11,-143,33r11,-91v61,-15,110,-23,148,-23xm108,0r22,-103r101,0r-22,103r-101,0","w":455},"@":{"d":"428,13v-208,0,-351,-134,-357,-344v-6,-191,159,-349,350,-349v174,0,317,126,317,297v0,107,-70,234,-165,235v-40,0,-68,-27,-74,-63v-29,46,-71,69,-125,69v-83,1,-140,-74,-140,-160v0,-103,77,-203,175,-203v51,0,87,23,106,68r11,-56r64,0r-40,205v-10,41,-12,87,26,87v61,0,105,-107,105,-181v0,-140,-114,-240,-257,-240v-160,0,-290,133,-290,293v0,160,120,284,291,284v75,0,143,-14,205,-42r16,58v-65,28,-138,42,-218,42xm416,-437v-61,0,-110,68,-110,133v0,54,33,98,84,98v62,0,105,-72,105,-140v0,-52,-29,-91,-79,-91","w":763},"A":{"d":"-45,0r428,-667r101,0r146,667r-97,0r-36,-167r-328,0r-106,167r-108,0xm216,-244r264,0r-45,-233v-9,-46,-14,-83,-15,-112v-51,114,-140,236,-204,345","w":687},"B":{"d":"546,-513v0,92,-62,151,-144,167v75,19,112,63,112,134v-1,71,-39,134,-85,166v-44,31,-114,46,-210,46r-192,0r142,-667v103,0,247,-5,305,27v40,22,72,69,72,127xm205,-382v68,1,154,-1,189,-22v31,-19,58,-55,59,-100v0,-57,-44,-86,-132,-86r-72,0xm140,-77v77,1,175,-1,215,-23v35,-20,66,-59,66,-109v0,-38,-15,-63,-43,-81v-28,-18,-124,-20,-189,-19","w":566},"C":{"d":"375,9v-180,3,-314,-118,-312,-295v1,-130,62,-238,138,-303v101,-86,290,-114,428,-56r-27,82v-43,-20,-89,-30,-139,-30v-167,0,-299,132,-299,298v0,133,89,223,223,221v47,0,91,-8,132,-25r-12,90v-40,12,-84,18,-132,18","w":594},"D":{"d":"27,0r142,-667v88,0,201,0,264,13v132,28,222,118,219,273v-5,198,-108,333,-282,366v-74,14,-232,15,-343,15xm552,-376v0,-173,-117,-214,-304,-209r-107,503v113,3,228,-9,286,-45v71,-45,125,-138,125,-249","w":673},"E":{"d":"27,0r142,-667r364,0r-17,82r-268,0r-42,200r250,0r-17,82r-251,0r-47,221r280,0r-17,82r-377,0","w":507},"F":{"d":"27,0r142,-667r352,0r-18,82r-255,0r-43,203r239,0r-18,82r-238,0r-64,300r-97,0","w":479},"G":{"d":"396,9v-202,2,-338,-103,-334,-298v4,-235,162,-388,399,-387v77,0,145,13,206,39r-27,83v-61,-26,-119,-39,-176,-39v-181,-1,-298,118,-302,299v-3,133,93,222,228,220v29,0,57,-4,84,-13r43,-200r-140,0r17,-82r237,0r-76,355v-46,15,-99,23,-159,23","w":669},"H":{"d":"27,0r142,-667r96,0r-59,280r319,0r60,-280r97,0r-142,667r-97,0r65,-305r-320,0r-64,305r-97,0","w":673},"I":{"d":"23,0r142,-667r96,0r-141,667r-97,0","w":250},"J":{"d":"-45,-8r17,-84v57,27,122,25,156,-13v14,-17,28,-56,41,-117r95,-445r97,0r-103,485v-16,72,-38,121,-67,146v-56,49,-153,57,-236,28","w":350},"K":{"d":"27,0r142,-667r96,0r-62,294r318,-294r127,0r-358,327r269,340r-121,0r-246,-320r-68,320r-97,0","w":605},"L":{"d":"27,0r142,-667r96,0r-124,585r280,0r-18,82r-376,0","w":449},"M":{"d":"27,0r142,-667r160,0r65,417v12,87,15,108,12,166v6,-27,27,-72,64,-134r265,-449r154,0r-141,667r-90,0r93,-438v14,-66,30,-127,47,-182r-4,0v-20,48,-50,104,-89,169r-270,451r-93,0r-53,-312v-26,-154,-40,-257,-42,-310r-4,0v-20,142,-91,453,-126,622r-90,0","w":881},"N":{"d":"27,0r142,-667r125,0r121,355v43,129,66,214,68,256v17,-191,81,-423,117,-611r90,0r-142,667r-125,0r-128,-377v-33,-97,-53,-173,-60,-226v-2,39,-8,84,-19,135r-99,468r-90,0","w":681},"O":{"d":"332,9v-176,1,-273,-106,-272,-285v1,-118,55,-234,118,-298v66,-67,149,-102,253,-102v169,-1,268,105,266,276v-1,121,-50,230,-111,301v-62,72,-147,108,-254,108xm427,-593v-153,0,-264,156,-267,323v-2,120,65,196,183,196v77,0,137,-33,182,-98v48,-69,72,-147,72,-233v0,-107,-67,-188,-170,-188","w":723},"P":{"d":"298,-667v150,-1,252,43,252,175v0,73,-39,136,-83,170v-58,46,-168,59,-286,55r-57,267r-97,0r142,-667r129,0xm198,-349v79,2,166,-4,201,-33v33,-27,51,-60,51,-104v0,-66,-50,-99,-151,-99r-51,0","w":539},"Q":{"d":"358,8v-187,13,-301,-98,-298,-278v4,-230,149,-406,371,-406v169,-1,266,105,266,276v0,176,-110,349,-244,391r118,132r-117,0xm427,-593v-153,0,-264,156,-267,323v-2,120,65,196,183,196v77,0,137,-33,182,-98v48,-69,72,-147,72,-233v0,-107,-67,-188,-170,-188","w":723},"R":{"d":"551,-510v1,99,-78,178,-171,186v43,17,46,27,59,78r63,246r-98,0r-52,-221v-18,-68,-27,-72,-112,-74r-54,0r-62,295r-97,0r142,-667r121,0v94,1,135,0,190,28v48,24,71,68,71,129xm204,-377v129,3,246,-5,246,-119v0,-34,-14,-57,-38,-72v-24,-15,-106,-18,-164,-17","w":582},"S":{"d":"441,-203v1,129,-102,212,-236,212v-67,0,-128,-13,-183,-40r30,-83v54,27,102,40,144,40v78,0,146,-48,145,-122v0,-32,-14,-59,-43,-81v-7,-5,-35,-22,-84,-52v-61,-38,-103,-72,-105,-153v-3,-117,102,-194,224,-194v57,0,109,11,158,34r-24,83v-41,-23,-85,-34,-130,-34v-70,-1,-128,36,-128,101v0,21,6,40,19,54v13,14,39,32,78,55v51,29,87,57,106,83v19,26,29,58,29,97","w":508},"T":{"d":"162,0r124,-585r-208,0r17,-82r512,0r-18,82r-206,0r-125,585r-96,0","w":525},"U":{"d":"305,9v-129,0,-234,-75,-233,-197v0,-38,5,-80,15,-126r75,-353r97,0r-78,363v-9,38,-13,70,-13,96v-1,80,60,135,141,134v61,0,113,-30,140,-67v25,-34,47,-90,64,-168r77,-358r96,0r-80,376v-24,112,-47,178,-111,236v-49,43,-112,64,-190,64","w":671},"V":{"d":"201,0r-109,-667r96,0r59,384v16,105,24,177,24,216v19,-50,49,-111,91,-182r246,-418r104,0r-397,667r-114,0","w":627},"W":{"d":"154,0r-56,-667r94,0r34,474v1,25,2,70,2,134v5,-31,30,-94,74,-188r197,-420r129,0r14,357v3,69,4,124,4,164v0,29,-1,58,-4,87v11,-42,42,-115,94,-218r197,-390r102,0r-345,667r-124,0r-17,-457v-1,-35,-2,-114,2,-157v-16,53,-41,116,-74,188r-197,426r-126,0","w":957},"X":{"d":"-50,0r321,-358r-159,-309r103,0r130,252r221,-252r120,0r-288,320r175,347r-106,0r-141,-289r-253,289r-123,0","w":630},"Y":{"d":"207,0r60,-280r-179,-387r106,0r132,299r263,-299r121,0r-347,387r-59,280r-97,0","w":622},"Z":{"d":"-7,0r17,-81r449,-504r-338,0r17,-82r447,0r-18,83r-440,502r348,0r-17,82r-465,0","w":558},"[":{"d":"125,140r96,0r-14,63r-183,0r196,-923r184,0r-14,63r-95,0","w":333},"\\":{"d":"248,203r-145,-923r76,0r145,923r-76,0","w":371},"]":{"d":"42,140r169,-797r-95,0r13,-63r184,0r-197,923r-183,0r13,-63r96,0","w":333},"^":{"d":"37,-356r172,-313r118,0r172,313r-96,0r-135,-242r-135,242r-96,0","w":500},"_":{"d":"18,59r500,0r0,82r-500,0r0,-82","w":500},"`":{"d":"326,-567r-113,-137r94,0r79,137r-60,0","w":500},"a":{"d":"166,8v-87,0,-155,-55,-154,-139v0,-61,36,-111,79,-133v59,-31,179,-45,276,-32v2,-20,3,-33,3,-39v0,-60,-45,-93,-108,-92v-49,0,-99,13,-152,38r18,-83v53,-17,99,-25,139,-25v107,-2,189,51,189,151v0,120,-34,171,-58,346r-82,0v4,-37,9,-66,14,-85v-39,62,-94,93,-164,93xm107,-136v-1,45,37,76,84,74v94,-3,138,-73,158,-171v-77,-6,-146,2,-190,24v-35,17,-52,42,-52,73","w":506},"b":{"d":"293,8v-91,0,-148,-27,-167,-103r-20,95r-91,0r155,-720r89,0r-64,302v45,-52,76,-78,161,-79v116,-2,186,77,185,195v0,90,-34,177,-76,230v-42,53,-99,80,-172,80xm335,-427v-98,0,-180,113,-180,218v0,85,44,147,124,147v49,0,88,-24,118,-71v32,-51,48,-108,48,-169v1,-75,-38,-125,-110,-125","w":580},"c":{"d":"251,8v-132,1,-212,-81,-212,-213v0,-167,113,-294,276,-292v40,0,81,7,123,22r-21,69v-36,-14,-68,-21,-96,-21v-112,-1,-186,102,-186,220v0,91,47,145,135,145v29,0,63,-7,103,-22r-18,78v-39,9,-74,14,-104,14","w":442},"d":{"d":"229,8v-119,1,-191,-84,-191,-206v0,-148,99,-304,250,-299v84,3,147,30,161,106v13,-102,45,-227,65,-329r90,0r-119,560v-9,45,-18,98,-27,160r-84,0v4,-32,9,-58,14,-77v-36,55,-75,84,-159,85xm302,-427v-106,-1,-167,116,-167,219v0,85,36,145,114,146v103,0,171,-112,171,-225v0,-81,-41,-139,-118,-140","w":580},"e":{"d":"264,8v-143,1,-227,-69,-227,-208v0,-166,92,-297,260,-297v116,0,189,68,188,183v0,23,-4,54,-11,91r-344,0v-22,110,42,161,146,161v40,0,87,-10,142,-29r-17,78v-50,14,-96,21,-137,21xm394,-293v16,-79,-23,-135,-98,-134v-82,1,-134,56,-153,134r251,0","w":513},"f":{"d":"54,0r89,-419r-117,0r15,-70r117,0v18,-80,31,-156,85,-196v53,-39,112,-51,186,-29r-15,74v-61,-20,-107,-3,-134,45v-10,18,-20,53,-31,106r133,0r-15,70r-134,0r-89,419r-90,0","w":347},"g":{"d":"39,-204v0,-148,96,-293,251,-293v87,0,140,33,159,98v3,-25,9,-55,18,-90r86,0r-101,475v-19,88,-37,138,-96,178v-94,64,-220,57,-344,10r17,-76v61,28,115,42,162,42v75,0,127,-32,154,-97v7,-17,18,-56,33,-118v-36,49,-73,75,-149,76v-121,1,-190,-81,-190,-205xm302,-427v-96,-1,-166,111,-166,215v0,83,36,142,114,143v102,0,169,-113,169,-224v0,-77,-44,-134,-117,-134","w":571},"h":{"d":"425,-337v1,-53,-39,-89,-93,-87v-102,3,-157,94,-178,194r-49,230r-90,0r153,-720r90,0r-63,297v40,-49,73,-72,152,-74v96,-2,167,52,167,144v0,31,-5,69,-15,114r-51,239r-90,0r58,-271v6,-30,9,-52,9,-66","w":564},"i":{"d":"130,-567r21,-100r101,0r-21,100r-101,0xm15,0r104,-489r90,0r-104,489r-90,0","w":227},"j":{"d":"141,-567r21,-100r102,0r-21,100r-102,0xm-62,134v60,-4,69,-36,82,-97r111,-526r90,0r-113,530v-23,95,-26,130,-92,157v-46,19,-87,15,-137,-2r16,-72v16,7,30,10,43,10","w":242},"k":{"d":"15,0r153,-720r90,0r-89,421r231,-190r130,0r-276,220r200,269r-115,0r-180,-252r-54,252r-90,0","w":508},"l":{"d":"15,0r153,-720r90,0r-153,720r-90,0","w":227},"m":{"d":"391,-354v1,-42,-34,-71,-77,-70v-38,0,-71,17,-99,52v-65,81,-79,249,-110,372r-90,0r104,-489r81,0v-7,36,-13,63,-19,81v41,-59,94,-89,160,-89v66,0,110,30,133,89v43,-59,98,-89,165,-89v83,-1,145,46,145,126v0,22,-4,52,-12,90r-60,281r-89,0r60,-285v7,-33,10,-55,10,-64v0,-47,-30,-76,-77,-75v-37,0,-69,16,-96,48v-27,32,-46,76,-58,134r-51,242r-90,0r59,-283v7,-37,11,-60,11,-71","w":828},"n":{"d":"429,-340v2,-51,-39,-85,-91,-84v-47,0,-86,19,-117,57v-63,75,-81,247,-110,367r-90,0r74,-348v5,-25,13,-72,24,-141r87,0r-13,67v-2,9,-4,17,-7,25v40,-63,83,-98,174,-100v93,-1,161,59,159,150v-3,113,-44,240,-63,347r-90,0v20,-104,58,-231,63,-340","w":571},"o":{"d":"257,8v-134,1,-222,-87,-218,-222v5,-165,109,-283,276,-283v134,0,218,84,216,218v-3,168,-108,286,-274,287xm311,-427v-102,-1,-175,110,-175,218v0,85,43,146,123,147v99,1,174,-114,174,-221v0,-83,-43,-143,-122,-144","w":569},"p":{"d":"283,8v-85,0,-136,-31,-158,-98v-13,104,-39,195,-58,293r-90,0r110,-519v15,-71,26,-128,32,-173r85,0v-2,18,-7,43,-16,76v41,-53,82,-82,166,-84v114,-1,184,79,183,195v0,91,-33,178,-77,231v-43,53,-102,79,-177,79xm335,-427v-102,-2,-179,117,-179,227v0,82,41,138,119,138v49,0,89,-23,118,-70v32,-52,48,-109,48,-170v1,-74,-36,-125,-106,-125","w":576},"q":{"d":"229,8v-115,1,-191,-85,-191,-202v0,-77,21,-145,63,-206v45,-65,109,-97,191,-97v85,0,133,32,158,98r19,-90r90,0r-147,692r-90,0r55,-259v-48,44,-69,62,-148,64xm302,-427v-100,0,-167,112,-167,221v0,85,36,143,115,144v105,2,170,-121,170,-227v0,-79,-43,-138,-118,-138","w":577},"r":{"d":"184,-396v34,-62,75,-99,155,-101v19,0,38,4,56,11r-16,74v-21,-8,-38,-12,-52,-12v-86,0,-144,70,-173,210r-45,214r-90,0r74,-347v9,-38,17,-85,24,-142r84,0v-4,36,-10,67,-17,93","w":359},"s":{"d":"325,-154v1,99,-91,162,-196,162v-41,0,-85,-8,-131,-23r16,-75v40,19,78,28,115,28v53,1,99,-26,99,-75v0,-22,-10,-42,-31,-61v-5,-4,-29,-22,-74,-53v-42,-30,-63,-66,-63,-109v0,-88,84,-137,180,-137v47,0,91,9,133,26r-25,69v-38,-17,-73,-25,-104,-25v-59,0,-108,45,-76,95v28,28,99,70,124,97v21,23,33,48,33,81","w":382},"t":{"d":"200,8v-77,1,-126,-35,-126,-108v0,-19,3,-41,8,-66r54,-253r-110,0r15,-70r110,0r24,-114r97,-35r-31,149r133,0r-15,70r-133,0r-53,249v-4,19,-6,36,-6,51v1,58,79,66,126,39r-16,73v-26,10,-52,15,-77,15","w":355},"u":{"d":"202,8v-88,2,-159,-53,-158,-137v0,-24,4,-53,11,-88r58,-272r90,0r-61,287v-4,17,-6,34,-6,50v-1,52,38,88,91,87v38,0,72,-16,103,-48v70,-72,88,-252,118,-376r90,0r-70,332v-12,56,-21,108,-28,157r-80,0r4,-36v2,-15,5,-33,10,-55v-39,63,-87,96,-172,99","w":562},"v":{"d":"122,0r-78,-489r92,0r41,283v9,61,12,91,11,139v8,-26,22,-58,42,-95r177,-327r96,0r-274,489r-107,0","w":459},"w":{"d":"112,0r-55,-489r90,0r26,290v5,63,8,88,4,136v48,-121,103,-224,215,-426r108,0r26,270v5,51,7,91,7,120v0,13,0,25,-1,36v44,-137,142,-296,206,-426r98,0r-265,489r-101,0r-32,-285v-6,-70,-9,-77,-5,-144v-9,37,-30,84,-61,141r-156,288r-104,0","w":792},"x":{"d":"-50,0r226,-257r-104,-232r97,0r76,176r146,-176r110,0r-208,234r119,255r-101,0r-84,-193r-163,193r-114,0","w":468},"y":{"d":"2,131v77,1,95,-61,128,-113r-80,-507r93,0r45,321v6,46,9,60,8,90v7,-21,19,-47,36,-78r181,-333r97,0r-318,563v-29,51,-57,87,-83,106v-39,29,-107,36,-166,19r16,-75v14,5,28,7,43,7","w":467},"z":{"d":"-13,0r16,-72r353,-347r-277,0r15,-70r386,0r-15,71r-355,348r290,0r-15,70r-398,0","w":478},"{":{"d":"208,97v3,39,33,41,83,41r-14,65r-44,0v-100,1,-124,-56,-105,-146r40,-190v11,-49,7,-82,-36,-93r14,-65v47,-13,63,-40,75,-92r42,-198v22,-106,82,-141,210,-139r-13,64v-81,2,-98,14,-112,82r-42,197v-14,64,-32,93,-83,118v39,28,45,67,32,121r-41,193v-4,18,-6,32,-6,42","w":493},"|":{"d":"223,167r0,-834r90,0r0,834r-90,0","w":500},"}":{"d":"219,-720v87,-5,161,11,157,90v-4,84,-31,167,-47,246v-9,42,-7,86,36,93r-14,65v-48,13,-64,39,-76,92r-42,198v-22,106,-82,141,-210,139r14,-65v82,-2,97,-13,112,-82r42,-196v14,-66,32,-92,83,-119v-39,-27,-44,-65,-32,-121r40,-192v5,-21,7,-35,7,-42v-3,-39,-33,-41,-83,-42","w":493},"~":{"d":"244,-645v-47,0,-59,30,-82,69r-52,-34v31,-71,67,-115,141,-122v36,-4,169,65,204,62v50,-3,58,-25,85,-64r53,31v-33,70,-71,119,-150,119v-21,0,-68,-15,-141,-46v-22,-10,-41,-15,-58,-15","w":667},"\u00a0":{"w":250},"\u00a1":{"d":"136,-386r22,-103r106,0r-22,103r-106,0xm16,177r115,-481r86,0r-95,481r-106,0","w":319},"\u00a2":{"d":"274,-78v-99,-19,-157,-93,-157,-208v0,-163,106,-289,263,-292r18,-82r53,0r-18,84v28,3,56,10,83,20r-20,69v-30,-12,-56,-19,-78,-21r-77,365v38,-1,75,-8,111,-21r-18,77v-40,10,-76,15,-108,14r-17,82r-54,0xm365,-505v-91,16,-151,107,-151,217v0,69,25,114,76,135"},"\u00a3":{"d":"24,0r16,-77r90,0r53,-247r-81,0r11,-53r81,0r15,-72v29,-142,91,-223,239,-223v41,0,87,9,139,26r-22,78v-93,-41,-196,-33,-237,54v-11,21,-23,67,-37,137r156,0r-12,53r-155,0r-53,247r239,0r-17,77r-425,0"},"\u00a4":{"d":"96,-61r-42,-43r77,-78v-51,-70,-51,-154,1,-224r-80,-79r43,-43r79,79v70,-52,159,-52,229,-1r79,-77r42,42r-78,78v52,74,52,151,1,225r79,78r-43,43r-78,-78v-74,52,-154,52,-230,0xm164,-294v0,68,58,125,125,125v68,0,125,-58,125,-125v0,-66,-58,-125,-123,-125v-68,0,-127,57,-127,125"},"\u00a5":{"d":"173,0r57,-259r-177,0r12,-53r161,0r-17,-54r-137,0r11,-53r109,0r-78,-248r87,0r92,299r227,-299r102,0r-185,248r119,0r-11,53r-149,0r-39,54r175,0r-11,53r-194,0r-58,259r-96,0"},"\u00a6":{"d":"223,-330r0,-337r90,0r0,337r-90,0xm223,-153r90,0r0,320r-90,0r0,-320","w":500},"\u00a7":{"d":"365,-109v41,23,63,43,63,100v0,66,-40,120,-81,155v-82,71,-254,84,-373,40r27,-88v113,60,329,50,329,-85v0,-20,-7,-36,-20,-49v-45,-42,-179,-79,-218,-127v-17,-22,-27,-46,-27,-76v0,-84,56,-157,133,-178v-42,-28,-64,-46,-65,-106v-1,-123,136,-206,270,-206v53,0,102,7,145,20r-26,84v-45,-19,-91,-28,-138,-28v-82,0,-160,39,-161,112v0,19,7,34,21,47v35,34,156,79,200,107v37,24,55,58,55,101v0,77,-45,136,-134,177xm145,-274v0,58,59,83,109,104r84,36v51,-37,77,-77,77,-120v0,-21,-7,-38,-21,-52v-30,-30,-118,-66,-167,-90v-55,40,-82,81,-82,122"},"\u00a8":{"d":"369,-583r20,-97r88,0r-21,97r-87,0xm188,-583r21,-97r87,0r-21,97r-87,0","w":500},"\u00a9":{"d":"407,9v-182,0,-341,-160,-341,-342v0,-188,157,-343,345,-343v180,0,336,162,336,342v0,183,-158,343,-340,343xm411,-628v-159,0,-292,135,-292,294v0,156,133,294,288,294v155,0,287,-138,287,-294v0,-154,-131,-294,-283,-294xm438,-142v-127,2,-219,-71,-219,-193v0,-113,94,-192,212,-189v37,0,68,6,94,18r-5,58v-102,-58,-233,-1,-233,112v0,80,67,141,149,139v27,0,57,-6,89,-18r4,59v-27,9,-58,14,-91,14","w":779},"\u00aa":{"d":"383,-582v1,22,-28,156,-35,208r-59,0r4,-37v-27,28,-59,42,-95,42v-56,1,-101,-33,-101,-87v0,-69,60,-104,180,-104v8,0,22,1,42,2v10,-43,-20,-69,-64,-69v-30,0,-63,9,-100,26r13,-59v93,-33,212,-18,215,78xm165,-459v0,25,23,42,50,41v46,0,77,-31,93,-94r-24,-1v-79,0,-119,18,-119,54xm73,-290r9,-43r258,0r-10,43r-257,0","w":374},"\u00ab":{"d":"339,-50r-92,-209r168,-182r89,0r-163,197r80,194r-82,0xm136,-50r-90,-231r160,-160r92,0r-157,181r74,210r-79,0","w":511},"\u00ac":{"d":"51,-183r0,-84r433,0r0,267r-90,0r0,-183r-343,0","w":500},"\u00ad":{"d":"-7,-219r16,-75r251,0r-16,75r-251,0","w":251},"\u00ae":{"d":"407,9v-182,0,-341,-160,-341,-342v0,-188,157,-343,345,-343v180,0,336,162,336,342v0,183,-158,343,-340,343xm411,-628v-159,0,-292,135,-292,294v0,156,133,294,288,294v155,0,287,-138,287,-294v0,-154,-131,-294,-283,-294xm281,-145r0,-377v94,3,201,-13,239,45v38,57,16,131,-56,144v15,9,28,24,39,47r70,141r-73,0r-53,-113v-22,-40,-21,-51,-73,-52r-29,0r0,165r-64,0xm473,-417v0,-57,-66,-52,-128,-52r0,106v64,0,128,3,128,-54","w":779},"\u00af":{"d":"182,-601r12,-57r284,0r-12,57r-284,0","w":500},"\u00b0":{"d":"416,-587v0,77,-68,143,-145,143v-79,0,-146,-66,-146,-145v0,-75,70,-140,145,-140v78,0,146,65,146,142xm182,-588v0,49,41,89,89,89v46,0,88,-41,88,-87v0,-48,-41,-88,-89,-88v-46,0,-88,40,-88,86","w":397},"\u00b1":{"d":"242,-177r0,-187r-193,0r0,-73r193,0r0,-186r73,0r0,186r194,0r0,73r-194,0r0,187r-73,0xm49,-57r0,-73r460,0r0,73r-460,0"},"\u00b2":{"d":"120,-664v67,-26,165,-23,165,50v0,25,-11,50,-34,76v-23,26,-62,59,-119,98r126,0r-9,40r-190,0r10,-45v29,-21,166,-113,166,-163v0,-21,-15,-31,-45,-31v-22,0,-47,6,-74,19","w":257},"\u00b3":{"d":"263,-487v0,87,-121,108,-201,76r12,-41v47,26,134,24,140,-33v3,-30,-41,-43,-86,-38r8,-40v49,1,100,-6,100,-46v0,-21,-15,-31,-45,-31v-21,0,-45,5,-72,15r5,-44v69,-19,162,-16,162,54v0,35,-20,59,-60,72v25,13,37,31,37,56","w":257},"\u00b4":{"d":"253,-567r110,-137r100,0r-146,137r-64,0","w":500},"\u00b5":{"d":"373,-91v-39,62,-87,99,-171,99v-39,0,-74,-10,-105,-31r-35,226r-97,0r147,-692r90,0r-61,287v-3,14,-5,31,-5,50v-1,52,38,88,91,87v40,0,73,-17,103,-48v69,-72,88,-253,118,-376r90,0r-71,332v-12,57,-21,109,-27,157r-81,0r4,-36v2,-15,5,-34,10,-55","w":562},"\u00b6":{"d":"229,-297v-94,5,-152,-49,-152,-136v1,-72,38,-143,81,-179v42,-36,101,-55,178,-55r265,0r-15,70r-51,0r-170,800r-77,0r170,-800r-88,0r-170,800r-78,0"},"\u00b7":{"d":"59,-203r23,-107r108,0r-22,107r-109,0","w":247},"\u00b8":{"d":"246,119v-4,-33,-42,-40,-78,-26r-14,-16r53,-77r41,0r-38,53v60,-14,106,7,107,59v1,52,-62,87,-119,87v-32,0,-62,-7,-91,-20r20,-33v42,19,114,23,119,-27","w":500},"\u00b9":{"d":"142,-400r47,-219r-47,30r-23,-34r90,-52r41,0r-58,275r-50,0","w":257},"\u00ba":{"d":"426,-541v0,99,-76,172,-175,172v-86,0,-143,-53,-143,-137v0,-97,78,-170,177,-170v85,0,141,51,141,135xm177,-504v0,51,28,86,76,86v58,1,103,-62,103,-125v0,-48,-29,-84,-75,-84v-61,0,-104,59,-104,123xm71,-290r9,-43r292,0r-9,43r-292,0","w":417},"\u00bb":{"d":"210,-50r158,-181r-74,-210r79,0r89,231r-160,160r-92,0xm4,-50r164,-197r-81,-194r83,0r92,209r-168,182r-90,0","w":511},"\u00bc":{"d":"175,39r526,-744r62,0r-525,744r-63,0xm163,-267r70,-324r-71,46r-32,-48r130,-75r57,0r-85,401r-69,0xm534,-86r11,-52r230,-263r92,0r-55,260r53,0r-12,55r-53,0r-18,86r-69,0r18,-86r-197,0xm623,-141r120,0r48,-199","w":911},"\u00bd":{"d":"175,39r526,-744r62,0r-525,744r-63,0xm163,-267r70,-324r-71,46r-32,-48r130,-75r57,0r-85,401r-69,0xm616,-386v91,-36,235,-31,237,74v0,47,-30,97,-89,150v-48,43,-94,79,-139,107r188,0r-12,55r-275,0r14,-63v45,-31,95,-70,151,-116v61,-51,92,-92,92,-125v-1,-33,-31,-47,-67,-47v-32,0,-67,9,-106,26","w":911},"\u00be":{"d":"174,39r526,-744r63,0r-526,744r-63,0xm337,-392v0,84,-82,133,-174,131v-41,0,-80,-7,-117,-21r16,-57v70,42,199,35,207,-51v4,-45,-57,-64,-127,-58r12,-55v98,0,147,-23,147,-70v0,-31,-23,-47,-68,-47v-29,0,-64,7,-104,21r7,-61v101,-27,234,-23,234,79v0,56,-40,93,-93,107v40,16,60,43,60,82xm533,-86r11,-52r231,-263r92,0r-56,260r53,0r-11,55r-53,0r-19,86r-69,0r19,-86r-198,0xm623,-141r120,0r48,-199","w":911},"\u00bf":{"d":"228,-386r22,-103r100,0r-22,103r-100,0xm191,187v-111,1,-189,-48,-192,-150v-2,-58,43,-122,82,-155v8,-10,105,-79,121,-114v7,-16,15,-40,20,-72r89,0v-9,45,-23,97,-41,128v-20,35,-138,120,-150,139v-14,21,-23,41,-23,62v1,56,47,81,110,80v45,0,93,-11,143,-32r-11,91v-61,15,-111,23,-148,23","w":455},"\u00c0":{"d":"418,-729r-124,-130r108,0r81,130r-65,0xm-45,0r428,-667r101,0r146,667r-97,0r-36,-167r-328,0r-106,167r-108,0xm216,-244r264,0r-45,-233v-9,-46,-14,-83,-15,-112v-51,114,-140,236,-204,345","w":687},"\u00c1":{"d":"413,-729r104,-130r114,0r-149,130r-69,0xm-45,0r428,-667r101,0r146,667r-97,0r-36,-167r-328,0r-106,167r-108,0xm216,-244r264,0r-45,-233v-9,-46,-14,-83,-15,-112v-51,114,-140,236,-204,345","w":687},"\u00c2":{"d":"292,-729r137,-130r89,0r81,130r-80,0r-54,-83r-89,83r-84,0xm-45,0r428,-667r101,0r146,667r-97,0r-36,-167r-328,0r-106,167r-108,0xm216,-244r264,0r-45,-233v-9,-46,-14,-83,-15,-112v-51,114,-140,236,-204,345","w":687},"\u00c3":{"d":"531,-741v-45,0,-95,-47,-135,-47v-17,0,-32,14,-44,43r-46,0v37,-110,99,-128,195,-72v40,24,69,15,85,-29r46,1v-10,25,-20,54,-33,69v-20,23,-42,35,-68,35xm-45,0r428,-667r101,0r146,667r-97,0r-36,-167r-328,0r-106,167r-108,0xm216,-244r264,0r-45,-233v-9,-46,-14,-83,-15,-112v-51,114,-140,236,-204,345","w":687},"\u00c4":{"d":"509,-742r21,-97r91,0r-22,97r-90,0xm314,-742r21,-97r91,0r-21,97r-91,0xm-45,0r428,-667r101,0r146,667r-97,0r-36,-167r-328,0r-106,167r-108,0xm216,-244r264,0r-45,-233v-9,-46,-14,-83,-15,-112v-51,114,-140,236,-204,345","w":687},"\u00c5":{"d":"548,-802v0,53,-46,100,-99,100v-54,0,-100,-46,-100,-100v0,-54,47,-99,101,-99v52,0,98,47,98,99xm400,-802v0,26,22,49,48,49v26,0,48,-23,48,-49v0,-24,-22,-48,-47,-48v-26,0,-49,22,-49,48xm-45,0r428,-667r101,0r146,667r-97,0r-36,-167r-328,0r-106,167r-108,0xm216,-244r264,0r-45,-233v-9,-46,-14,-83,-15,-112v-51,114,-140,236,-204,345","w":687},"\u00c6":{"d":"-51,0r534,-667r417,0r-16,82r-245,0r-39,201r228,0r-18,82r-227,0r-42,220r251,0r-17,82r-348,0r32,-168r-257,0r-136,168r-117,0xm266,-250r209,0r72,-355","w":881},"\u00c7":{"d":"321,5v-155,-24,-258,-127,-258,-291v0,-130,62,-238,138,-303v101,-86,290,-114,428,-56r-27,82v-43,-20,-89,-30,-139,-30v-167,0,-299,131,-299,298v0,132,91,222,223,220v47,0,91,-8,132,-25r-12,91v-39,11,-88,17,-145,18r-35,44v59,-15,103,10,105,59v2,57,-59,94,-121,92v-33,0,-63,-7,-90,-20r20,-36v41,21,116,23,119,-27v1,-21,-20,-36,-43,-35v-5,0,-16,2,-35,7r-14,-16","w":594},"\u00c8":{"d":"341,-729r-124,-130r108,0r81,130r-65,0xm27,0r142,-667r364,0r-17,82r-268,0r-42,200r250,0r-17,82r-251,0r-47,221r280,0r-17,82r-377,0","w":507},"\u00c9":{"d":"321,-729r104,-130r114,0r-149,130r-69,0xm27,0r142,-667r364,0r-17,82r-268,0r-42,200r250,0r-17,82r-251,0r-47,221r280,0r-17,82r-377,0","w":507},"\u00ca":{"d":"212,-729r137,-130r89,0r81,130r-80,0r-54,-83r-89,83r-84,0xm27,0r142,-667r364,0r-17,82r-268,0r-42,200r250,0r-17,82r-251,0r-47,221r280,0r-17,82r-377,0","w":507},"\u00cb":{"d":"425,-742r21,-97r91,0r-22,97r-90,0xm230,-742r21,-97r91,0r-21,97r-91,0xm27,0r142,-667r364,0r-17,82r-268,0r-42,200r250,0r-17,82r-251,0r-47,221r280,0r-17,82r-377,0","w":507},"\u00cc":{"d":"198,-729r-114,-130r105,0r75,130r-66,0xm23,0r142,-667r96,0r-141,667r-97,0","w":250},"\u00cd":{"d":"187,-729r98,-130r110,0r-139,130r-69,0xm23,0r142,-667r96,0r-141,667r-97,0","w":250},"\u00ce":{"d":"85,-729r120,-130r89,0r65,130r-77,0r-40,-86r-77,86r-80,0xm23,0r142,-667r96,0r-141,667r-97,0","w":250},"\u00cf":{"d":"256,-742r21,-97r86,0r-21,97r-86,0xm117,-742r21,-97r86,0r-21,97r-86,0xm23,0r142,-667r96,0r-141,667r-97,0","w":250},"\u00d0":{"d":"27,0r65,-303r-67,0r17,-80r67,0r60,-284v149,0,288,-3,374,56v71,48,109,123,109,231v0,198,-108,332,-282,365v-74,14,-232,15,-343,15xm552,-376v0,-173,-117,-214,-304,-209r-43,202r174,0r-17,80r-174,0r-47,221v113,3,228,-9,286,-45v71,-45,125,-138,125,-249","w":673},"\u00d1":{"d":"531,-741v-45,0,-95,-47,-135,-47v-17,0,-32,14,-44,43r-46,0v37,-110,99,-128,195,-72v40,24,69,15,85,-29r46,1v-10,25,-20,54,-33,69v-20,23,-42,35,-68,35xm27,0r142,-667r125,0r121,355v43,129,66,214,68,256v17,-191,81,-423,117,-611r90,0r-142,667r-125,0r-128,-377v-33,-97,-53,-173,-60,-226v-2,39,-8,84,-19,135r-99,468r-90,0","w":681},"\u00d2":{"d":"438,-729r-124,-130r108,0r81,130r-65,0xm332,9v-176,1,-273,-106,-272,-285v1,-118,55,-234,118,-298v66,-67,149,-102,253,-102v169,-1,268,105,266,276v-1,121,-50,230,-111,301v-62,72,-147,108,-254,108xm427,-593v-153,0,-264,156,-267,323v-2,120,65,196,183,196v77,0,137,-33,182,-98v48,-69,72,-147,72,-233v0,-107,-67,-188,-170,-188","w":723},"\u00d3":{"d":"413,-729r104,-130r114,0r-149,130r-69,0xm332,9v-176,1,-273,-106,-272,-285v1,-118,55,-234,118,-298v66,-67,149,-102,253,-102v169,-1,268,105,266,276v-1,121,-50,230,-111,301v-62,72,-147,108,-254,108xm427,-593v-153,0,-264,156,-267,323v-2,120,65,196,183,196v77,0,137,-33,182,-98v48,-69,72,-147,72,-233v0,-107,-67,-188,-170,-188","w":723},"\u00d4":{"d":"305,-729r137,-130r89,0r81,130r-80,0r-54,-83r-89,83r-84,0xm332,9v-176,1,-273,-106,-272,-285v1,-118,55,-234,118,-298v66,-67,149,-102,253,-102v169,-1,268,105,266,276v-1,121,-50,230,-111,301v-62,72,-147,108,-254,108xm427,-593v-153,0,-264,156,-267,323v-2,120,65,196,183,196v77,0,137,-33,182,-98v48,-69,72,-147,72,-233v0,-107,-67,-188,-170,-188","w":723},"\u00d5":{"d":"544,-741v-45,0,-95,-47,-135,-47v-17,0,-32,14,-44,43r-46,0v37,-110,99,-128,195,-72v40,24,69,15,85,-29r46,1v-10,25,-20,54,-33,69v-20,23,-42,35,-68,35xm332,9v-176,1,-273,-106,-272,-285v1,-118,55,-234,118,-298v66,-67,149,-102,253,-102v169,-1,268,105,266,276v-1,121,-50,230,-111,301v-62,72,-147,108,-254,108xm427,-593v-153,0,-264,156,-267,323v-2,120,65,196,183,196v77,0,137,-33,182,-98v48,-69,72,-147,72,-233v0,-107,-67,-188,-170,-188","w":723},"\u00d6":{"d":"517,-742r21,-97r91,0r-22,97r-90,0xm322,-742r21,-97r91,0r-21,97r-91,0xm332,9v-176,1,-273,-106,-272,-285v1,-118,55,-234,118,-298v66,-67,149,-102,253,-102v169,-1,268,105,266,276v-1,121,-50,230,-111,301v-62,72,-147,108,-254,108xm427,-593v-153,0,-264,156,-267,323v-2,120,65,196,183,196v77,0,137,-33,182,-98v48,-69,72,-147,72,-233v0,-107,-67,-188,-170,-188","w":723},"\u00d7":{"d":"153,-142r-52,-52r146,-146r-146,-146r52,-52r146,146r146,-146r52,52r-146,146r146,146r-52,52r-146,-146"},"\u00d8":{"d":"60,-272v0,-226,147,-404,369,-404v73,0,133,18,178,53r60,-63r47,43r-64,68v58,88,61,226,18,336v-20,53,-47,99,-82,140v-62,72,-146,108,-252,108v-76,0,-137,-18,-182,-54r-62,65r-47,-44r65,-69v-32,-49,-48,-108,-48,-179xm426,-593v-178,0,-321,234,-246,426r356,-386v-28,-27,-65,-40,-110,-40xm219,-115v103,74,240,44,306,-57v50,-77,101,-223,51,-329","w":723},"\u00d9":{"d":"415,-729r-124,-130r108,0r81,130r-65,0xm305,9v-129,0,-234,-75,-233,-197v0,-38,5,-80,15,-126r75,-353r97,0r-78,363v-9,38,-13,70,-13,96v-1,80,60,135,141,134v61,0,113,-30,140,-67v25,-34,47,-90,64,-168r77,-358r96,0r-80,376v-24,112,-47,178,-111,236v-49,43,-112,64,-190,64","w":671},"\u00da":{"d":"397,-729r104,-130r114,0r-149,130r-69,0xm305,9v-129,0,-234,-75,-233,-197v0,-38,5,-80,15,-126r75,-353r97,0r-78,363v-9,38,-13,70,-13,96v-1,80,60,135,141,134v61,0,113,-30,140,-67v25,-34,47,-90,64,-168r77,-358r96,0r-80,376v-24,112,-47,178,-111,236v-49,43,-112,64,-190,64","w":671},"\u00db":{"d":"290,-729r137,-130r89,0r81,130r-80,0r-54,-83r-89,83r-84,0xm305,9v-129,0,-234,-75,-233,-197v0,-38,5,-80,15,-126r75,-353r97,0r-78,363v-9,38,-13,70,-13,96v-1,80,60,135,141,134v61,0,113,-30,140,-67v25,-34,47,-90,64,-168r77,-358r96,0r-80,376v-24,112,-47,178,-111,236v-49,43,-112,64,-190,64","w":671},"\u00dc":{"d":"499,-742r21,-97r91,0r-22,97r-90,0xm304,-742r21,-97r91,0r-21,97r-91,0xm305,9v-129,0,-234,-75,-233,-197v0,-38,5,-80,15,-126r75,-353r97,0r-78,363v-9,38,-13,70,-13,96v-1,80,60,135,141,134v61,0,113,-30,140,-67v25,-34,47,-90,64,-168r77,-358r96,0r-80,376v-24,112,-47,178,-111,236v-49,43,-112,64,-190,64","w":671},"\u00dd":{"d":"353,-729r104,-130r114,0r-149,130r-69,0xm207,0r60,-280r-179,-387r106,0r132,299r263,-299r121,0r-347,387r-59,280r-97,0","w":622},"\u00de":{"d":"244,-567v163,-5,285,32,285,175v0,72,-39,135,-83,170v-58,46,-169,59,-287,55r-35,167r-97,0r142,-667r97,0xm177,-249v79,2,166,-4,201,-33v33,-27,51,-60,51,-104v0,-66,-51,-99,-152,-99r-50,0","w":539},"\u00df":{"d":"457,-557v0,-62,-42,-104,-105,-103v-39,0,-70,14,-92,41v-22,27,-40,74,-54,141r-101,478r-90,0r109,-512v30,-142,82,-215,235,-218v124,-2,195,56,195,171v0,97,-64,168,-163,180v75,23,129,63,129,148v0,141,-100,244,-253,239v-29,0,-59,-3,-92,-8r17,-75v25,9,50,13,74,13v95,1,157,-67,156,-163v-1,-88,-52,-116,-145,-118r16,-73v87,10,164,-61,164,-141","w":570},"\u00e0":{"d":"287,-567r-113,-137r94,0r79,137r-60,0xm166,8v-87,0,-155,-55,-154,-139v0,-61,36,-111,79,-133v59,-31,179,-45,276,-32v2,-20,3,-33,3,-39v0,-60,-45,-93,-108,-92v-49,0,-99,13,-152,38r18,-83v53,-17,99,-25,139,-25v107,-2,189,51,189,151v0,120,-34,171,-58,346r-82,0v4,-37,9,-66,14,-85v-39,62,-94,93,-164,93xm107,-136v-1,45,37,76,84,74v94,-3,138,-73,158,-171v-77,-6,-146,2,-190,24v-35,17,-52,42,-52,73","w":506},"\u00e1":{"d":"275,-567r110,-137r100,0r-146,137r-64,0xm166,8v-87,0,-155,-55,-154,-139v0,-61,36,-111,79,-133v59,-31,179,-45,276,-32v2,-20,3,-33,3,-39v0,-60,-45,-93,-108,-92v-49,0,-99,13,-152,38r18,-83v53,-17,99,-25,139,-25v107,-2,189,51,189,151v0,120,-34,171,-58,346r-82,0v4,-37,9,-66,14,-85v-39,62,-94,93,-164,93xm107,-136v-1,45,37,76,84,74v94,-3,138,-73,158,-171v-77,-6,-146,2,-190,24v-35,17,-52,42,-52,73","w":506},"\u00e2":{"d":"165,-567r132,-137r86,0r74,137r-77,0r-48,-92r-91,92r-76,0xm166,8v-87,0,-155,-55,-154,-139v0,-61,36,-111,79,-133v59,-31,179,-45,276,-32v2,-20,3,-33,3,-39v0,-60,-45,-93,-108,-92v-49,0,-99,13,-152,38r18,-83v53,-17,99,-25,139,-25v107,-2,189,51,189,151v0,120,-34,171,-58,346r-82,0v4,-37,9,-66,14,-85v-39,62,-94,93,-164,93xm107,-136v-1,45,37,76,84,74v94,-3,138,-73,158,-171v-77,-6,-146,2,-190,24v-35,17,-52,42,-52,73","w":506},"\u00e3":{"d":"482,-680v-15,51,-42,96,-97,99v-15,0,-50,-13,-103,-38v-30,-13,-50,1,-62,34r-47,0v19,-65,53,-98,102,-98v14,-6,86,40,118,40v19,0,33,-12,41,-37r48,0xm166,8v-87,0,-155,-55,-154,-139v0,-61,36,-111,79,-133v59,-31,179,-45,276,-32v2,-20,3,-33,3,-39v0,-60,-45,-93,-108,-92v-49,0,-99,13,-152,38r18,-83v53,-17,99,-25,139,-25v107,-2,189,51,189,151v0,120,-34,171,-58,346r-82,0v4,-37,9,-66,14,-85v-39,62,-94,93,-164,93xm107,-136v-1,45,37,76,84,74v94,-3,138,-73,158,-171v-77,-6,-146,2,-190,24v-35,17,-52,42,-52,73","w":506},"\u00e4":{"d":"366,-583r20,-97r88,0r-21,97r-87,0xm185,-583r21,-97r87,0r-21,97r-87,0xm166,8v-87,0,-155,-55,-154,-139v0,-61,36,-111,79,-133v59,-31,179,-45,276,-32v2,-20,3,-33,3,-39v0,-60,-45,-93,-108,-92v-49,0,-99,13,-152,38r18,-83v53,-17,99,-25,139,-25v107,-2,189,51,189,151v0,120,-34,171,-58,346r-82,0v4,-37,9,-66,14,-85v-39,62,-94,93,-164,93xm107,-136v-1,45,37,76,84,74v94,-3,138,-73,158,-171v-77,-6,-146,2,-190,24v-35,17,-52,42,-52,73","w":506},"\u00e5":{"d":"421,-639v0,52,-45,97,-97,97v-52,0,-97,-45,-97,-98v0,-52,46,-96,99,-96v50,0,95,46,95,97xm276,-639v0,26,22,48,48,48v26,0,48,-23,48,-48v0,-24,-22,-48,-47,-48v-26,0,-49,22,-49,48xm166,8v-87,0,-155,-55,-154,-139v0,-61,36,-111,79,-133v59,-31,179,-45,276,-32v2,-20,3,-33,3,-39v0,-60,-45,-93,-108,-92v-49,0,-99,13,-152,38r18,-83v53,-17,99,-25,139,-25v107,-2,189,51,189,151v0,120,-34,171,-58,346r-82,0v4,-37,9,-66,14,-85v-39,62,-94,93,-164,93xm107,-136v-1,45,37,76,84,74v94,-3,138,-73,158,-171v-77,-6,-146,2,-190,24v-35,17,-52,42,-52,73","w":506},"\u00e6":{"d":"198,8v-107,1,-186,-47,-186,-145v0,-60,36,-106,78,-129v58,-32,188,-44,292,-33v23,-82,-33,-128,-115,-128v-49,0,-102,12,-158,36r17,-83v50,-15,99,-23,148,-23v88,0,149,17,172,83v36,-57,76,-82,164,-83v125,-1,197,68,197,191v0,24,-4,52,-11,83r-343,0v-15,108,47,162,150,161v41,0,86,-10,136,-31r-14,83v-50,12,-98,18,-144,18v-107,0,-171,-35,-190,-105v-34,72,-89,104,-193,105xm717,-293v13,-85,-26,-134,-103,-134v-83,0,-130,55,-149,134r252,0xm108,-136v0,48,42,76,92,74v99,-3,143,-68,166,-169v-68,-5,-149,0,-186,12v-48,15,-72,43,-72,83","w":835},"\u00e7":{"d":"246,119v0,-19,-22,-34,-42,-33v-6,0,-18,2,-36,7r-14,-17r50,-72v-103,-16,-165,-90,-165,-209v0,-167,113,-294,276,-292v40,0,81,7,123,22r-21,69v-36,-14,-68,-21,-96,-21v-112,-1,-186,102,-186,220v0,91,47,145,135,145v29,0,63,-7,103,-22r-18,78v-45,10,-75,15,-113,14r-32,45v60,-14,106,7,107,59v1,52,-62,87,-119,87v-32,0,-62,-7,-91,-20r20,-33v40,19,116,23,119,-27","w":442},"\u00e8":{"d":"304,-567r-113,-137r94,0r79,137r-60,0xm264,8v-143,1,-227,-69,-227,-208v0,-166,92,-297,260,-297v116,0,189,68,188,183v0,23,-4,54,-11,91r-344,0v-22,110,42,161,146,161v40,0,87,-10,142,-29r-17,78v-50,14,-96,21,-137,21xm394,-293v16,-79,-23,-135,-98,-134v-82,1,-134,56,-153,134r251,0","w":513},"\u00e9":{"d":"283,-567r110,-137r100,0r-146,137r-64,0xm264,8v-143,1,-227,-69,-227,-208v0,-166,92,-297,260,-297v116,0,189,68,188,183v0,23,-4,54,-11,91r-344,0v-22,110,42,161,146,161v40,0,87,-10,142,-29r-17,78v-50,14,-96,21,-137,21xm394,-293v16,-79,-23,-135,-98,-134v-82,1,-134,56,-153,134r251,0","w":513},"\u00ea":{"d":"180,-567r132,-137r86,0r74,137r-77,0r-48,-92r-91,92r-76,0xm264,8v-143,1,-227,-69,-227,-208v0,-166,92,-297,260,-297v116,0,189,68,188,183v0,23,-4,54,-11,91r-344,0v-22,110,42,161,146,161v40,0,87,-10,142,-29r-17,78v-50,14,-96,21,-137,21xm394,-293v16,-79,-23,-135,-98,-134v-82,1,-134,56,-153,134r251,0","w":513},"\u00eb":{"d":"381,-583r20,-97r88,0r-21,97r-87,0xm200,-583r21,-97r87,0r-21,97r-87,0xm264,8v-143,1,-227,-69,-227,-208v0,-166,92,-297,260,-297v116,0,189,68,188,183v0,23,-4,54,-11,91r-344,0v-22,110,42,161,146,161v40,0,87,-10,142,-29r-17,78v-50,14,-96,21,-137,21xm394,-293v16,-79,-23,-135,-98,-134v-82,1,-134,56,-153,134r251,0","w":513},"\u00ec":{"d":"157,-567r-107,-137r90,0r77,137r-60,0xm15,0r104,-489r90,0r-104,489r-90,0","w":227},"\u00ed":{"d":"145,-567r104,-137r96,0r-136,137r-64,0xm15,0r104,-489r90,0r-104,489r-90,0","w":227},"\u00ee":{"d":"51,-567r115,-137r86,0r57,137r-73,0r-35,-97r-77,97r-73,0xm15,0r104,-489r90,0r-104,489r-90,0","w":227},"\u00ef":{"d":"205,-583r21,-97r82,0r-20,97r-83,0xm73,-583r21,-97r82,0r-21,97r-82,0xm15,0r104,-489r90,0r-104,489r-90,0","w":227},"\u00f0":{"d":"256,7v-133,1,-217,-85,-217,-218v0,-159,116,-291,272,-288v69,1,87,18,126,58v-1,-59,-28,-129,-61,-158r-95,58r-31,-44r82,-51v-26,-13,-59,-24,-99,-33r25,-55v46,5,110,26,140,47r98,-60r33,44r-89,55v59,63,94,183,94,306v0,202,-89,338,-278,339xm312,-429v-104,-1,-176,108,-176,221v0,85,42,143,123,145v103,2,176,-121,176,-222v0,-81,-45,-144,-123,-144","w":569},"\u00f1":{"d":"516,-680v-15,51,-42,96,-97,99v-15,0,-50,-13,-103,-38v-30,-13,-50,1,-62,34r-47,0v19,-65,53,-98,102,-98v14,-6,86,40,118,40v19,0,33,-12,41,-37r48,0xm429,-340v2,-51,-39,-85,-91,-84v-47,0,-86,19,-117,57v-63,75,-81,247,-110,367r-90,0r74,-348v5,-25,13,-72,24,-141r87,0r-13,67v-2,9,-4,17,-7,25v40,-63,83,-98,174,-100v93,-1,161,59,159,150v-3,113,-44,240,-63,347r-90,0v20,-104,58,-231,63,-340","w":571},"\u00f2":{"d":"322,-567r-113,-137r94,0r79,137r-60,0xm257,8v-134,1,-222,-87,-218,-222v5,-165,109,-283,276,-283v134,0,218,84,216,218v-3,168,-108,286,-274,287xm311,-427v-102,-1,-175,110,-175,218v0,85,43,146,123,147v99,1,174,-114,174,-221v0,-83,-43,-143,-122,-144","w":569},"\u00f3":{"d":"307,-567r110,-137r100,0r-146,137r-64,0xm257,8v-134,1,-222,-87,-218,-222v5,-165,109,-283,276,-283v134,0,218,84,216,218v-3,168,-108,286,-274,287xm311,-427v-102,-1,-175,110,-175,218v0,85,43,146,123,147v99,1,174,-114,174,-221v0,-83,-43,-143,-122,-144","w":569},"\u00f4":{"d":"203,-567r132,-137r86,0r74,137r-77,0r-48,-92r-91,92r-76,0xm257,8v-134,1,-222,-87,-218,-222v5,-165,109,-283,276,-283v134,0,218,84,216,218v-3,168,-108,286,-274,287xm311,-427v-102,-1,-175,110,-175,218v0,85,43,146,123,147v99,1,174,-114,174,-221v0,-83,-43,-143,-122,-144","w":569},"\u00f5":{"d":"520,-680v-15,51,-42,96,-97,99v-15,0,-50,-13,-103,-38v-30,-13,-50,1,-62,34r-47,0v19,-65,53,-98,102,-98v14,-6,86,40,118,40v19,0,33,-12,41,-37r48,0xm257,8v-134,1,-222,-87,-218,-222v5,-165,109,-283,276,-283v134,0,218,84,216,218v-3,168,-108,286,-274,287xm311,-427v-102,-1,-175,110,-175,218v0,85,43,146,123,147v99,1,174,-114,174,-221v0,-83,-43,-143,-122,-144","w":569},"\u00f6":{"d":"405,-583r20,-97r88,0r-21,97r-87,0xm224,-583r21,-97r87,0r-21,97r-87,0xm257,8v-134,1,-222,-87,-218,-222v5,-165,109,-283,276,-283v134,0,218,84,216,218v-3,168,-108,286,-274,287xm311,-427v-102,-1,-175,110,-175,218v0,85,43,146,123,147v99,1,174,-114,174,-221v0,-83,-43,-143,-122,-144","w":569},"\u00f7":{"d":"251,-444r0,-95r95,0r0,95r-95,0xm69,-304r0,-73r460,0r0,73r-460,0xm251,-142r0,-95r95,0r0,95r-95,0"},"\u00f8":{"d":"531,-277v0,166,-108,285,-274,285v-53,0,-100,-14,-139,-41r-52,54r-43,-37r56,-57v-27,-41,-40,-86,-40,-137v0,-167,110,-288,274,-287v57,0,103,13,138,38r53,-55r43,37r-56,58v27,39,40,86,40,142xm309,-427v-121,0,-206,158,-161,289r241,-261v-17,-19,-44,-28,-80,-28xm258,-62v122,-1,208,-157,164,-291r-243,262v21,19,48,29,79,29","w":569},"\u00f9":{"d":"324,-567r-113,-137r94,0r79,137r-60,0xm202,8v-88,2,-159,-53,-158,-137v0,-24,4,-53,11,-88r58,-272r90,0r-61,287v-4,17,-6,34,-6,50v-1,52,38,88,91,87v38,0,72,-16,103,-48v70,-72,88,-252,118,-376r90,0r-70,332v-12,56,-21,108,-28,157r-80,0r4,-36v2,-15,5,-33,10,-55v-39,63,-87,96,-172,99","w":562},"\u00fa":{"d":"299,-567r110,-137r100,0r-146,137r-64,0xm202,8v-88,2,-159,-53,-158,-137v0,-24,4,-53,11,-88r58,-272r90,0r-61,287v-4,17,-6,34,-6,50v-1,52,38,88,91,87v38,0,72,-16,103,-48v70,-72,88,-252,118,-376r90,0r-70,332v-12,56,-21,108,-28,157r-80,0r4,-36v2,-15,5,-33,10,-55v-39,63,-87,96,-172,99","w":562},"\u00fb":{"d":"199,-567r132,-137r86,0r74,137r-77,0r-48,-92r-91,92r-76,0xm202,8v-88,2,-159,-53,-158,-137v0,-24,4,-53,11,-88r58,-272r90,0r-61,287v-4,17,-6,34,-6,50v-1,52,38,88,91,87v38,0,72,-16,103,-48v70,-72,88,-252,118,-376r90,0r-70,332v-12,56,-21,108,-28,157r-80,0r4,-36v2,-15,5,-33,10,-55v-39,63,-87,96,-172,99","w":562},"\u00fc":{"d":"399,-583r20,-97r88,0r-21,97r-87,0xm218,-583r21,-97r87,0r-21,97r-87,0xm202,8v-88,2,-159,-53,-158,-137v0,-24,4,-53,11,-88r58,-272r90,0r-61,287v-4,17,-6,34,-6,50v-1,52,38,88,91,87v38,0,72,-16,103,-48v70,-72,88,-252,118,-376r90,0r-70,332v-12,56,-21,108,-28,157r-80,0r4,-36v2,-15,5,-33,10,-55v-39,63,-87,96,-172,99","w":562},"\u00fd":{"d":"245,-567r110,-137r100,0r-146,137r-64,0xm2,131v77,1,95,-61,128,-113r-80,-507r93,0r45,321v6,46,9,60,8,90v7,-21,19,-47,36,-78r181,-333r97,0r-318,563v-29,51,-57,87,-83,106v-39,29,-107,36,-166,19r16,-75v14,5,28,7,43,7","w":467},"\u00fe":{"d":"283,8v-85,0,-136,-31,-158,-98v-13,103,-39,195,-58,293r-90,0r196,-923r90,0v-25,104,-36,216,-75,307v43,-52,82,-82,166,-84v115,-1,185,79,183,196v0,90,-34,177,-77,230v-43,53,-102,79,-177,79xm334,-427v-102,-2,-178,117,-178,227v0,82,40,138,118,138v49,0,89,-23,118,-70v32,-52,48,-109,48,-170v1,-74,-36,-125,-106,-125","w":575},"\u00ff":{"d":"347,-583r20,-97r88,0r-21,97r-87,0xm166,-583r21,-97r87,0r-21,97r-87,0xm2,131v77,1,95,-61,128,-113r-80,-507r93,0r45,321v6,46,9,60,8,90v7,-21,19,-47,36,-78r181,-333r97,0r-318,563v-29,51,-57,87,-83,106v-39,29,-107,36,-166,19r16,-75v14,5,28,7,43,7","w":467},"\u0152":{"d":"376,8v-189,2,-310,-116,-308,-304v1,-227,158,-379,401,-379v23,0,114,8,152,8r302,0r-17,82r-254,0r-42,200r241,0r-18,82r-241,0r-46,221r269,0r-18,82r-278,0xm477,-588v-184,-6,-308,124,-309,299v-1,145,124,243,281,207r106,-499v-28,-5,-54,-7,-78,-7","w":904},"\u0153":{"d":"262,8v-132,2,-223,-89,-223,-221v0,-157,114,-289,278,-284v97,3,148,27,174,102v41,-69,78,-100,179,-102v123,-1,198,67,197,188v0,24,-4,53,-11,87r-339,0v-17,107,56,160,156,160v36,0,79,-10,128,-30r-14,77v-49,15,-95,23,-136,23v-100,0,-174,-27,-194,-111v-29,78,-97,109,-195,111xm778,-292v13,-86,-24,-135,-98,-135v-78,0,-130,59,-149,135r247,0xm136,-210v0,92,49,147,128,148v97,2,173,-117,173,-222v0,-82,-44,-143,-122,-143v-102,0,-179,108,-179,217","w":896},"\u0178":{"d":"461,-742r21,-97r91,0r-22,97r-90,0xm266,-742r21,-97r91,0r-21,97r-91,0xm207,0r60,-280r-179,-387r106,0r132,299r263,-299r121,0r-347,387r-59,280r-97,0","w":622},"\u02c6":{"d":"170,-567r132,-137r86,0r74,137r-77,0r-48,-92r-91,92r-76,0","w":500},"\u02dc":{"d":"487,-680v-15,51,-42,96,-97,99v-15,0,-50,-13,-103,-38v-30,-13,-50,1,-62,34r-47,0v19,-65,53,-98,102,-98v14,-6,86,40,118,40v19,0,33,-12,41,-37r48,0","w":500},"\u2013":{"d":"20,-222r15,-69r506,0r-14,69r-507,0"},"\u2014":{"d":"-6,-222r15,-69r698,0r-15,69r-698,0","w":698},"\u2018":{"d":"103,-485r134,-235r92,0r-111,235r-115,0","w":302},"\u2019":{"d":"103,-485r111,-235r115,0r-135,235r-91,0","w":302},"\u201a":{"d":"-27,127r111,-235r115,0r-135,235r-91,0","w":302},"\u201c":{"d":"290,-484r135,-236r91,0r-111,236r-115,0xm103,-484r134,-236r92,0r-111,236r-115,0","w":489},"\u201d":{"d":"290,-484r111,-236r115,0r-135,236r-91,0xm103,-484r111,-236r115,0r-135,236r-91,0","w":489},"\u201e":{"d":"160,128r111,-235r115,0r-135,235r-91,0xm-27,128r111,-235r115,0r-135,235r-91,0","w":489},"\u2022":{"d":"473,-338v0,74,-64,138,-138,138v-75,0,-139,-64,-139,-138v0,-76,64,-139,140,-139v73,0,137,66,137,139","w":667},"\u2026":{"d":"514,0r23,-107r109,0r-23,107r-109,0xm266,0r22,-107r109,0r-23,107r-108,0xm17,0r23,-107r108,0r-22,107r-109,0","w":746},"\u2039":{"d":"137,-49r-93,-222r168,-170r90,0r-161,191r78,201r-82,0","w":309},"\u203a":{"d":"4,-49r161,-191r-78,-201r83,0r92,222r-168,170r-90,0","w":309},"\u20ac":{"d":"420,9v-176,0,-271,-101,-274,-276r-90,0r28,-53r65,0v1,-11,3,-22,5,-33r-80,0r28,-53r65,0v46,-153,165,-268,349,-270v75,0,136,19,181,57r-50,92v-60,-86,-191,-83,-273,-17v-41,33,-75,79,-100,138r309,0r-28,53r-298,0r-6,33r286,0r-28,53r-263,0v-1,117,69,194,183,193v51,0,96,-16,137,-48r-24,112v-36,13,-77,19,-122,19","w":718},"\u2122":{"d":"366,-287r81,-381r103,0r43,235v5,23,8,46,9,71v57,-107,124,-203,186,-306r100,0r-81,381r-62,0r53,-249v5,-25,10,-49,17,-73r-38,67r-160,255r-60,0r-35,-177v-11,-51,-19,-101,-26,-150r-68,327r-62,0xm132,-287r70,-327r-125,0r11,-54r315,0r-11,54r-124,0r-70,327r-66,0","w":843}}});
