/*!
 * The following copyright notice may not be removed under any circumstances.
 * 
 * Copyright:
 * Typeface © FontSite Inc., 1996-2008. All Rights Reserved. www.fontsite.com
 * 
 * Trademark:
 * CartoGothic is a trademark of FontSite Inc.
 * 
 * Designer:
 * FontSite.com
 * 
 * Vendor URL:
 * http://www.fontsite.com
 * 
 * License information:
 * http://www.fontsite.com/license.html
 */
Cufon.registerFont({"w":537,"face":{"font-family":"CartoGothic Std","font-weight":400,"font-stretch":"normal","units-per-em":"1000","panose-1":"2 11 6 2 2 2 4 2 2 4","ascent":"758","descent":"-242","x-height":"13","bbox":"-29 -905 950 213","underline-thickness":"50","underline-position":"-50","unicode-range":"U+0020-U+2122"},"glyphs":{" ":{"w":250},"!":{"d":"178,-185r-16,-482r110,0r-12,482r-82,0xm168,0r0,-103r104,0r0,103r-104,0","w":391},"\"":{"d":"199,-453r-16,-267r100,0r-16,267r-68,0xm57,-453r-15,-267r99,0r-15,267r-69,0","w":325},"#":{"d":"78,0r32,-202r-89,0r10,-64r86,0r23,-147r-86,0r11,-64r89,0r30,-190r75,0r-30,187r129,0r30,-187r75,0r-30,190r87,0r-10,64r-88,0r-23,147r89,0r-10,64r-89,0r-32,202r-75,0r32,-202r-129,0r-32,202r-75,0xm195,-266r129,0r24,-147r-130,0"},"$":{"d":"486,-193v-1,117,-90,188,-205,198r0,84r-51,0r0,-83v-49,-1,-107,-11,-173,-30r7,-97v53,27,108,41,166,42r0,-233v-39,-11,-77,-28,-112,-52v-47,-32,-71,-75,-71,-129v1,-109,78,-171,187,-179r0,-84r51,0r0,83v40,-2,134,15,162,28r-9,90v-46,-23,-97,-36,-153,-40r0,204v98,30,202,81,201,198xm234,-591v-49,10,-90,36,-90,88v0,49,42,76,90,94r0,-182xm281,-81v61,-4,108,-51,108,-104v0,-47,-36,-83,-108,-108r0,212"},"%":{"d":"162,41r424,-749r63,0r-424,749r-63,0xm339,-505v0,100,-60,173,-157,173v-101,0,-159,-70,-159,-174v0,-104,57,-172,159,-172v104,0,157,66,157,173xm98,-503v0,63,26,114,83,114v58,0,83,-51,83,-115v0,-65,-23,-118,-81,-118v-59,0,-85,53,-85,119xm631,11v-101,0,-158,-70,-158,-174v0,-104,57,-172,159,-172v104,0,157,66,157,173v0,101,-60,173,-158,173xm633,-279v-59,0,-85,52,-85,118v0,64,25,115,83,115v58,0,83,-51,83,-115v0,-65,-23,-118,-81,-118","w":813},"&":{"d":"307,13v-124,3,-229,-80,-228,-199v0,-59,25,-107,74,-145v17,-13,44,-26,79,-41v-37,-30,-74,-92,-75,-152v-1,-90,79,-149,173,-149v93,0,168,54,168,142v0,70,-47,128,-141,174r132,160v25,-45,39,-100,42,-165r89,0v-4,97,-29,173,-74,229r113,133r-117,0r-53,-63v-52,48,-93,74,-182,76xm330,-596v-43,0,-81,32,-80,74v0,27,19,64,58,112v36,-21,62,-40,78,-58v16,-18,23,-38,23,-59v1,-41,-37,-69,-79,-69xm280,-315v-61,33,-97,60,-100,128v-3,68,59,121,128,121v45,0,87,-21,128,-62","w":696},"'":{"d":"57,-453r-15,-267r99,0r-15,267r-69,0","w":183},"(":{"d":"62,-261v0,-173,68,-323,155,-459r85,0v-190,359,-188,564,4,924r-86,0v-105,-163,-158,-318,-158,-465","w":354},")":{"d":"292,-255v0,173,-68,323,-155,459r-85,0v190,-359,188,-564,-4,-924r86,0v105,163,158,318,158,465","w":354},"*":{"d":"191,-366r-57,-41r86,-113r-138,-40r21,-67r135,50r-5,-143r71,0r-6,143r136,-50r22,67r-137,40r89,112r-58,43r-80,-119"},"+":{"d":"232,-117r0,-187r-193,0r0,-73r193,0r0,-186r73,0r0,186r194,0r0,73r-194,0r0,187r-73,0"},",":{"d":"21,129r60,-236r107,0r-83,236r-84,0","w":267},"-":{"d":"0,-209r0,-75r251,0r0,75r-251,0","w":251},".":{"d":"80,0r0,-107r107,0r0,107r-107,0","w":267},"\/":{"d":"-29,204r338,-924r77,0r-335,924r-80,0","w":435},"0":{"d":"268,13v-95,0,-160,-59,-191,-132v-44,-104,-46,-330,0,-432v38,-84,102,-127,195,-127v86,0,153,54,183,117v50,103,52,347,1,454v-31,65,-98,120,-188,120xm179,-122v23,37,52,57,90,57v86,0,129,-89,129,-268v0,-84,-12,-150,-34,-197v-22,-47,-53,-70,-92,-70v-57,0,-96,36,-115,109v-29,106,-23,296,22,369"},"1":{"d":"261,0r0,-563v-31,35,-69,64,-104,95r-53,-63r163,-136r89,0r0,667r-95,0"},"2":{"d":"245,-675v121,0,219,68,219,183v0,42,-13,85,-39,128v-46,80,-195,231,-279,289v96,-9,226,-2,332,-4r0,79r-425,0r0,-101v107,-93,186,-169,235,-231v49,-62,73,-115,73,-158v1,-66,-61,-107,-131,-107v-48,0,-98,16,-151,48r-10,-87v65,-26,123,-39,176,-39"},"3":{"d":"471,-178v-1,123,-111,187,-245,187v-57,0,-115,-9,-173,-27r4,-88v60,25,114,37,163,37v79,0,147,-44,148,-117v1,-96,-106,-130,-226,-120r0,-81v43,0,80,-3,109,-8v77,-15,115,-50,115,-104v0,-64,-64,-99,-134,-99v-49,0,-99,11,-152,33r-6,-82v53,-19,108,-29,163,-29v134,0,225,61,226,176v1,87,-74,148,-160,153v95,3,169,71,168,169"},"4":{"d":"21,-146r0,-79r270,-442r137,0r0,442r88,0r0,79r-88,0r0,146r-95,0r0,-146r-312,0xm116,-225r217,0v3,-154,-8,-257,11,-410v-11,33,-32,77,-64,135v-32,58,-87,150,-164,275"},"5":{"d":"483,-211v0,138,-114,221,-260,218v-45,0,-91,-8,-140,-23r3,-88v50,22,95,33,136,33v87,2,159,-52,158,-135v0,-86,-74,-137,-166,-135v-38,0,-80,8,-126,23r5,-349r369,0r0,79r-281,0r-2,128v0,8,-1,25,-3,51v158,-42,307,46,307,198"},"6":{"d":"494,-211v0,127,-90,223,-216,223v-73,0,-129,-28,-168,-83v-39,-55,-58,-136,-58,-241v0,-119,24,-209,69,-272v69,-97,206,-114,339,-72r-12,85v-41,-19,-81,-29,-122,-29v-129,0,-182,113,-182,250v24,-43,84,-74,151,-74v116,0,199,94,199,213xm277,-346v-72,0,-122,60,-122,134v0,76,50,146,122,146v72,0,120,-65,120,-140v0,-75,-49,-140,-120,-140"},"7":{"d":"121,0r201,-458v26,-57,47,-101,63,-131v-16,2,-37,0,-56,1r-278,0r0,-79r426,0r0,79r-250,588r-106,0"},"8":{"d":"273,12v-127,0,-235,-70,-235,-188v0,-84,49,-143,146,-178v-71,-13,-131,-77,-131,-157v1,-109,97,-167,215,-167v113,0,209,59,209,163v0,80,-58,130,-124,157v83,26,145,82,146,180v2,118,-101,190,-226,190xm265,-605v-58,0,-115,36,-115,90v0,47,46,89,138,128v47,-28,92,-78,92,-127v0,-53,-57,-91,-115,-91xm276,-66v68,0,127,-41,126,-106v-1,-72,-73,-118,-150,-143v-74,36,-111,80,-111,132v-1,70,62,117,135,117"},"9":{"d":"252,-680v165,3,229,134,228,318v0,123,-25,214,-70,278v-68,96,-203,116,-337,73r12,-85v114,53,228,36,276,-78v15,-35,25,-82,29,-141v-36,48,-86,72,-150,72v-119,2,-201,-94,-201,-216v0,-125,90,-223,213,-221xm136,-463v0,77,49,142,121,142v70,0,120,-61,120,-134v0,-74,-49,-147,-119,-147v-73,0,-122,63,-122,139"},":":{"d":"80,-382r0,-107r107,0r0,107r-107,0xm80,0r0,-107r107,0r0,107r-107,0","w":267},";":{"d":"71,-382r0,-107r107,0r0,107r-107,0xm20,129r60,-236r107,0r-82,236r-85,0","w":267},"<":{"d":"33,-299r0,-77r433,-209r0,90r-337,157r337,158r0,89","w":500},"=":{"d":"39,-374r0,-73r460,0r0,73r-460,0xm39,-234r0,-73r460,0r0,73r-460,0"},">":{"d":"34,-91r0,-89r337,-158r-337,-157r0,-89r433,208r0,77","w":500},"?":{"d":"259,-678v112,0,209,66,205,172v-3,89,-39,114,-93,183v-43,55,-57,57,-59,137r-86,0v0,-45,5,-79,15,-101v10,-22,34,-56,74,-100v33,-36,50,-72,50,-108v0,-62,-52,-99,-117,-98v-47,0,-95,12,-144,37r-7,-93v57,-19,111,-29,162,-29xm219,0r0,-104r102,0r0,104r-102,0","w":509},"@":{"d":"405,13v-208,0,-351,-134,-357,-344v-6,-191,159,-349,350,-349v174,0,317,126,317,296v0,108,-70,235,-165,236v-40,0,-68,-27,-74,-63v-30,46,-72,69,-125,69v-84,1,-140,-74,-140,-161v0,-103,77,-204,175,-202v51,0,87,22,106,67r11,-56r64,0r-40,205v-10,43,-12,88,26,88v62,0,105,-107,105,-182v0,-139,-114,-239,-257,-239v-159,0,-290,133,-290,292v0,165,118,285,291,285v75,0,143,-14,205,-42r16,58v-66,28,-139,42,-218,42xm393,-437v-61,0,-110,68,-110,133v0,54,33,97,84,97v62,0,105,-72,105,-140v0,-52,-29,-90,-79,-90","w":763},"A":{"d":"5,0r284,-667r100,0r289,667r-107,0r-70,-169r-324,0r-69,169r-103,0xm207,-250r261,0r-77,-186v-31,-73,-49,-122,-54,-149v-23,73,-94,245,-130,335","w":683},"B":{"d":"362,-339v100,11,162,66,162,160v0,72,-40,124,-91,152v-68,37,-234,24,-347,27r0,-667r158,0v90,1,124,0,176,29v57,32,84,80,84,142v0,89,-57,140,-142,157xm181,-383v53,0,135,-1,165,-11v53,-18,87,-99,44,-148v-35,-40,-71,-44,-160,-44r-49,0r0,203xm181,-81v62,0,152,-1,185,-16v61,-28,81,-105,38,-157v-37,-45,-75,-51,-173,-51r-50,0r0,224","w":579},"C":{"d":"409,5v-220,3,-361,-137,-361,-342v0,-197,150,-335,350,-335v59,0,109,10,152,30r-8,90v-46,-26,-92,-39,-139,-39v-146,-3,-253,106,-253,252v0,146,112,262,257,259v45,0,92,-10,143,-30r7,92v-46,15,-95,23,-148,23","w":581},"D":{"d":"86,0r0,-667v101,0,250,-2,316,16v132,35,241,160,240,320v-1,156,-98,268,-224,309v-79,26,-219,21,-332,22xm181,-81v82,2,174,-4,218,-24v81,-36,141,-117,141,-229v0,-112,-71,-205,-158,-235v-39,-14,-129,-18,-201,-17r0,505","w":689},"E":{"d":"86,0r0,-667r371,0r0,81r-276,0r0,197r256,0r0,81r-256,0r0,227r284,0r0,81r-379,0","w":527},"F":{"d":"86,0r0,-667r354,0r0,81r-259,0r0,200r249,0r0,81r-249,0r0,305r-95,0","w":482},"G":{"d":"415,5v-218,3,-367,-131,-367,-344v0,-206,152,-333,364,-333v67,0,128,11,183,33r-7,91v-51,-29,-108,-43,-170,-43v-152,0,-268,104,-268,253v0,187,171,305,362,247r0,-193r-143,0r0,-81r238,0r0,339v-61,21,-125,31,-192,31","w":687},"H":{"d":"86,0r0,-667r95,0r0,280r323,0r0,-280r95,0r0,667r-95,0r0,-306r-323,0r0,306r-95,0","w":685},"I":{"d":"93,0r0,-667r95,0r0,667r-95,0","w":280},"J":{"d":"19,-3r0,-83v63,26,139,18,159,-45v5,-16,10,-51,10,-106r0,-430r95,0r0,454v-2,84,4,95,-21,142v-41,76,-134,96,-243,68","w":368},"K":{"d":"86,0r0,-667r95,0r0,223v0,38,-1,65,-2,80r55,-61r233,-242r128,0r-314,316r341,351r-138,0r-243,-259v-4,-4,-24,-28,-61,-71r1,330r-95,0","w":630},"L":{"d":"86,0r0,-667r95,0r0,586r282,0r0,81r-377,0","w":480},"M":{"d":"181,0r-95,0r0,-667r157,0r189,486v11,33,18,58,21,73v38,-128,151,-407,207,-559r159,0r0,667r-95,0r0,-381r3,-242r-22,69r-83,230r-125,324r-92,0r-126,-324v-47,-123,-81,-217,-102,-281r-6,-18v14,203,10,408,10,623","w":905},"N":{"d":"86,0r0,-667r130,0r227,393v45,78,75,142,91,191v-15,-149,-9,-404,-10,-584r95,0r0,667r-123,0r-211,-362v-61,-104,-98,-180,-112,-229v13,152,7,410,8,591r-95,0","w":705},"O":{"d":"372,13v-204,0,-324,-141,-324,-345v0,-208,112,-348,327,-348v197,0,318,145,318,347v0,200,-116,346,-321,346xm374,-605v-143,0,-224,118,-224,271v0,147,84,272,221,272v136,0,220,-125,220,-269v0,-147,-81,-274,-217,-274","w":741},"P":{"d":"87,0r0,-667v95,0,247,-2,301,18v69,26,121,91,121,181v0,90,-51,153,-119,181v-38,16,-132,21,-208,20r0,267r-95,0xm182,-348v61,1,141,-3,169,-19v56,-31,75,-117,33,-169v-34,-42,-77,-50,-162,-50r-40,0r0,238","w":531},"Q":{"d":"424,10v-234,27,-374,-124,-376,-343v-2,-203,125,-347,323,-347v204,0,323,144,322,349v0,154,-69,266,-177,316r160,144r-125,0xm374,-605v-141,-1,-224,119,-224,268v0,148,82,275,220,275v137,1,221,-123,221,-269v0,-147,-81,-274,-217,-274","w":741},"R":{"d":"508,-491v-1,86,-55,145,-142,157v46,21,60,41,83,91r113,243r-110,0r-86,-200v-18,-41,-35,-67,-50,-80v-22,-19,-87,-17,-135,-17r0,297r-95,0r0,-667v100,1,244,-5,311,17v63,21,111,80,111,159xm240,-379v103,3,170,-22,170,-104v0,-46,-28,-79,-64,-92v-30,-11,-112,-11,-165,-11r0,207r59,0","w":583},"S":{"d":"434,-188v1,123,-99,201,-227,201v-55,0,-106,-9,-153,-27r10,-89v49,23,92,35,131,35v76,1,138,-41,137,-113v-1,-80,-76,-104,-140,-134v-52,-25,-91,-51,-114,-79v-23,-28,-35,-63,-35,-104v-1,-113,92,-184,210,-182v49,0,98,8,146,24r-12,84v-48,-18,-90,-27,-125,-27v-64,-1,-120,33,-120,92v0,23,8,42,23,59v18,21,80,53,121,73v56,28,95,56,116,83v21,27,32,61,32,104","w":474},"T":{"d":"219,0r0,-586r-213,0r0,-81r517,0r0,81r-209,0r0,586r-95,0","w":529},"U":{"d":"345,13v-115,0,-198,-54,-233,-137v-16,-39,-26,-99,-26,-180r0,-363r95,0r0,349v2,131,10,185,81,228v25,15,54,22,86,22v73,0,122,-34,145,-101v9,-26,14,-74,14,-144r0,-354r95,0r0,376v-1,95,-6,142,-40,197v-45,71,-117,107,-217,107","w":688},"V":{"d":"260,0r-255,-667r105,0r163,440v21,60,37,110,47,149v9,-43,24,-92,45,-149r163,-440r100,0r-252,667r-116,0","w":633},"W":{"d":"210,0r-205,-667r104,0r115,390v24,83,40,145,47,184v3,-24,17,-86,42,-187r96,-387r137,0r102,390r46,184v36,-186,108,-392,158,-574r98,0r-200,667r-121,0r-116,-438v-15,-55,-27,-105,-37,-152v-17,81,-28,132,-33,152r-110,438r-123,0","w":954},"X":{"d":"6,0r246,-350r-227,-317r115,0r177,252r176,-252r110,0r-224,317r250,350r-121,0r-198,-285r-190,285r-114,0","w":635},"Y":{"d":"269,0r0,-280r-264,-387r118,0r165,250v15,21,24,38,29,50v5,-12,14,-28,27,-47r167,-253r113,0r-260,384r0,283r-95,0","w":629},"Z":{"d":"30,0r0,-81r271,-393v40,-59,68,-97,85,-114v-33,1,-64,2,-93,2r-251,0r0,-81r447,0r0,88r-326,467v-19,24,-8,10,-24,34v106,-7,243,-1,356,-3r0,81r-465,0","w":534},"[":{"d":"95,204r0,-924r186,0r0,65r-100,0r0,795r100,0r0,64r-186,0","w":355},"\\":{"d":"384,204r-335,-924r77,0r338,924r-80,0","w":435},"]":{"d":"74,139r100,0r0,-795r-100,0r0,-64r186,0r0,924r-186,0r0,-65","w":355},"^":{"d":"19,-356r172,-313r118,0r172,313r-96,0r-135,-242r-135,242r-96,0","w":500},"_":{"d":"0,59r500,0r0,82r-500,0r0,-82","w":500},"`":{"d":"242,-571r-118,-137r100,0r82,137r-64,0","w":500},"a":{"d":"213,7v-97,0,-170,-54,-170,-147v0,-51,23,-91,67,-119v58,-37,151,-48,257,-39v-1,-82,-41,-123,-122,-123v-49,0,-97,16,-144,48r-5,-80v106,-67,292,-63,339,45v35,79,11,304,25,408r-83,0v-1,-13,-1,-26,-1,-39v0,-10,0,-25,1,-45v-36,61,-91,91,-164,91xm139,-141v0,76,108,95,167,57v47,-29,63,-65,63,-147v-17,-2,-33,-3,-49,-3v-121,0,-181,31,-181,93","w":529},"b":{"d":"326,7v-78,0,-140,-37,-168,-91r0,84r-87,0r0,-720r91,0r-3,315v22,-55,92,-93,169,-93v132,0,210,109,210,249v0,144,-76,256,-212,256xm310,-421v-89,-1,-146,83,-146,177v0,90,57,175,142,174v84,0,136,-84,136,-175v0,-92,-48,-175,-132,-176","w":577},"c":{"d":"287,6v-148,2,-249,-102,-248,-250v1,-148,97,-251,245,-251v40,0,77,7,111,20r-6,80v-26,-15,-56,-23,-89,-23v-96,-2,-165,74,-165,170v0,101,66,178,163,177v35,0,69,-10,102,-31r7,83v-34,17,-74,25,-120,25","w":427},"d":{"d":"253,7v-136,0,-214,-107,-214,-250v0,-140,82,-256,214,-255v68,0,122,28,162,85r-3,-67r0,-240r91,0r0,492v0,70,2,146,7,228r-88,0r0,-82v-41,59,-98,89,-169,89xm276,-421v-88,0,-141,83,-141,178v0,94,50,173,137,173v85,1,142,-83,142,-174v0,-89,-56,-177,-138,-177","w":580},"e":{"d":"289,13v-154,2,-250,-106,-250,-262v0,-145,90,-254,231,-253v149,0,221,119,212,281r-352,0v10,90,69,157,164,157v51,0,101,-15,152,-46r0,87v-53,24,-105,36,-157,36xm392,-292v-9,-88,-48,-138,-125,-138v-79,0,-127,63,-136,138r261,0","w":522},"f":{"d":"296,-646v-84,-1,-89,66,-87,157r133,0r0,71r-133,0r0,418r-91,0r0,-418r-115,0r0,-71r115,0v-5,-149,30,-231,158,-234v21,0,43,3,66,8r0,75v-21,-4,-37,-6,-46,-6","w":353},"g":{"d":"252,-497v78,0,141,37,165,92v2,-23,-1,-57,0,-85r85,0r0,405v0,81,-5,137,-16,170v-26,84,-110,127,-223,126v-61,0,-122,-11,-185,-34r9,-88v61,30,119,45,174,45v109,0,156,-56,155,-174v0,-17,0,-30,1,-41v-37,55,-92,82,-163,82v-133,1,-215,-106,-215,-243v0,-141,80,-255,213,-255xm275,-420v-88,0,-140,81,-140,177v0,89,52,167,135,167v86,1,143,-79,143,-171v0,-87,-57,-174,-138,-173","w":566},"h":{"d":"321,-498v132,2,183,88,183,241r0,257r-91,0r0,-212v0,-64,-3,-107,-9,-128v-14,-54,-48,-81,-102,-81v-65,0,-115,45,-130,100v-18,67,-9,226,-11,321r-91,0r0,-720r91,0r0,233v0,35,-1,61,-3,77v35,-59,89,-88,163,-88","w":567},"i":{"d":"63,-606r0,-100r99,0r0,100r-99,0xm69,0r0,-489r91,0r0,489r-91,0","w":229},"j":{"d":"81,-606r0,-100r99,0r0,100r-99,0xm84,58r1,-547r91,0r0,479v-1,74,2,85,-12,132v-21,66,-92,100,-182,81r0,-75v61,11,102,-17,102,-70","w":248},"k":{"d":"70,0r0,-720r91,0r-3,435v11,-13,25,-28,42,-45r159,-159r122,0r-228,216r259,273r-128,0r-166,-180v-5,-5,-13,-16,-26,-32v-13,-16,-24,-30,-34,-40v6,69,2,174,3,252r-91,0","w":518},"l":{"d":"69,0r0,-720r91,0r0,720r-91,0","w":229},"m":{"d":"158,-410v23,-52,81,-88,154,-88v74,0,122,33,144,98v33,-65,86,-98,161,-98v79,0,134,42,151,106v25,92,10,271,13,392r-91,0r0,-240v0,-57,-4,-94,-8,-113v-17,-75,-106,-88,-156,-40v-46,44,-52,83,-52,186r0,207r-91,0r0,-251v0,-53,-3,-87,-7,-103v-17,-73,-97,-86,-150,-43v-49,39,-60,83,-60,181r0,216r-91,0r0,-276v0,-62,-2,-133,-6,-213r84,0","w":844},"n":{"d":"75,0r0,-242v0,-83,-2,-166,-6,-247r85,0r4,77v39,-57,95,-86,168,-86v89,0,148,47,169,119v21,78,11,267,13,379r-91,0r0,-220v0,-61,-3,-102,-8,-121v-15,-53,-49,-80,-103,-80v-66,0,-114,46,-129,101v-17,63,-10,226,-11,320r-91,0","w":571},"o":{"d":"288,13v-141,0,-249,-114,-249,-256v0,-145,106,-259,249,-259v149,0,252,112,252,262v0,144,-108,253,-252,253xm290,-430v-94,0,-155,86,-155,186v0,101,60,185,155,185v92,0,154,-84,154,-181v0,-103,-58,-190,-154,-190","w":579},"p":{"d":"541,-251v0,143,-78,258,-212,258v-77,0,-133,-32,-168,-96v7,92,5,194,5,293r-91,0r0,-479v0,-74,-2,-145,-6,-214r86,0r6,86v38,-63,95,-95,170,-95v131,-1,210,109,210,247xm313,-421v-89,-1,-147,83,-147,177v0,90,58,175,143,174v83,0,136,-85,136,-175v0,-93,-47,-175,-132,-176","w":581},"q":{"d":"251,7v-136,1,-213,-107,-213,-249v0,-144,80,-256,216,-256v82,0,142,41,168,101v-4,-27,-4,-62,-4,-92r88,0r0,693r-91,0r0,-212v0,-34,2,-60,5,-77v-37,61,-93,92,-169,92xm277,-421v-88,-1,-143,83,-143,177v0,94,51,174,138,174v85,1,142,-83,142,-174v0,-90,-54,-177,-137,-177","w":578},"r":{"d":"75,0r0,-298v0,-36,-2,-100,-6,-191r84,0r5,87v35,-77,99,-109,188,-87r0,83v-82,-31,-151,25,-169,93v-18,66,-9,220,-11,313r-91,0","w":360},"s":{"d":"346,-140v0,93,-79,151,-178,149v-45,0,-87,-9,-127,-28r0,-81v45,21,83,32,115,32v47,1,94,-22,94,-64v0,-53,-62,-66,-103,-88v-65,-35,-110,-59,-112,-136v-2,-89,75,-144,170,-142v36,0,74,7,114,20r-7,77v-33,-17,-66,-25,-99,-25v-44,-1,-82,20,-82,61v0,25,23,48,68,71v71,36,147,59,147,154","w":378},"t":{"d":"129,-58v-32,-70,-15,-250,-19,-360r-113,0r0,-71r113,0r0,-110r91,-31r0,141r129,0r0,71r-129,0r0,194v0,48,2,80,5,96v9,57,80,72,134,42r0,78v-84,28,-181,16,-211,-50","w":367},"u":{"d":"244,7v-75,0,-133,-35,-157,-88v-16,-33,-24,-82,-24,-149r0,-259r91,0v3,108,-11,282,13,358v14,45,48,66,95,66v68,0,125,-59,134,-127v10,-78,2,-207,3,-297r91,0r0,308v0,50,2,110,6,181r-83,0r-5,-76v-39,55,-94,83,-164,83","w":566},"v":{"d":"186,0r-180,-489r98,0r100,282v21,59,33,99,36,122v5,-34,12,-51,21,-78r115,-326r90,0r-176,489r-104,0","w":472},"w":{"d":"167,0r-161,-489r99,0r80,263v21,69,33,117,37,144r4,-17v5,-23,13,-51,24,-85r96,-305r106,0r89,269v13,39,26,85,38,138v23,-123,81,-284,117,-407r90,0r-156,489r-105,0r-84,-251v-20,-61,-35,-114,-45,-160v-33,139,-84,277,-125,411r-104,0","w":792},"x":{"d":"6,0r175,-257r-162,-232r111,0v35,57,87,121,112,182v22,-53,78,-129,109,-182r100,0r-156,232r174,257r-112,0v-38,-62,-93,-135,-123,-200v-6,22,-18,38,-30,57r-92,143r-106,0","w":475},"y":{"d":"41,126v40,17,84,10,108,-18v20,-24,35,-53,45,-88r-188,-509r98,0r109,309v16,46,25,80,26,101v6,-41,11,-48,21,-78r115,-332r90,0r-174,484v-26,74,-49,124,-70,150v-42,55,-102,74,-185,55","w":471},"z":{"d":"36,0r0,-74r231,-284v25,-29,40,-47,46,-53r9,-9v-20,1,-43,2,-70,2r-205,0r0,-71r375,0r0,76r-236,288r-51,59v78,-10,207,-3,298,-5r0,71r-397,0","w":475},"{":{"d":"374,204v-120,8,-181,-30,-181,-146r0,-190v-1,-56,-12,-83,-56,-94r0,-64v37,-10,56,-41,56,-92r0,-199v1,-112,60,-145,181,-139r0,65v-77,2,-95,7,-95,82r0,196v-1,69,-15,91,-58,119v42,27,57,54,58,121r0,193v2,75,17,82,95,83r0,65","w":493},"|":{"d":"205,167r0,-834r90,0r0,834r-90,0","w":500},"}":{"d":"300,65v-1,112,-60,145,-181,139r0,-65v77,-2,95,-7,95,-82r0,-196v1,-69,15,-91,58,-119v-42,-27,-57,-54,-58,-121r0,-193v-2,-75,-17,-82,-95,-83r0,-65r44,0v96,1,137,48,137,146r0,190v1,56,12,83,56,94r0,64v-37,10,-56,41,-56,92r0,199","w":493},"~":{"d":"226,-645v-47,0,-59,30,-82,69r-52,-34v31,-71,67,-115,141,-122v36,-4,169,65,204,62v50,-3,58,-25,85,-64r53,31v-33,70,-71,119,-150,119v-21,0,-68,-15,-141,-46v-22,-10,-41,-15,-58,-15","w":667},"\u00a0":{"w":250},"\u00a1":{"d":"123,-386r0,-103r103,0r0,103r-103,0xm118,178r16,-481r82,0r12,481r-110,0","w":391},"\u00a2":{"d":"91,-339v0,-139,92,-237,221,-249r0,-77r51,0r0,77v35,4,64,10,85,18r-6,80v-21,-12,-48,-19,-79,-21r0,344v33,-3,62,-12,89,-29r8,82v-29,14,-62,22,-97,24r0,80r-51,0r0,-80v-133,-11,-221,-107,-221,-249xm312,-507v-73,21,-124,76,-124,165v0,91,49,153,124,171r0,-336"},"\u00a3":{"d":"61,0r0,-79r89,0r0,-245r-80,0r0,-53r79,0v0,-99,4,-156,41,-211v52,-77,189,-106,301,-65r-8,83v-71,-29,-127,-37,-182,0v-54,36,-60,96,-59,193r155,0r0,53r-152,0r0,245r235,0r0,79r-419,0"},"\u00a4":{"d":"76,-62r-42,-42r77,-78v-51,-73,-51,-154,1,-225r-80,-78r43,-43r79,78v72,-52,158,-52,229,-1r79,-77r42,43r-78,77v52,73,52,153,1,225r79,78r-43,43r-78,-78v-72,52,-154,52,-230,1xm144,-295v0,68,58,125,125,125v68,0,125,-58,125,-125v0,-66,-58,-125,-123,-125v-68,0,-127,57,-127,125"},"\u00a5":{"d":"224,0r0,-246r-178,0r0,-53r167,0r-46,-81r-131,0r0,-53r101,0r-132,-234r118,0r128,251v10,19,17,36,21,49v42,-106,99,-200,147,-300r114,0r-130,234r99,0r0,53r-129,0r-45,81r164,0r0,53r-173,0r0,246r-95,0"},"\u00a6":{"d":"205,-330r0,-337r90,0r0,337r-90,0xm205,-153r90,0r0,320r-90,0r0,-320","w":500},"\u00a7":{"d":"472,25v0,124,-116,188,-253,188v-59,0,-113,-9,-163,-26r8,-88v56,23,109,35,160,35v83,1,151,-29,153,-102v0,-25,-9,-45,-25,-60v-45,-44,-203,-87,-249,-130v-81,-75,-57,-231,49,-259v-58,-29,-91,-67,-91,-138v0,-110,107,-174,227,-174v55,0,106,7,152,21r-9,83v-49,-19,-97,-28,-143,-28v-74,-1,-138,30,-140,95v0,23,8,43,25,59v51,48,210,88,262,136v32,30,49,66,49,111v0,62,-33,110,-100,144v55,28,88,59,88,133xm127,-292v0,67,72,99,133,122r91,36v36,-31,54,-64,54,-100v0,-26,-9,-47,-25,-63v-32,-32,-139,-73,-196,-99v-38,33,-57,68,-57,104"},"\u00a8":{"d":"297,-587r0,-97r87,0r0,97r-87,0xm116,-587r0,-97r87,0r0,97r-87,0","w":500},"\u00a9":{"d":"393,13v-184,0,-345,-162,-345,-346v0,-190,159,-347,350,-347v181,0,339,163,339,346v0,186,-158,347,-344,347xm397,-631v-162,0,-295,136,-295,298v0,157,135,297,291,297v157,0,290,-139,290,-297v0,-156,-132,-298,-286,-298xm424,-140v-127,2,-221,-73,-221,-195v0,-115,95,-195,214,-192v36,0,68,6,96,18r-6,59v-101,-60,-235,-3,-235,113v0,81,68,143,151,141v27,0,57,-6,89,-18r4,60v-30,9,-61,14,-92,14","w":785},"\u00aa":{"d":"183,-680v101,1,133,50,127,160v-2,41,0,114,3,142r-60,0r-1,-40v-25,29,-58,44,-99,44v-61,1,-112,-33,-111,-91v1,-86,105,-106,204,-97v-1,-43,-25,-64,-73,-64v-31,0,-63,10,-94,31r-3,-57v35,-19,70,-28,107,-28xm110,-467v0,27,26,43,56,42v52,-2,83,-28,81,-90v-7,-1,-15,-2,-26,-2v-74,0,-111,17,-111,50xm52,-280r0,-47r261,0r0,47r-261,0","w":355},"\u00ab":{"d":"247,-247r134,-194r87,0r-124,194r126,198r-85,0xm191,-49r-138,-198r134,-194r87,0r-124,194r126,198r-85,0","w":535},"\u00ac":{"d":"33,-183r0,-84r433,0r0,267r-90,0r0,-183r-343,0","w":500},"\u00ad":{"d":"0,-209r0,-75r251,0r0,75r-251,0","w":251},"\u00ae":{"d":"393,13v-184,0,-345,-162,-345,-346v0,-190,159,-347,350,-347v181,0,339,163,339,346v0,186,-158,347,-344,347xm397,-631v-162,0,-295,136,-295,298v0,157,135,297,291,297v157,0,290,-139,290,-297v0,-156,-132,-298,-286,-298xm265,-143r0,-381v62,1,150,-3,192,10v37,12,69,47,69,93v0,47,-25,76,-76,89v15,8,29,24,40,47r71,142r-75,0r-52,-114v-22,-40,-22,-51,-75,-52r-29,0r0,166r-65,0xm459,-417v0,-57,-66,-53,-129,-53r0,107v64,0,129,4,129,-54","w":785},"\u00af":{"d":"108,-605r0,-57r284,0r0,57r-284,0","w":500},"\u00b0":{"d":"333,-587v0,77,-68,143,-145,143v-79,0,-146,-66,-146,-145v0,-75,70,-140,145,-140v78,0,146,65,146,142xm99,-588v0,50,39,89,89,89v46,0,88,-41,88,-87v0,-48,-41,-88,-89,-88v-46,0,-88,40,-88,86","w":375},"\u00b1":{"d":"232,-177r0,-187r-193,0r0,-73r193,0r0,-186r73,0r0,186r194,0r0,73r-194,0r0,187r-73,0xm39,-57r0,-73r460,0r0,73r-460,0"},"\u00b2":{"d":"212,-600v2,49,-78,126,-126,161r132,0r0,39r-191,0r0,-46v89,-71,133,-122,133,-154v0,-25,-26,-40,-53,-39v-20,0,-43,7,-68,22r-6,-44v73,-33,177,-20,179,61","w":248},"\u00b3":{"d":"214,-476v1,81,-114,93,-187,67r2,-44v29,11,53,17,73,17v31,1,58,-15,60,-43v2,-34,-42,-47,-97,-44r0,-40v53,2,98,-10,96,-41v-2,-24,-28,-37,-54,-36v-20,0,-43,5,-68,16r-4,-42v71,-26,175,-17,176,61v0,28,-16,49,-49,62v35,14,52,36,52,67","w":248},"\u00b4":{"d":"194,-571r82,-137r100,0r-118,137r-64,0","w":500},"\u00b5":{"d":"369,-77v-26,54,-54,89,-123,89v-49,0,-87,-23,-116,-70r0,227r-90,0r0,-649r90,0r0,266v1,65,5,96,36,126v21,21,49,32,82,32v81,0,121,-69,121,-165r0,-259r90,0r0,480r-90,0r0,-77","w":500},"\u00b6":{"d":"23,-479v3,-126,75,-188,213,-188r266,0r0,70r-51,0r0,801r-77,0r0,-801r-89,0r0,801r-77,0r0,-501v-115,1,-188,-68,-185,-182"},"\u00b7":{"d":"80,-193r0,-107r107,0r0,107r-107,0","w":267},"\u00b8":{"d":"282,123v1,-22,-22,-38,-46,-37v-5,0,-16,2,-35,7r-16,-16r48,-77r40,0r-33,54v59,-17,112,9,112,63v0,51,-56,83,-112,83v-33,0,-63,-7,-92,-20r17,-34v38,19,114,26,117,-23","w":500},"\u00b9":{"d":"116,-400r0,-220r-41,34r-29,-31r75,-58r44,0r0,275r-49,0","w":248},"\u00ba":{"d":"365,-521v0,88,-72,153,-162,153v-90,0,-161,-66,-161,-155v0,-90,70,-157,161,-157v94,0,162,65,162,159xm110,-523v0,58,38,105,94,105v54,0,93,-48,93,-104v0,-59,-37,-108,-93,-108v-56,0,-94,48,-94,107xm52,-280r0,-47r303,0r0,47r-303,0","w":407},"\u00bb":{"d":"258,-49r127,-198r-124,-194r86,0r134,194r-137,198r-86,0xm64,-49r126,-198r-124,-194r87,0r134,194r-138,198r-85,0","w":535},"\u00bc":{"d":"219,32r364,-731r59,0r-365,731r-58,0xm163,-265r0,-310r-50,44r-41,-50r101,-86r61,0r0,402r-71,0xm536,-84r0,-56r156,-261r91,0r0,254r50,0r0,63r-50,0r0,84r-71,0r0,-84r-176,0xm615,-147r97,0r2,-157v0,-6,1,-12,2,-19","w":862},"\u00bd":{"d":"219,32r364,-731r59,0r-365,731r-58,0xm163,-265r0,-310r-50,44r-41,-50r101,-86r61,0r0,402r-71,0xm671,-406v72,-2,133,45,132,114v0,59,-53,136,-160,229r168,0r0,63r-258,0r0,-71v116,-101,174,-174,174,-219v0,-31,-31,-53,-65,-52v-27,0,-58,11,-93,32r-8,-70v41,-17,78,-26,110,-26","w":862},"\u00be":{"d":"219,32r364,-731r59,0r-365,731r-58,0xm299,-377v0,76,-66,119,-147,117v-35,0,-70,-6,-106,-19r4,-70v39,17,72,26,98,26v40,1,75,-22,75,-59v0,-41,-33,-61,-100,-61v-8,0,-17,1,-27,2r0,-65r22,0v69,0,104,-19,104,-56v0,-32,-31,-50,-66,-49v-27,0,-59,8,-94,25r-5,-67v100,-39,240,-22,238,91v0,39,-20,68,-60,87v43,22,64,55,64,98xm536,-84r0,-56r156,-261r91,0r0,254r50,0r0,63r-50,0r0,84r-71,0r0,-84r-176,0xm615,-147r97,0r2,-157v0,-6,1,-12,2,-19","w":862},"\u00bf":{"d":"188,-384r0,-105r102,0r0,105r-102,0xm250,189v-112,0,-209,-66,-205,-172v3,-89,39,-114,93,-183v43,-55,57,-57,59,-137r86,0v0,45,-5,79,-15,101v-10,22,-35,56,-74,100v-34,38,-50,75,-50,108v0,62,52,99,117,98v47,0,95,-12,144,-37r7,93v-56,19,-110,29,-162,29","w":509},"\u00c0":{"d":"308,-733r-129,-130r110,0r88,130r-69,0xm5,0r284,-667r100,0r289,667r-107,0r-70,-169r-324,0r-69,169r-103,0xm207,-250r261,0r-77,-186v-31,-73,-49,-122,-54,-149v-23,73,-94,245,-130,335","w":683},"\u00c1":{"d":"316,-733r87,-130r111,0r-129,130r-69,0xm5,0r284,-667r100,0r289,667r-107,0r-70,-169r-324,0r-69,169r-103,0xm207,-250r261,0r-77,-186v-31,-73,-49,-122,-54,-149v-23,73,-94,245,-130,335","w":683},"\u00c2":{"d":"190,-733r110,-130r91,0r110,130r-84,0r-72,-83r-71,83r-84,0xm5,0r284,-667r100,0r289,667r-107,0r-70,-169r-324,0r-69,169r-103,0xm207,-250r261,0r-77,-186v-31,-73,-49,-122,-54,-149v-23,73,-94,245,-130,335","w":683},"\u00c3":{"d":"282,-786v-23,0,-37,23,-42,45r-47,0v23,-116,96,-127,196,-77v43,22,76,15,87,-32r47,0v-6,62,-37,104,-94,107v-46,3,-102,-43,-147,-43xm5,0r284,-667r100,0r289,667r-107,0r-70,-169r-324,0r-69,169r-103,0xm207,-250r261,0r-77,-186v-31,-73,-49,-122,-54,-149v-23,73,-94,245,-130,335","w":683},"\u00c4":{"d":"391,-746r0,-97r91,0r0,97r-91,0xm197,-746r0,-97r91,0r0,97r-91,0xm5,0r284,-667r100,0r289,667r-107,0r-70,-169r-324,0r-69,169r-103,0xm207,-250r261,0r-77,-186v-31,-73,-49,-122,-54,-149v-23,73,-94,245,-130,335","w":683},"\u00c5":{"d":"442,-806v0,53,-46,100,-99,100v-54,0,-100,-46,-100,-100v0,-54,47,-99,101,-99v52,0,98,47,98,99xm294,-806v0,26,22,49,48,49v26,0,48,-23,48,-49v0,-24,-22,-48,-47,-48v-26,0,-49,22,-49,48xm5,0r284,-667r100,0r289,667r-107,0r-70,-169r-324,0r-69,169r-103,0xm207,-250r261,0r-77,-186v-31,-73,-49,-122,-54,-149v-23,73,-94,245,-130,335","w":683},"\u00c6":{"d":"6,0r402,-667r420,0r0,81r-268,0r15,201r237,0r0,81r-231,0r15,223r244,0r0,81r-332,0r-13,-171r-281,0r-101,171r-107,0xm260,-252r229,0r-22,-346","w":902},"\u00c7":{"d":"343,1v-181,-23,-295,-154,-295,-338v0,-197,150,-335,350,-335v59,0,109,10,152,30r-8,90v-46,-26,-92,-39,-139,-39v-146,-3,-253,106,-253,252v0,146,112,262,257,259v45,0,92,-10,143,-30r7,92v-54,18,-109,26,-173,22r-30,50v60,-18,112,11,112,64v0,89,-132,105,-207,66r17,-35v40,18,113,24,117,-25v-4,-35,-41,-47,-81,-31r-16,-16","w":581},"\u00c8":{"d":"254,-733r-129,-130r110,0r88,130r-69,0xm86,0r0,-667r371,0r0,81r-276,0r0,197r256,0r0,81r-256,0r0,227r284,0r0,81r-379,0","w":527},"\u00c9":{"d":"228,-733r87,-130r111,0r-129,130r-69,0xm86,0r0,-667r371,0r0,81r-276,0r0,197r256,0r0,81r-256,0r0,227r284,0r0,81r-379,0","w":527},"\u00ca":{"d":"120,-733r110,-130r91,0r110,130r-84,0r-72,-83r-71,83r-84,0xm86,0r0,-667r371,0r0,81r-276,0r0,197r256,0r0,81r-256,0r0,227r284,0r0,81r-379,0","w":527},"\u00cb":{"d":"327,-746r0,-97r91,0r0,97r-91,0xm133,-746r0,-97r91,0r0,97r-91,0xm86,0r0,-667r371,0r0,81r-276,0r0,197r256,0r0,81r-256,0r0,227r284,0r0,81r-379,0","w":527},"\u00cc":{"d":"117,-733r-119,-130r107,0r81,130r-69,0xm93,0r0,-667r95,0r0,667r-95,0","w":280},"\u00cd":{"d":"108,-733r81,-130r107,0r-119,130r-69,0xm93,0r0,-667r95,0r0,667r-95,0","w":280},"\u00ce":{"d":"5,-733r93,-130r91,0r93,130r-80,0r-58,-86r-59,86r-80,0xm93,0r0,-667r95,0r0,667r-95,0","w":280},"\u00cf":{"d":"170,-746r0,-97r86,0r0,97r-86,0xm31,-746r0,-97r86,0r0,97r-86,0xm93,0r0,-667r95,0r0,667r-95,0","w":280},"\u00d0":{"d":"86,0r0,-307r-67,0r0,-80r67,0r0,-280v101,0,249,-1,314,16v131,35,242,162,241,320v0,153,-101,269,-224,309v-79,26,-218,22,-331,22xm180,-82v82,2,176,-5,219,-24v81,-36,141,-117,141,-228v0,-112,-72,-203,-159,-234v-37,-13,-129,-18,-201,-17r0,198r173,0r0,80r-173,0r0,225","w":689},"\u00d1":{"d":"303,-786v-23,0,-37,23,-42,45r-47,0v23,-116,96,-127,196,-77v43,22,76,15,87,-32r47,0v-6,62,-37,104,-94,107v-46,3,-102,-43,-147,-43xm86,0r0,-667r130,0r227,393v45,78,75,142,91,191v-15,-149,-9,-404,-10,-584r95,0r0,667r-123,0r-211,-362v-61,-104,-98,-180,-112,-229v13,152,7,410,8,591r-95,0","w":705},"\u00d2":{"d":"350,-733r-129,-130r110,0r88,130r-69,0xm372,13v-204,0,-324,-141,-324,-345v0,-208,112,-348,327,-348v197,0,318,145,318,347v0,200,-116,346,-321,346xm374,-605v-143,0,-224,118,-224,271v0,147,84,272,221,272v136,0,220,-125,220,-269v0,-147,-81,-274,-217,-274","w":741},"\u00d3":{"d":"338,-733r87,-130r111,0r-129,130r-69,0xm372,13v-204,0,-324,-141,-324,-345v0,-208,112,-348,327,-348v197,0,318,145,318,347v0,200,-116,346,-321,346xm374,-605v-143,0,-224,118,-224,271v0,147,84,272,221,272v136,0,220,-125,220,-269v0,-147,-81,-274,-217,-274","w":741},"\u00d4":{"d":"225,-733r110,-130r91,0r110,130r-84,0r-72,-83r-71,83r-84,0xm372,13v-204,0,-324,-141,-324,-345v0,-208,112,-348,327,-348v197,0,318,145,318,347v0,200,-116,346,-321,346xm374,-605v-143,0,-224,118,-224,271v0,147,84,272,221,272v136,0,220,-125,220,-269v0,-147,-81,-274,-217,-274","w":741},"\u00d5":{"d":"311,-786v-23,0,-37,23,-42,45r-47,0v23,-116,96,-127,196,-77v43,22,76,15,87,-32r47,0v-6,62,-37,104,-94,107v-46,3,-102,-43,-147,-43xm372,13v-204,0,-324,-141,-324,-345v0,-208,112,-348,327,-348v197,0,318,145,318,347v0,200,-116,346,-321,346xm374,-605v-143,0,-224,118,-224,271v0,147,84,272,221,272v136,0,220,-125,220,-269v0,-147,-81,-274,-217,-274","w":741},"\u00d6":{"d":"429,-746r0,-97r91,0r0,97r-91,0xm235,-746r0,-97r91,0r0,97r-91,0xm372,13v-204,0,-324,-141,-324,-345v0,-208,112,-348,327,-348v197,0,318,145,318,347v0,200,-116,346,-321,346xm374,-605v-143,0,-224,118,-224,271v0,147,84,272,221,272v136,0,220,-125,220,-269v0,-147,-81,-274,-217,-274","w":741},"\u00d7":{"d":"123,-142r-52,-52r146,-146r-146,-146r52,-52r146,146r146,-146r52,52r-146,146r146,146r-52,52r-146,-146"},"\u00d8":{"d":"693,-333v0,203,-121,348,-319,346v-85,0,-154,-22,-208,-66r-62,70r-50,-42r66,-76v-48,-66,-72,-144,-72,-234v0,-202,113,-348,321,-345v80,0,148,21,205,63r62,-71r51,41r-67,77v49,67,73,146,73,237xm368,-605v-136,-1,-218,124,-218,269v0,62,12,116,37,161r324,-375v-35,-37,-83,-55,-143,-55xm371,-62v136,1,220,-124,220,-268v0,-57,-13,-113,-38,-168r-325,379v44,38,92,57,143,57","w":741},"\u00d9":{"d":"324,-733r-129,-130r110,0r88,130r-69,0xm345,13v-115,0,-198,-54,-233,-137v-16,-39,-26,-99,-26,-180r0,-363r95,0r0,349v2,131,10,185,81,228v25,15,54,22,86,22v73,0,122,-34,145,-101v9,-26,14,-74,14,-144r0,-354r95,0r0,376v-1,95,-6,142,-40,197v-45,71,-117,107,-217,107","w":688},"\u00da":{"d":"308,-733r87,-130r111,0r-129,130r-69,0xm345,13v-115,0,-198,-54,-233,-137v-16,-39,-26,-99,-26,-180r0,-363r95,0r0,349v2,131,10,185,81,228v25,15,54,22,86,22v73,0,122,-34,145,-101v9,-26,14,-74,14,-144r0,-354r95,0r0,376v-1,95,-6,142,-40,197v-45,71,-117,107,-217,107","w":688},"\u00db":{"d":"195,-733r110,-130r91,0r110,130r-84,0r-72,-83r-71,83r-84,0xm345,13v-115,0,-198,-54,-233,-137v-16,-39,-26,-99,-26,-180r0,-363r95,0r0,349v2,131,10,185,81,228v25,15,54,22,86,22v73,0,122,-34,145,-101v9,-26,14,-74,14,-144r0,-354r95,0r0,376v-1,95,-6,142,-40,197v-45,71,-117,107,-217,107","w":688},"\u00dc":{"d":"402,-746r0,-97r91,0r0,97r-91,0xm208,-746r0,-97r91,0r0,97r-91,0xm345,13v-115,0,-198,-54,-233,-137v-16,-39,-26,-99,-26,-180r0,-363r95,0r0,349v2,131,10,185,81,228v25,15,54,22,86,22v73,0,122,-34,145,-101v9,-26,14,-74,14,-144r0,-354r95,0r0,376v-1,95,-6,142,-40,197v-45,71,-117,107,-217,107","w":688},"\u00dd":{"d":"276,-733r87,-130r111,0r-129,130r-69,0xm269,0r0,-280r-264,-387r118,0r165,250v15,21,24,38,29,50v5,-12,14,-28,27,-47r167,-253r113,0r-260,384r0,283r-95,0","w":629},"\u00de":{"d":"86,0r0,-667r96,0r0,94v151,-1,240,5,294,87v41,63,45,161,2,223v-50,71,-110,90,-243,90r-53,0r0,173r-96,0xm408,-374v0,-87,-73,-123,-186,-118r-40,0r0,238r52,0v113,3,174,-30,174,-120","w":533},"\u00df":{"d":"400,-535v0,-68,-44,-120,-110,-119v-56,0,-97,36,-113,80v-11,29,-17,85,-17,170r0,404r-91,0r0,-396v1,-107,-3,-143,23,-207v29,-73,103,-122,202,-123v116,-1,204,77,202,191v0,81,-48,134,-114,154v87,3,148,88,148,183v0,122,-88,209,-219,205v-20,0,-48,-2,-83,-7r0,-80v103,45,208,-13,206,-121v-2,-101,-71,-145,-181,-140r0,-74v91,4,147,-35,147,-120","w":577},"\u00e0":{"d":"236,-571r-118,-137r100,0r82,137r-64,0xm213,7v-97,0,-170,-54,-170,-147v0,-51,23,-91,67,-119v58,-37,151,-48,257,-39v-1,-82,-41,-123,-122,-123v-49,0,-97,16,-144,48r-5,-80v106,-67,292,-63,339,45v35,79,11,304,25,408r-83,0v-1,-13,-1,-26,-1,-39v0,-10,0,-25,1,-45v-36,61,-91,91,-164,91xm139,-141v0,76,108,95,167,57v47,-29,63,-65,63,-147v-17,-2,-33,-3,-49,-3v-121,0,-181,31,-181,93","w":529},"\u00e1":{"d":"231,-571r82,-137r100,0r-118,137r-64,0xm213,7v-97,0,-170,-54,-170,-147v0,-51,23,-91,67,-119v58,-37,151,-48,257,-39v-1,-82,-41,-123,-122,-123v-49,0,-97,16,-144,48r-5,-80v106,-67,292,-63,339,45v35,79,11,304,25,408r-83,0v-1,-13,-1,-26,-1,-39v0,-10,0,-25,1,-45v-36,61,-91,91,-164,91xm139,-141v0,76,108,95,167,57v47,-29,63,-65,63,-147v-17,-2,-33,-3,-49,-3v-121,0,-181,31,-181,93","w":529},"\u00e2":{"d":"124,-571r103,-137r89,0r103,137r-76,0r-71,-92r-72,92r-76,0xm213,7v-97,0,-170,-54,-170,-147v0,-51,23,-91,67,-119v58,-37,151,-48,257,-39v-1,-82,-41,-123,-122,-123v-49,0,-97,16,-144,48r-5,-80v106,-67,292,-63,339,45v35,79,11,304,25,408r-83,0v-1,-13,-1,-26,-1,-39v0,-10,0,-25,1,-45v-36,61,-91,91,-164,91xm139,-141v0,76,108,95,167,57v47,-29,63,-65,63,-147v-17,-2,-33,-3,-49,-3v-121,0,-181,31,-181,93","w":529},"\u00e3":{"d":"428,-687v-8,53,-32,98,-85,100v-16,0,-51,-13,-105,-35v-29,-12,-52,1,-58,37r-47,0v9,-67,40,-100,92,-100v39,0,76,36,119,36v21,0,33,-13,37,-38r47,0xm213,7v-97,0,-170,-54,-170,-147v0,-51,23,-91,67,-119v58,-37,151,-48,257,-39v-1,-82,-41,-123,-122,-123v-49,0,-97,16,-144,48r-5,-80v106,-67,292,-63,339,45v35,79,11,304,25,408r-83,0v-1,-13,-1,-26,-1,-39v0,-10,0,-25,1,-45v-36,61,-91,91,-164,91xm139,-141v0,76,108,95,167,57v47,-29,63,-65,63,-147v-17,-2,-33,-3,-49,-3v-121,0,-181,31,-181,93","w":529},"\u00e4":{"d":"325,-587r0,-97r87,0r0,97r-87,0xm144,-587r0,-97r87,0r0,97r-87,0xm213,7v-97,0,-170,-54,-170,-147v0,-51,23,-91,67,-119v58,-37,151,-48,257,-39v-1,-82,-41,-123,-122,-123v-49,0,-97,16,-144,48r-5,-80v106,-67,292,-63,339,45v35,79,11,304,25,408r-83,0v-1,-13,-1,-26,-1,-39v0,-10,0,-25,1,-45v-36,61,-91,91,-164,91xm139,-141v0,76,108,95,167,57v47,-29,63,-65,63,-147v-17,-2,-33,-3,-49,-3v-121,0,-181,31,-181,93","w":529},"\u00e5":{"d":"364,-643v0,52,-45,97,-97,97v-52,0,-97,-45,-97,-98v0,-52,46,-96,99,-96v50,0,95,46,95,97xm219,-643v0,26,22,48,48,48v24,0,48,-24,48,-48v0,-24,-22,-48,-47,-48v-26,0,-49,22,-49,48xm213,7v-97,0,-170,-54,-170,-147v0,-51,23,-91,67,-119v58,-37,151,-48,257,-39v-1,-82,-41,-123,-122,-123v-49,0,-97,16,-144,48r-5,-80v106,-67,292,-63,339,45v35,79,11,304,25,408r-83,0v-1,-13,-1,-26,-1,-39v0,-10,0,-25,1,-45v-36,61,-91,91,-164,91xm139,-141v0,76,108,95,167,57v47,-29,63,-65,63,-147v-17,-2,-33,-3,-49,-3v-121,0,-181,31,-181,93","w":529},"\u00e6":{"d":"227,7v-102,0,-184,-54,-184,-150v0,-58,30,-100,88,-130v49,-26,157,-32,251,-30v-2,-86,-52,-119,-137,-119v-51,0,-99,16,-144,47r0,-83v55,-27,109,-41,162,-41v76,-1,145,32,166,84v24,-52,91,-85,168,-84v149,2,221,104,218,274r-346,0v5,95,69,161,168,160v41,0,84,-14,129,-42r0,89v-43,17,-91,25,-144,25v-96,0,-191,-43,-208,-114v-15,72,-95,114,-187,114xm716,-296v-5,-78,-43,-136,-120,-136v-75,0,-121,61,-127,136r247,0xm139,-142v-2,47,45,77,95,77v84,0,151,-79,148,-166v-114,-3,-240,-1,-243,89","w":855},"\u00e7":{"d":"285,123v0,-36,-43,-45,-81,-30r-15,-17r46,-75v-117,-15,-196,-114,-196,-245v0,-141,105,-254,245,-251v40,0,77,7,111,20r-6,80v-26,-15,-56,-23,-89,-23v-96,-2,-165,74,-165,170v0,101,66,178,163,177v35,0,69,-10,102,-31r7,83v-39,19,-82,26,-135,25r-29,47v62,-15,112,10,112,64v0,50,-56,83,-111,83v-33,0,-64,-7,-93,-20r17,-34v39,19,117,26,117,-23","w":427},"\u00e8":{"d":"243,-571r-118,-137r100,0r82,137r-64,0xm289,13v-154,2,-250,-106,-250,-262v0,-145,90,-254,231,-253v149,0,221,119,212,281r-352,0v10,90,69,157,164,157v51,0,101,-15,152,-46r0,87v-53,24,-105,36,-157,36xm392,-292v-9,-88,-48,-138,-125,-138v-79,0,-127,63,-136,138r261,0","w":522},"\u00e9":{"d":"241,-571r82,-137r100,0r-118,137r-64,0xm289,13v-154,2,-250,-106,-250,-262v0,-145,90,-254,231,-253v149,0,221,119,212,281r-352,0v10,90,69,157,164,157v51,0,101,-15,152,-46r0,87v-53,24,-105,36,-157,36xm392,-292v-9,-88,-48,-138,-125,-138v-79,0,-127,63,-136,138r261,0","w":522},"\u00ea":{"d":"126,-571r103,-137r89,0r103,137r-76,0r-71,-92r-72,92r-76,0xm289,13v-154,2,-250,-106,-250,-262v0,-145,90,-254,231,-253v149,0,221,119,212,281r-352,0v10,90,69,157,164,157v51,0,101,-15,152,-46r0,87v-53,24,-105,36,-157,36xm392,-292v-9,-88,-48,-138,-125,-138v-79,0,-127,63,-136,138r261,0","w":522},"\u00eb":{"d":"318,-587r0,-97r87,0r0,97r-87,0xm137,-587r0,-97r87,0r0,97r-87,0xm289,13v-154,2,-250,-106,-250,-262v0,-145,90,-254,231,-253v149,0,221,119,212,281r-352,0v10,90,69,157,164,157v51,0,101,-15,152,-46r0,87v-53,24,-105,36,-157,36xm392,-292v-9,-88,-48,-138,-125,-138v-79,0,-127,63,-136,138r261,0","w":522},"\u00ec":{"d":"92,-571r-108,-137r97,0r75,137r-64,0xm70,0r0,-489r91,0r0,489r-91,0","w":229},"\u00ed":{"d":"87,-571r75,-137r97,0r-108,137r-64,0xm69,0r0,-489r91,0r0,489r-91,0","w":229},"\u00ee":{"d":"-10,-571r86,-137r89,0r87,137r-73,0r-58,-95r-58,95r-73,0xm69,0r0,-489r91,0r0,489r-91,0","w":229},"\u00ef":{"d":"144,-587r0,-97r82,0r0,97r-82,0xm11,-587r0,-97r82,0r0,97r-82,0xm70,0r0,-489r91,0r0,489r-91,0","w":229},"\u00f0":{"d":"290,13v-142,0,-251,-112,-251,-255v0,-163,139,-299,311,-248v18,5,37,20,60,39v-9,-55,-59,-134,-100,-158r-108,70r-31,-46r84,-55v-29,-11,-66,-22,-113,-31r18,-55v49,1,104,15,163,42r109,-70r37,44r-94,61v93,77,166,219,165,384v-1,103,-18,151,-69,205v-46,49,-107,73,-181,73xm289,-428v-93,-1,-153,86,-153,185v0,100,59,184,154,184v92,0,154,-82,154,-179v0,-109,-53,-190,-155,-190","w":579},"\u00f1":{"d":"446,-687v-8,53,-32,98,-85,100v-16,0,-51,-13,-105,-35v-29,-12,-52,1,-58,37r-47,0v9,-67,40,-100,92,-100v39,0,76,36,119,36v21,0,33,-13,37,-38r47,0xm75,0r0,-242v0,-83,-2,-166,-6,-247r85,0r4,77v39,-57,95,-86,168,-86v89,0,148,47,169,119v21,78,11,267,13,379r-91,0r0,-220v0,-61,-3,-102,-8,-121v-15,-53,-49,-80,-103,-80v-66,0,-114,46,-129,101v-17,63,-10,226,-11,320r-91,0","w":571},"\u00f2":{"d":"268,-571r-118,-137r100,0r82,137r-64,0xm288,13v-141,0,-249,-114,-249,-256v0,-145,106,-259,249,-259v149,0,252,112,252,262v0,144,-108,253,-252,253xm290,-430v-94,0,-155,86,-155,186v0,101,60,185,155,185v92,0,154,-84,154,-181v0,-103,-58,-190,-154,-190","w":579},"\u00f3":{"d":"263,-571r82,-137r100,0r-118,137r-64,0xm288,13v-141,0,-249,-114,-249,-256v0,-145,106,-259,249,-259v149,0,252,112,252,262v0,144,-108,253,-252,253xm290,-430v-94,0,-155,86,-155,186v0,101,60,185,155,185v92,0,154,-84,154,-181v0,-103,-58,-190,-154,-190","w":579},"\u00f4":{"d":"152,-571r103,-137r89,0r103,137r-76,0r-71,-92r-72,92r-76,0xm288,13v-141,0,-249,-114,-249,-256v0,-145,106,-259,249,-259v149,0,252,112,252,262v0,144,-108,253,-252,253xm290,-430v-94,0,-155,86,-155,186v0,101,60,185,155,185v92,0,154,-84,154,-181v0,-103,-58,-190,-154,-190","w":579},"\u00f5":{"d":"453,-687v-8,53,-32,98,-85,100v-16,0,-51,-13,-105,-35v-29,-12,-52,1,-58,37r-47,0v9,-67,40,-100,92,-100v39,0,75,36,119,36v21,0,33,-13,37,-38r47,0xm288,13v-141,0,-249,-114,-249,-256v0,-145,106,-259,249,-259v149,0,252,112,252,262v0,144,-108,253,-252,253xm290,-430v-94,0,-155,86,-155,186v0,101,60,185,155,185v92,0,154,-84,154,-181v0,-103,-58,-190,-154,-190","w":579},"\u00f6":{"d":"343,-587r0,-97r87,0r0,97r-87,0xm162,-587r0,-97r87,0r0,97r-87,0xm288,13v-141,0,-249,-114,-249,-256v0,-145,106,-259,249,-259v149,0,252,112,252,262v0,144,-108,253,-252,253xm290,-430v-94,0,-155,86,-155,186v0,101,60,185,155,185v92,0,154,-84,154,-181v0,-103,-58,-190,-154,-190","w":579},"\u00f7":{"d":"221,-444r0,-95r95,0r0,95r-95,0xm39,-304r0,-73r460,0r0,73r-460,0xm221,-142r0,-95r95,0r0,95r-95,0"},"\u00f8":{"d":"540,-242v0,146,-107,258,-252,255v-53,0,-103,-15,-148,-46r-54,61r-46,-42r56,-61v-38,-46,-57,-102,-57,-169v0,-145,106,-258,249,-258v56,0,106,15,149,46r55,-61r46,39r-56,63v39,47,58,104,58,173xm290,-430v-132,-2,-192,166,-132,290r220,-257v-20,-22,-49,-33,-88,-33xm291,-59v91,1,154,-87,154,-184v0,-40,-9,-75,-26,-106r-221,255v24,23,55,35,93,35","w":579},"\u00f9":{"d":"258,-571r-118,-137r100,0r82,137r-64,0xm244,7v-75,0,-133,-35,-157,-88v-16,-33,-24,-82,-24,-149r0,-259r91,0v3,108,-11,282,13,358v14,45,48,66,95,66v68,0,125,-59,134,-127v10,-78,2,-207,3,-297r91,0r0,308v0,50,2,110,6,181r-83,0r-5,-76v-39,55,-94,83,-164,83","w":566},"\u00fa":{"d":"246,-571r82,-137r100,0r-118,137r-64,0xm244,7v-75,0,-133,-35,-157,-88v-16,-33,-24,-82,-24,-149r0,-259r91,0v3,108,-11,282,13,358v14,45,48,66,95,66v68,0,125,-59,134,-127v10,-78,2,-207,3,-297r91,0r0,308v0,50,2,110,6,181r-83,0r-5,-76v-39,55,-94,83,-164,83","w":566},"\u00fb":{"d":"136,-571r103,-137r89,0r103,137r-76,0r-71,-92r-72,92r-76,0xm244,7v-75,0,-133,-35,-157,-88v-16,-33,-24,-82,-24,-149r0,-259r91,0v3,108,-11,282,13,358v14,45,48,66,95,66v68,0,125,-59,134,-127v10,-78,2,-207,3,-297r91,0r0,308v0,50,2,110,6,181r-83,0r-5,-76v-39,55,-94,83,-164,83","w":566},"\u00fc":{"d":"330,-587r0,-97r87,0r0,97r-87,0xm149,-587r0,-97r87,0r0,97r-87,0xm244,7v-75,0,-133,-35,-157,-88v-16,-33,-24,-82,-24,-149r0,-259r91,0v3,108,-11,282,13,358v14,45,48,66,95,66v68,0,125,-59,134,-127v10,-78,2,-207,3,-297r91,0r0,308v0,50,2,110,6,181r-83,0r-5,-76v-39,55,-94,83,-164,83","w":566},"\u00fd":{"d":"203,-571r82,-137r100,0r-118,137r-64,0xm41,126v40,17,84,10,108,-18v20,-24,35,-53,45,-88r-188,-509r98,0r109,309v16,46,25,80,26,101v6,-41,11,-48,21,-78r115,-332r90,0r-174,484v-26,74,-49,124,-70,150v-42,55,-102,74,-185,55","w":471},"\u00fe":{"d":"540,-251v0,143,-78,258,-212,258v-78,0,-134,-32,-168,-96v7,92,5,194,5,293r-90,0r0,-924r90,0r0,231v0,27,-2,56,-6,86v41,-63,98,-95,171,-95v131,-1,210,109,210,247xm312,-420v-89,-1,-147,83,-147,177v0,89,58,173,143,173v83,0,136,-85,136,-175v0,-93,-47,-174,-132,-175","w":580},"\u00ff":{"d":"288,-587r0,-97r87,0r0,97r-87,0xm107,-587r0,-97r87,0r0,97r-87,0xm41,126v40,17,84,10,108,-18v20,-24,35,-53,45,-88r-188,-509r98,0r109,309v16,46,25,80,26,101v6,-41,11,-48,21,-78r115,-332r90,0r-174,484v-26,74,-49,124,-70,150v-42,55,-102,74,-185,55","w":471},"\u0152":{"d":"144,-98v-103,-93,-129,-277,-54,-408v45,-79,123,-137,227,-152v133,-20,358,-6,518,-9r0,81r-268,0r0,199r249,0r0,81r-249,0r0,225r277,0r0,81r-321,0v-27,-1,-67,-1,-120,-2v-107,-2,-192,-36,-259,-96xm149,-339v1,140,84,231,209,251v20,4,73,5,114,7r0,-505v-67,0,-116,4,-148,11v-105,23,-176,110,-175,236","w":906},"\u0153":{"d":"285,13v-144,0,-246,-115,-246,-261v0,-141,103,-255,241,-255v90,0,171,42,193,108v23,-68,86,-109,175,-108v147,2,221,105,216,279r-344,0v6,95,66,160,164,160v47,0,91,-15,132,-45r0,90v-45,21,-95,32,-151,32v-94,1,-170,-39,-192,-108v-20,65,-101,108,-188,108xm764,-295v0,-77,-44,-136,-117,-136v-72,0,-122,64,-126,136r243,0xm284,-431v-94,0,-149,86,-149,187v0,96,59,185,148,185v91,0,149,-88,149,-185v0,-97,-58,-187,-148,-187","w":904},"\u0178":{"d":"372,-746r0,-97r91,0r0,97r-91,0xm178,-746r0,-97r91,0r0,97r-91,0xm269,0r0,-280r-264,-387r118,0r165,250v15,21,24,38,29,50v5,-12,14,-28,27,-47r167,-253r113,0r-260,384r0,283r-95,0","w":629},"\u02c6":{"d":"102,-571r103,-137r89,0r103,137r-76,0r-71,-92r-72,92r-76,0","w":500},"\u02dc":{"d":"397,-687v-8,53,-32,98,-85,100v-16,0,-51,-13,-105,-35v-29,-12,-52,1,-58,37r-47,0v9,-67,40,-100,92,-100v39,0,75,36,119,36v21,0,33,-13,37,-38r47,0","w":500},"\u2013":{"d":"43,-209r0,-75r452,0r0,75r-452,0"},"\u2014":{"d":"0,-209r0,-75r711,0r0,75r-711,0","w":711},"\u2018":{"d":"60,-485r83,-235r84,0r-60,235r-107,0","w":273},"\u2019":{"d":"47,-485r60,-235r107,0r-83,235r-84,0","w":273},"\u201a":{"d":"47,128r60,-235r107,0r-83,235r-84,0","w":273},"\u201c":{"d":"242,-485r83,-235r84,0r-60,235r-107,0xm60,-485r83,-235r84,0r-60,235r-107,0","w":455},"\u201d":{"d":"229,-485r59,-235r108,0r-83,235r-84,0xm47,-485r60,-235r107,0r-83,235r-84,0","w":455},"\u201e":{"d":"242,129r59,-236r108,0r-83,236r-84,0xm60,129r60,-236r107,0r-83,236r-84,0","w":455},"\u2022":{"d":"473,-338v0,74,-64,138,-138,138v-75,0,-139,-64,-139,-138v0,-76,64,-139,140,-139v73,0,137,66,137,139","w":667},"\u2026":{"d":"615,0r0,-107r107,0r0,107r-107,0xm347,0r0,-107r107,0r0,107r-107,0xm80,0r0,-107r107,0r0,107r-107,0","w":802},"\u2039":{"d":"191,-49r-138,-198r134,-194r87,0r-124,194r126,198r-85,0","w":341},"\u203a":{"d":"64,-49r126,-198r-124,-194r87,0r134,194r-138,198r-85,0","w":341},"\u20ac":{"d":"429,13v-182,0,-292,-115,-317,-280r-70,0r17,-53r48,0r0,-33r-65,0r17,-53r54,0v30,-166,130,-272,315,-274v71,0,133,16,184,49r-30,93v-69,-84,-213,-90,-292,-14v-38,36,-64,85,-75,146r325,0r-17,53r-314,0r0,33r303,0r-17,53r-280,0v19,115,91,203,214,205v61,0,112,-23,154,-69r0,112v-46,21,-97,32,-154,32","w":654},"\u2122":{"d":"365,-287r0,-381r101,0r107,255v6,15,12,30,17,47v35,-104,81,-202,121,-302r102,0r0,381r-65,0r1,-328v-38,117,-87,218,-131,328r-60,0r-77,-184v-18,-43,-36,-89,-55,-139v7,107,3,212,4,323r-65,0xm128,-287r0,-327r-128,0r0,-54r318,0r0,54r-125,0r0,327r-65,0","w":861}}});
