/*!
 * The following copyright notice may not be removed under any circumstances.
 * 
 * Copyright:
 * Typeface © FontSite Inc., 1996-2008. All Rights Reserved. www.fontsite.com
 * 
 * Trademark:
 * CartoGothic is a trademark of FontSite Inc.
 * 
 * Designer:
 * FontSite.com
 * 
 * Vendor URL:
 * http://www.fontsite.com
 * 
 * License information:
 * http://www.fontsite.com/license.html
 */
Cufon.registerFont({"w":536,"face":{"font-family":"CartoGothic Std","font-weight":700,"font-style":"italic","font-stretch":"normal","units-per-em":"1000","panose-1":"2 11 7 3 3 5 4 9 2 4","ascent":"758","descent":"-242","x-height":"14","bbox":"-98 -907 1052 216.068","underline-thickness":"50","underline-position":"-50","slope":"-12","unicode-range":"U+0020-U+2122"},"glyphs":{" ":{"w":250},"!":{"d":"131,-193r76,-474r152,0r-122,474r-106,0xm78,0r26,-125r132,0r-26,125r-132,0","w":375},"\"":{"d":"298,-452r33,-268r141,0r-80,268r-94,0xm115,-452r34,-268r140,0r-80,268r-94,0","w":407},"#":{"d":"69,0r39,-184r-90,0r19,-90r90,0r28,-133r-90,0r19,-90r90,0r37,-170r102,0r-36,170r99,0r36,-170r103,0r-37,170r90,0r-19,90r-90,0r-28,133r90,0r-19,90r-90,0r-39,184r-103,0r39,-184r-98,0r-39,184r-103,0xm230,-274r98,0r29,-133r-99,0"},"$":{"d":"11,-34r37,-118v45,37,101,55,170,54r42,-197v-47,-23,-80,-43,-101,-59v-70,-51,-81,-149,-34,-224v42,-67,103,-93,216,-98r17,-79r50,0r-17,81v48,1,100,11,156,31r-35,111v-39,-27,-87,-40,-143,-41r-37,174v47,24,80,45,101,61v71,52,83,152,37,232v-43,75,-110,105,-224,114r-17,79r-50,0r17,-81v-86,-3,-122,-12,-185,-40xm319,-573v-62,-1,-116,61,-79,115v7,10,24,22,47,37xm268,-98v52,-8,96,-40,97,-95v0,-31,-20,-57,-60,-79"},"%":{"d":"196,41r493,-749r76,0r-493,749r-76,0xm298,-697v90,0,146,48,143,137v-4,119,-64,217,-190,217v-89,0,-140,-47,-140,-136v0,-116,70,-218,187,-218xm290,-624v-54,0,-88,80,-87,145v0,42,17,63,50,63v55,0,90,-88,89,-146v0,-41,-17,-62,-52,-62xm669,16v-90,0,-140,-47,-140,-137v0,-117,70,-218,187,-218v91,0,143,48,143,138v-2,110,-66,217,-190,217xm714,-266v-52,0,-84,88,-82,151v0,39,15,58,45,58v53,0,84,-96,83,-150v0,-39,-15,-59,-46,-59","w":960},"&":{"d":"294,12v-132,0,-234,-68,-234,-192v0,-110,82,-176,189,-202v-33,-46,-54,-68,-55,-129v-2,-103,94,-169,203,-169v106,0,191,57,191,156v0,55,-25,101,-76,136v-24,16,-58,31,-103,45r99,144v34,-41,54,-95,61,-161r114,0v-9,99,-47,183,-113,252r78,108r-145,0r-23,-33v-53,30,-115,45,-186,45xm404,-589v-62,0,-102,58,-78,119v4,11,13,28,27,49r41,-14v55,-22,83,-52,83,-89v1,-38,-34,-65,-73,-65xm302,-298v-61,17,-111,54,-113,115v-1,60,54,102,116,102v46,0,85,-13,117,-40","w":697},"'":{"d":"115,-452r34,-268r140,0r-80,268r-94,0","w":225},"(":{"d":"413,-719v-120,138,-238,336,-237,567v0,105,17,223,50,355r-108,0v-46,-167,-69,-299,-69,-396v0,-150,38,-236,100,-345v26,-45,69,-105,130,-181r134,0","w":322},")":{"d":"37,203v121,-139,238,-333,237,-567v0,-104,-17,-222,-50,-355r108,0v46,170,69,302,69,396v0,89,-17,172,-51,249v-34,77,-93,170,-179,277r-134,0","w":429},"*":{"d":"220,-359r-67,-75r115,-84r-124,-56r51,-89r114,80r14,-136r100,22r-42,128r135,-23r9,99r-134,2r63,113r-92,41r-42,-124"},"+":{"d":"249,-120r0,-183r-187,0r0,-87r187,0r0,-183r92,0r0,183r188,0r0,87r-188,0r0,183r-92,0"},",":{"d":"-32,107r99,-239r145,0r-129,239r-115,0","w":269},"-":{"d":"-5,-198r22,-104r242,0r-22,104r-242,0","w":242},".":{"d":"22,0r28,-132r136,0r-28,132r-136,0","w":269},"\/":{"d":"26,203r-112,0r506,-922r111,0","w":481},"0":{"d":"240,12v-124,0,-191,-95,-191,-226v0,-108,32,-243,71,-314v55,-100,129,-151,225,-151v127,0,191,80,191,239v0,169,-64,348,-165,416v-36,24,-80,36,-131,36xm409,-476v0,-57,-20,-104,-70,-104v-51,0,-92,51,-122,154v-27,93,-41,172,-41,237v-1,56,24,100,75,101v27,0,50,-12,69,-38v46,-60,89,-263,89,-350"},"1":{"d":"189,0r84,-391v13,-61,25,-107,36,-136v-36,40,-83,68,-129,97r-58,-91r226,-146r119,0r-142,667r-136,0"},"2":{"d":"303,-679v121,-2,214,68,214,183v0,38,-9,76,-30,112v-62,107,-195,213,-301,283v86,-7,182,-1,273,-3r-22,104r-445,0r24,-111v81,-63,148,-118,202,-165v64,-55,106,-95,127,-122v21,-27,31,-55,31,-82v0,-55,-39,-91,-96,-90v-41,0,-95,16,-162,49r-5,-114v73,-29,136,-44,190,-44"},"3":{"d":"484,-201v1,132,-129,213,-276,213v-85,0,-152,-13,-203,-38r29,-104v54,26,106,39,155,39v82,2,157,-38,157,-112v0,-63,-51,-95,-154,-95v-14,0,-27,1,-40,2r19,-105v93,1,172,-2,209,-53v11,-15,16,-32,16,-49v0,-50,-45,-78,-98,-77v-46,0,-100,13,-162,40r15,-109v58,-20,116,-30,175,-30v115,-2,205,56,205,162v0,101,-67,154,-165,170v74,22,117,59,118,146"},"4":{"d":"14,-137r15,-112r333,-418r170,0r-91,433r90,0r-21,97r-90,0r-29,137r-130,0r29,-137r-276,0xm138,-228v45,-11,117,-4,173,-6r39,-182v12,-62,27,-105,42,-161v-49,97,-180,275,-254,349"},"5":{"d":"504,-227v0,144,-111,239,-273,239v-57,0,-122,-11,-196,-33r23,-108v48,22,97,33,147,33v86,2,158,-45,158,-125v0,-118,-156,-124,-262,-83r83,-363r389,0r-22,103r-263,2r-31,136v143,-17,247,72,247,199"},"6":{"d":"267,12v-135,0,-212,-81,-210,-217v2,-187,69,-365,185,-435v79,-48,233,-50,322,-10r-32,95v-153,-62,-265,-8,-317,159v33,-25,71,-37,114,-37v110,-1,181,75,180,186v-1,145,-85,259,-242,259xm293,-338v-72,1,-111,75,-111,156v0,55,28,95,81,95v66,0,111,-77,111,-151v0,-67,-27,-100,-81,-100"},"7":{"d":"41,0r327,-506v19,-29,35,-50,48,-61v-13,3,-32,4,-57,4r-260,0r22,-104r448,0r-23,112r-344,555r-161,0"},"8":{"d":"259,12v-128,0,-225,-64,-225,-184v0,-96,55,-159,164,-188v-54,-31,-81,-75,-81,-132v0,-127,98,-187,235,-187v116,0,210,55,211,161v1,83,-62,147,-146,167v62,30,93,79,93,147v0,130,-108,216,-251,216xm347,-580v-55,0,-104,38,-103,90v0,35,25,67,76,95v57,-13,114,-47,116,-109v1,-46,-41,-76,-89,-76xm263,-83v61,0,111,-50,111,-111v0,-43,-25,-80,-76,-110v-87,29,-130,72,-130,130v-1,53,41,91,95,91"},"9":{"d":"315,-679v136,0,213,82,211,220v-3,186,-67,372,-188,439v-76,43,-233,38,-311,5r33,-95v93,41,205,28,259,-48v17,-24,36,-62,54,-117v-37,27,-76,40,-117,40v-111,1,-179,-73,-179,-185v0,-145,88,-259,238,-259xm211,-425v0,55,30,97,82,97v67,0,110,-76,110,-151v0,-60,-26,-101,-82,-101v-67,0,-110,80,-110,155"},":":{"d":"99,-362r28,-132r136,0r-28,132r-136,0xm22,0r28,-132r136,0r-28,132r-136,0","w":269},";":{"d":"108,-362r28,-132r136,0r-28,132r-136,0xm-32,107r99,-239r145,0r-129,239r-115,0","w":269},"<":{"d":"58,-287r0,-107r433,-220r0,127r-297,147r297,148r0,126","w":500},"=":{"d":"62,-380r0,-87r467,0r0,87r-467,0xm62,-226r0,-87r467,0r0,87r-467,0"},">":{"d":"58,-65r0,-127r298,-148r-298,-148r0,-126r433,221r0,107","w":500},"?":{"d":"255,-677v131,-2,235,57,236,178v0,45,-19,87,-56,125v1,4,-125,99,-142,128v-9,16,-17,34,-20,55r-118,0v5,-45,16,-80,31,-103v15,-23,49,-57,102,-102v43,-37,65,-70,65,-101v-1,-53,-60,-80,-121,-79v-35,0,-73,8,-116,24r3,-109v41,-11,86,-16,136,-16xm111,0r27,-125r134,0r-27,125r-134,0","w":482},"@":{"d":"434,15v-211,0,-351,-133,-357,-343v-6,-193,161,-354,354,-354v175,0,318,126,318,297v0,106,-71,233,-165,233v-39,0,-70,-24,-78,-56v-23,36,-69,64,-125,64v-83,1,-142,-73,-142,-158v0,-100,80,-202,176,-202v46,0,79,17,98,50r8,-39r87,0r-37,192v-5,25,-7,40,-7,45v0,21,8,32,23,32v49,-2,85,-100,85,-161v0,-129,-104,-218,-236,-218v-151,0,-276,125,-274,277v2,151,107,262,274,262v63,0,125,-10,184,-31r20,79v-61,21,-129,31,-206,31xm427,-410v-48,0,-88,54,-88,105v0,41,27,72,66,72v47,0,86,-56,86,-105v0,-41,-25,-72,-64,-72","w":769},"A":{"d":"-37,0r407,-667r149,0r124,667r-136,0r-25,-155r-280,0r-89,155r-150,0xm261,-260r204,0r-30,-185v-7,-40,-10,-75,-11,-104r-5,0v-11,29,-26,58,-43,88","w":696},"B":{"d":"422,-346v75,15,112,60,112,140v0,79,-48,135,-105,168v-80,47,-266,37,-404,38r142,-667v111,2,267,-9,329,31v57,36,99,137,50,210v-29,43,-59,68,-124,80xm440,-493v0,-55,-45,-71,-112,-69r-56,0r-36,172v105,4,204,-13,204,-103xm401,-218v0,-65,-48,-84,-134,-81r-50,0r-43,201r36,0v68,-1,97,-2,135,-24v37,-22,56,-54,56,-96","w":588},"C":{"d":"373,7v-178,3,-306,-121,-301,-299v6,-230,162,-383,392,-382v63,0,127,11,192,34r-33,108v-40,-23,-86,-35,-138,-35v-156,0,-265,109,-270,266v-4,111,85,197,196,197v46,0,91,-10,135,-30r-19,121v-58,13,-109,20,-154,20","w":589},"D":{"d":"33,0r142,-667v99,1,238,-4,308,14v118,30,198,126,194,270v-5,191,-103,335,-271,369v-87,18,-255,13,-373,14xm536,-381v0,-137,-92,-193,-247,-184r-98,464v126,-3,171,-1,238,-45v61,-41,107,-137,107,-235","w":697},"E":{"d":"32,0r142,-667r396,0r-23,105r-260,0r-35,166r236,0r-22,105r-236,0r-40,186r266,0r-22,105r-402,0","w":535},"F":{"d":"24,0r142,-667r372,0r-22,105r-237,0r-36,169r226,0r-22,105r-226,0r-61,288r-136,0","w":515},"G":{"d":"390,8v-189,0,-320,-114,-316,-297v5,-242,153,-388,403,-386v78,0,153,12,225,35r-33,115v-63,-32,-125,-48,-184,-48v-164,0,-267,120,-267,278v0,139,117,236,256,189r37,-174r-144,0r22,-105r273,0r-78,364v-51,19,-115,29,-194,29","w":697},"H":{"d":"32,0r142,-667r136,0r-57,268r267,0r56,-268r136,0r-141,667r-136,0r61,-288r-267,0r-61,288r-136,0","w":696},"I":{"d":"17,0r142,-667r139,0r-142,667r-139,0","w":267},"J":{"d":"-33,-7r29,-113v55,18,118,13,144,-30v10,-15,19,-42,27,-79r93,-438r136,0r-96,449v-13,59,-22,96,-29,111v-33,76,-99,114,-198,114v-35,0,-70,-5,-106,-14","w":374},"K":{"d":"34,0r142,-667r136,0r-43,203v-7,34,-14,59,-21,75v77,-95,189,-189,278,-278r185,0r-338,305r213,362r-158,0r-121,-218v-39,-69,-61,-113,-66,-134v-16,111,-49,241,-71,352r-136,0","w":645},"L":{"d":"24,0r142,-667r136,0r-118,556r262,0r-24,111r-398,0","w":481},"M":{"d":"31,0r142,-667r219,0r33,305v10,104,15,137,12,202r5,0v11,-41,36,-97,75,-167r190,-340r224,0r-142,667r-136,0r82,-385v9,-46,29,-116,46,-175r-9,0v-9,21,-20,42,-32,63r-275,497r-120,0r-45,-365v-7,-53,-12,-118,-15,-195r-7,0r-119,560r-128,0","w":911},"N":{"d":"27,0r142,-667r170,0r133,463r11,55r5,0v6,-44,11,-76,16,-96r89,-422r128,0r-141,667r-175,0r-112,-394v-17,-59,-26,-100,-27,-123r-5,0v-1,17,-6,44,-13,79r-93,438r-128,0","w":698},"O":{"d":"345,13v-171,0,-277,-114,-277,-282v1,-124,52,-234,118,-302v69,-73,158,-109,267,-109v176,-1,279,108,278,285v-1,118,-54,231,-115,298v-67,73,-156,110,-271,110xm592,-401v1,-100,-51,-177,-145,-177v-122,0,-183,93,-217,192v-14,42,-22,84,-22,125v-2,97,52,172,143,172v107,0,186,-96,218,-189v14,-43,23,-84,23,-123","w":749},"P":{"d":"20,0r142,-667v116,0,265,-4,330,36v78,47,100,150,58,240v-42,90,-131,139,-264,138v-9,0,-33,-1,-73,-2r-54,255r-139,0xm232,-356v104,17,196,-30,196,-124v0,-41,-20,-67,-61,-78v-15,-4,-46,-6,-91,-6","w":535},"Q":{"d":"372,16v-197,9,-303,-103,-303,-287v0,-121,54,-228,118,-297v68,-74,157,-112,268,-112v169,0,281,115,278,277v-3,196,-97,333,-242,395r139,137r-161,0xm593,-399v0,-103,-48,-177,-145,-179v-111,-2,-188,97,-218,194v-14,43,-21,85,-21,126v-2,96,53,173,144,173v134,0,240,-168,240,-314","w":750},"R":{"d":"591,-511v0,111,-77,179,-197,182v58,12,63,30,78,93r55,236r-139,0r-44,-208v-19,-78,-24,-68,-123,-73r-60,281r-135,0r142,-667r212,0v141,0,211,52,211,156xm447,-491v0,-67,-41,-73,-118,-75v-18,0,-34,0,-48,1r-39,185v109,7,205,-15,205,-111","w":590},"S":{"d":"361,-572v-61,-1,-115,27,-115,81v0,55,40,62,86,89v46,27,80,49,100,70v53,54,65,135,30,210v-39,86,-119,129,-243,129v-67,0,-135,-12,-205,-36r35,-113v58,31,112,47,162,47v72,1,128,-39,128,-106v0,-19,-7,-35,-19,-49v-20,-24,-137,-87,-159,-109v-32,-32,-51,-68,-51,-115v2,-130,109,-200,253,-200v57,0,115,10,173,30r-34,108v-49,-24,-96,-36,-141,-36","w":535},"T":{"d":"154,0r118,-556r-192,0r24,-111r521,0r-24,111r-190,0r-118,556r-139,0","w":537},"U":{"d":"334,11v-145,0,-253,-67,-254,-200v0,-36,4,-72,12,-107r79,-371r136,0r-77,360v-8,40,-12,73,-12,100v-1,69,46,117,115,116v50,0,91,-20,122,-60v21,-28,39,-75,53,-141r80,-375r136,0r-84,395v-21,95,-55,165,-104,210v-53,49,-120,73,-202,73","w":702},"V":{"d":"302,-127v18,-41,20,-54,46,-101r239,-439r142,0r-373,667r-160,0r-91,-667r136,0r52,428","w":641},"W":{"d":"147,0r-41,-667r134,0r17,417v1,39,-1,78,-5,116r8,0r24,-69r37,-92r165,-372r183,0r5,399v1,33,-2,78,-7,134r9,0v19,-57,38,-105,55,-143r180,-390r141,0r-323,667r-167,0r-9,-470v-1,-15,1,-43,5,-85r-7,0v-20,74,-36,107,-62,165r-175,390r-167,0","w":965},"X":{"d":"-36,0r308,-361r-148,-306r143,0v31,75,75,154,96,234r4,0v46,-73,130,-163,187,-234r158,0r-276,320r154,347r-145,0r-79,-198v-12,-29,-20,-53,-23,-71r-5,0v-68,107,-135,174,-209,269r-165,0","w":643},"Y":{"d":"206,0r59,-275r-159,-392r141,0r71,182v12,30,22,64,32,100v9,-16,23,-37,44,-64r172,-218r156,0r-321,392r-59,275r-136,0","w":641},"Z":{"d":"-13,0r21,-99r352,-401v29,-34,42,-44,67,-66v-95,9,-207,2,-309,4r22,-105r459,0r-22,105r-354,401v-22,25,-44,45,-67,62v96,-12,218,-4,324,-6r-22,105r-471,0","w":535},"[":{"d":"127,117r101,0r-19,86r-217,0r200,-922r216,0r-18,86r-101,0","w":323},"\\":{"d":"254,203r-113,-922r105,0r115,922r-107,0","w":434},"]":{"d":"7,117r100,0r163,-751r-101,0r18,-85r217,0r-199,922r-216,0","w":376},"^":{"d":"29,-336r161,-335r168,0r161,335r-134,0r-111,-233r-111,233r-134,0","w":500},"_":{"d":"24,47r500,0r0,115r-500,0r0,-115","w":500},"`":{"d":"319,-578r-125,-137r122,0r76,137r-73,0","w":500},"a":{"d":"171,8v-86,0,-154,-52,-151,-135v5,-162,170,-187,352,-178v13,-80,-29,-112,-102,-112v-49,0,-101,13,-156,40r19,-104v53,-16,110,-24,171,-24v108,-2,188,54,188,155v0,106,-48,245,-61,350r-106,0v5,-25,6,-54,15,-75v0,-2,0,-4,1,-7v-39,60,-96,90,-170,90xm147,-137v-3,35,29,59,66,58v84,-2,130,-70,143,-151v-104,-1,-202,3,-209,93"},"b":{"d":"562,-297v0,156,-97,304,-257,304v-79,0,-126,-29,-142,-88v-6,-2,-4,12,-6,19r-17,62r-120,0r155,-719r127,0r-46,221v-7,29,-13,52,-19,68r4,2v35,-49,83,-73,143,-73v113,-1,178,87,178,204xm339,-402v-87,0,-142,109,-142,206v0,62,31,104,91,104v84,0,141,-99,141,-193v0,-66,-29,-117,-90,-117","w":590},"c":{"d":"253,3v-127,2,-217,-83,-213,-209v6,-173,109,-293,290,-291v45,0,88,6,129,19r-31,103v-29,-15,-59,-23,-92,-23v-102,0,-164,95,-164,186v0,69,47,114,116,113v36,0,69,-8,99,-24r-12,105v-44,14,-85,21,-122,21","w":428},"d":{"d":"218,7v-110,1,-176,-88,-176,-203v0,-152,94,-309,250,-305v78,2,129,30,148,97r8,-62r54,-253r129,0r-130,608v-6,28,-12,65,-19,111r-121,0r13,-67v1,-5,2,-10,4,-15r-3,-1v-35,60,-88,90,-157,90xm314,-398v-86,-2,-139,107,-139,201v0,57,29,105,81,105v84,1,149,-103,149,-194v0,-67,-28,-110,-91,-112","w":587},"e":{"d":"268,11v-132,2,-229,-78,-228,-206v0,-79,23,-150,70,-213v50,-67,121,-100,212,-100v120,-1,193,70,192,191v0,39,-4,75,-12,108r-341,0v-13,86,51,126,135,126v51,0,101,-13,152,-38r-15,103v-55,19,-110,29,-165,29xm398,-296v15,-77,-20,-125,-87,-125v-73,0,-118,58,-135,125r222,0","w":535},"f":{"d":"70,0r85,-400r-101,0r20,-94r101,0v16,-73,33,-124,50,-151v48,-79,138,-99,248,-74r-31,95v-56,-17,-101,2,-121,52v-5,14,-12,40,-21,78r118,0r-20,94r-116,0r-83,400r-129,0","w":374},"g":{"d":"441,-401r18,-93r125,0r-21,90r-76,357v-34,170,-114,259,-296,259v-63,0,-124,-12,-182,-37r33,-106v99,55,238,61,294,-29v14,-23,35,-94,51,-142r-4,-2v-32,67,-87,101,-165,101v-109,1,-175,-86,-175,-200v0,-153,94,-301,249,-301v86,0,135,34,149,103xm314,-400v-86,1,-137,95,-137,191v0,61,27,106,83,107v84,1,146,-93,146,-184v0,-76,-31,-114,-92,-114","w":588},"h":{"d":"416,-324v1,-42,-28,-75,-70,-74v-50,1,-94,35,-112,72v-41,80,-57,223,-82,326r-129,0r153,-719r128,0r-53,252v-4,16,-9,32,-14,48v31,-55,82,-82,152,-82v92,0,157,63,155,154v-2,107,-44,244,-63,347r-129,0r45,-209v13,-59,19,-98,19,-115","w":588},"i":{"d":"143,-585r26,-121r134,0r-26,121r-134,0xm24,0r103,-494r129,0r-103,494r-129,0","w":268},"j":{"d":"146,-585r26,-121r134,0r-26,121r-134,0xm27,-6r103,-488r128,0r-108,520v-14,71,-33,119,-58,144v-46,46,-113,47,-190,28r30,-92v39,12,60,3,75,-31v4,-9,11,-36,20,-81","w":268},"k":{"d":"25,0r153,-719r128,0r-92,434v11,-21,29,-44,56,-71r138,-138r168,0r-243,228r151,266r-145,0r-94,-181v-20,-39,-32,-68,-36,-87v-1,11,-3,20,-4,27r-51,241r-129,0"},"l":{"d":"22,0r153,-719r128,0r-152,719r-129,0","w":266},"m":{"d":"386,-338v0,-37,-23,-60,-60,-60v-33,0,-62,19,-89,56v-15,21,-29,59,-40,116r-47,226r-128,0r72,-352v13,-64,22,-111,26,-142r121,0r-10,66r-2,6v33,-53,82,-79,147,-79v69,1,127,31,128,103v32,-63,90,-103,169,-104v85,-1,147,60,144,145v-4,97,-49,256,-68,357r-128,0r59,-284v5,-23,8,-42,8,-57v0,-35,-24,-58,-60,-57v-33,0,-60,16,-82,47v-52,75,-70,240,-97,351r-128,0r51,-244v9,-43,14,-75,14,-94","w":856},"n":{"d":"414,-325v1,-42,-27,-73,-69,-73v-44,0,-81,21,-107,65v-42,71,-63,232,-87,333r-129,0r88,-421v6,-33,10,-57,12,-73r123,0r-16,77r3,1v31,-56,82,-83,155,-85v94,-2,157,63,155,156v-2,105,-44,243,-63,345r-128,0r45,-214v12,-57,18,-94,18,-111","w":589},"o":{"d":"268,14v-133,0,-233,-92,-229,-220v5,-175,114,-302,293,-302v144,0,228,81,228,224v0,166,-128,298,-292,298xm327,-414v-99,-2,-155,121,-155,216v0,66,39,118,101,118v92,0,156,-108,156,-209v0,-73,-34,-125,-102,-125","w":588},"p":{"d":"560,-291v0,155,-104,300,-250,298v-72,0,-120,-30,-144,-91v-4,9,0,6,-4,24r-56,263r-129,0r119,-556v11,-53,19,-100,23,-141r124,0r-22,84r4,0v35,-56,74,-89,155,-90v113,-1,180,90,180,209xm334,-401v-84,0,-139,101,-139,195v0,63,31,114,90,114v85,0,142,-100,142,-194v0,-67,-30,-115,-93,-115","w":590},"q":{"d":"222,7v-114,2,-178,-89,-178,-210v0,-152,96,-298,250,-298v81,0,130,31,146,93r4,-1v4,-31,11,-56,17,-85r125,0v-5,17,-12,44,-20,79r-132,618r-128,0r35,-169v6,-33,18,-64,27,-99v-50,48,-65,71,-146,72xm316,-398v-85,0,-140,104,-140,199v0,60,29,105,85,107v85,3,145,-110,145,-194v0,-65,-29,-112,-90,-112","w":589},"r":{"d":"227,-396v38,-72,95,-117,197,-98r-25,119v-59,-19,-113,-3,-147,36v-59,68,-74,229,-101,339r-129,0r73,-341v11,-53,20,-104,26,-153r124,0","w":375},"s":{"d":"377,-154v0,109,-100,164,-219,164v-63,0,-115,-11,-158,-33r30,-102v43,27,86,41,128,41v45,1,88,-21,89,-61v0,-16,-8,-30,-24,-41v-7,-5,-28,-18,-63,-38v-52,-31,-88,-56,-88,-124v0,-106,97,-158,213,-156v50,0,98,8,143,23r-29,94v-35,-15,-69,-23,-100,-23v-50,0,-95,15,-97,56v0,13,4,23,12,30v8,7,31,19,66,38v58,32,97,57,97,132","w":428},"t":{"d":"234,7v-86,1,-142,-49,-139,-134v3,-91,35,-187,51,-273r-95,0r20,-94r95,0r22,-102r134,-42r-30,144r119,0r-20,94r-119,0r-39,182v-8,39,-12,63,-12,73v0,64,59,60,112,40r-15,98v-28,9,-56,14,-84,14","w":374},"u":{"d":"220,9v-95,1,-159,-61,-158,-155v0,-42,21,-158,62,-348r129,0r-51,242v-8,40,-12,68,-12,83v-1,41,30,76,70,75v46,-2,85,-36,105,-71v38,-68,60,-232,83,-329r128,0r-79,379v-12,59,-19,97,-20,115r-121,0r15,-76v-39,57,-89,85,-151,85","w":588},"v":{"d":"153,0r-84,-494r131,0r39,267v5,35,8,71,8,109r3,0v55,-130,133,-253,198,-376r138,0r-291,494r-142,0","w":537},"w":{"d":"194,-494r34,323v1,23,0,28,3,53r37,-82r145,-294r145,0r23,274v3,39,4,65,4,79r0,23r4,0v44,-116,131,-261,188,-376r133,0r-274,494r-145,0r-25,-274v-5,-73,-6,-49,-1,-110r-5,0v-13,43,-31,87,-54,132r-130,252r-145,0r-64,-494r127,0","w":857},"x":{"d":"-39,0r228,-261r-108,-233r137,0r42,105v10,25,17,47,22,66v33,-51,96,-120,138,-171r152,0r-208,235r120,259r-140,0v-26,-64,-58,-122,-76,-193v-13,21,-15,28,-35,52r-116,141r-156,0","w":535},"y":{"d":"-14,100v71,22,113,9,151,-49r18,-29r-87,-516r131,0r40,282v4,25,6,54,7,87r4,0v7,-20,21,-48,41,-84r154,-285r141,0r-337,576v-51,81,-84,123,-196,127v-27,0,-59,-4,-96,-13"},"z":{"d":"-11,0r19,-89r248,-251v25,-25,52,-46,79,-61v-85,8,-162,2,-250,4r20,-97r392,0r-20,93r-244,246v-29,29,-56,51,-79,66v78,-10,183,-3,270,-5r-20,94r-415,0","w":481},"{":{"d":"137,78v0,43,28,33,85,36r-19,89v-63,-1,-102,-3,-117,-6v-66,-10,-80,-69,-65,-138v16,-74,44,-145,44,-225v0,-26,-14,-42,-41,-48r19,-88v48,-13,62,-35,74,-91r39,-182v31,-127,80,-145,243,-144r-19,89v-49,-3,-90,2,-100,35v-18,54,-34,149,-48,212v-16,70,-33,95,-88,125v40,26,47,66,34,126r-32,152v-6,28,-9,47,-9,58","w":366},"|":{"d":"210,167r0,-834r128,0r0,834r-128,0","w":500},"}":{"d":"245,-594v0,-43,-28,-33,-85,-36r19,-89v63,1,102,3,117,6v66,10,80,69,65,138v-16,74,-44,145,-44,225v0,26,14,42,41,48r-19,88v-48,13,-62,35,-74,91r-39,182v-31,127,-80,145,-243,144r19,-89v49,3,90,-2,100,-35v18,-54,34,-149,48,-212v16,-70,33,-95,88,-125v-40,-26,-47,-66,-34,-126r32,-152v6,-28,9,-47,9,-58","w":366},"~":{"d":"258,-622v-46,3,-50,23,-73,61r-71,-46v33,-76,57,-131,152,-139v34,-3,161,52,191,50v41,-2,50,-20,71,-51r73,42v-27,53,-36,77,-74,105v-26,19,-55,28,-85,28v-22,6,-161,-52,-184,-50","w":667},"\u00a0":{"w":250},"\u00a1":{"d":"159,-369r27,-125r132,0r-27,125r-132,0xm37,173r122,-474r106,0r-76,474r-152,0","w":374},"\u00a2":{"d":"215,-88v-109,-20,-167,-90,-168,-205v-1,-110,60,-211,133,-253v38,-22,84,-36,141,-39r17,-83r50,0r-17,83v39,2,71,9,96,21r-32,102v-25,-15,-53,-23,-85,-24r-64,300v41,4,76,-6,109,-24r-13,105v-39,15,-75,24,-118,20r-18,85r-50,0xm298,-481v-73,22,-117,101,-118,181v0,45,19,79,58,104"},"\u00a3":{"d":"3,0r21,-97r85,0r47,-221r-73,0r15,-71r73,0v23,-103,26,-140,69,-199v45,-61,115,-91,207,-91v51,0,99,8,142,23r-29,108v-61,-37,-159,-33,-203,16v-30,34,-32,81,-51,143r148,0r-15,71r-148,0r-47,221r224,0r-21,97r-444,0"},"\u00a4":{"d":"91,-55r-55,-55r82,-82v-48,-67,-48,-155,1,-221r-84,-84r55,-55r84,83v69,-46,154,-47,223,-1r82,-81r55,55r-81,81v49,75,50,150,1,222r83,83r-55,55r-82,-82v-71,49,-153,50,-227,1xm175,-302v0,60,51,111,111,111v60,0,111,-51,111,-111v0,-59,-51,-111,-110,-111v-61,0,-112,51,-112,111"},"\u00a5":{"d":"155,0r42,-195r-170,0r15,-71r170,0r2,-9r-21,-77r-143,0r15,-71r109,0r-67,-244r141,0v18,96,43,172,50,282v8,-21,15,-44,28,-64r137,-218r156,0r-168,244r106,0r-16,71r-139,0r-55,86r166,0r-15,71r-166,0r-41,195r-136,0"},"\u00a6":{"d":"210,-320r0,-347r128,0r0,347r-128,0xm210,-153r128,0r0,320r-128,0r0,-320","w":500},"\u00a7":{"d":"501,-288v0,81,-56,143,-123,175v56,42,61,112,28,179v-42,85,-135,145,-252,145v-57,0,-121,-12,-192,-37r33,-115v54,30,112,45,174,45v68,0,130,-32,131,-93v0,-21,-11,-39,-33,-53v-14,-9,-50,-28,-109,-56v-55,-26,-106,-69,-106,-136v0,-87,47,-132,116,-177v-30,-32,-49,-46,-49,-96v0,-139,128,-220,270,-220v48,0,103,9,166,26r-35,108v-55,-21,-104,-31,-148,-31v-70,0,-125,34,-128,91v-1,30,28,55,52,67v10,5,42,19,94,43v74,34,111,79,111,135xm212,-204v18,10,57,29,116,56v44,-32,66,-66,66,-101v0,-18,-6,-33,-20,-47v-36,-33,-95,-50,-153,-83v-73,60,-94,127,-9,175"},"\u00a8":{"d":"369,-589r24,-111r109,0r-23,111r-110,0xm180,-589r24,-111r109,0r-24,111r-109,0","w":500},"\u00a9":{"d":"420,15v-185,0,-347,-163,-347,-348v0,-191,161,-349,352,-349v181,0,340,166,340,348v0,187,-159,349,-345,349xm424,-621v-156,0,-283,132,-283,288v0,152,129,287,279,287v149,0,277,-136,277,-287v0,-150,-125,-288,-273,-288xm449,-144v-133,1,-222,-68,-222,-195v-1,-122,89,-195,215,-193v30,0,65,6,104,18r-8,74v-28,-15,-58,-23,-89,-23v-77,-1,-127,47,-127,122v0,74,56,126,131,125v27,0,58,-6,91,-17r3,76v-35,9,-68,13,-98,13","w":789},"\u00aa":{"d":"266,-680v70,-1,123,32,123,97v0,63,-29,148,-36,211r-76,0r5,-34v-27,26,-59,39,-98,39v-56,1,-101,-32,-100,-85v2,-96,109,-116,221,-109v6,-39,-16,-58,-62,-58v-31,0,-65,9,-103,27r13,-72v35,-11,72,-16,113,-16xm173,-459v0,43,70,35,93,9v14,-16,24,-34,28,-57v-3,-1,-10,-1,-21,-1v-67,0,-100,16,-100,49xm58,-280r12,-57r276,0r-12,57r-276,0","w":356},"\u00ab":{"d":"342,-39r-85,-206r144,-185r131,0r-151,200r73,191r-112,0xm138,-39r-87,-211r137,-180r131,0r-144,183r76,208r-113,0","w":537},"\u00ac":{"d":"58,-147r0,-120r433,0r0,267r-128,0r0,-147r-305,0","w":500},"\u00ad":{"d":"-5,-198r22,-104r242,0r-22,104r-242,0","w":242},"\u00ae":{"d":"420,15v-185,0,-347,-163,-347,-348v0,-191,161,-349,352,-349v181,0,340,166,340,348v0,187,-159,349,-345,349xm424,-621v-156,0,-283,132,-283,288v0,152,129,287,279,287v149,0,277,-136,277,-287v0,-150,-125,-288,-273,-288xm569,-426v0,48,-29,80,-70,89v22,17,25,23,38,53r60,137r-100,0r-45,-108v-16,-39,-26,-48,-77,-47r0,155r-91,0r0,-382r136,0v93,-2,149,27,149,103xm374,-369v52,3,100,-5,100,-49v0,-29,-20,-43,-61,-43r-39,0r0,92","w":789},"\u00af":{"d":"178,-606r14,-67r311,0r-14,67r-311,0","w":500},"\u00b0":{"d":"418,-577v0,82,-71,152,-153,152v-83,0,-154,-70,-154,-153v0,-80,73,-149,154,-149v82,0,153,69,153,150xm187,-577v0,42,36,78,78,78v40,0,77,-36,77,-77v0,-42,-37,-77,-78,-77v-40,0,-77,36,-77,76","w":377},"\u00b1":{"d":"232,-207r0,-169r-187,0r0,-87r187,0r0,-170r92,0r0,170r188,0r0,87r-188,0r0,169r-92,0xm45,-73r0,-87r467,0r0,87r-467,0"},"\u00b2":{"d":"108,-661v75,-36,184,-27,184,59v0,29,-18,61,-55,95v-32,28,-56,47,-72,56r105,0r-10,51r-201,0r11,-51v60,-43,100,-75,121,-95v21,-20,31,-36,31,-49v0,-21,-17,-33,-38,-33v-19,0,-43,7,-73,21","w":247},"\u00b3":{"d":"279,-485v-1,59,-58,91,-123,90v-37,0,-68,-6,-92,-17r15,-52v25,12,48,18,70,18v32,0,58,-12,61,-39v3,-29,-45,-40,-85,-33r10,-52v27,0,43,0,47,-1v31,-3,47,-15,47,-34v0,-18,-18,-27,-38,-27v-21,0,-45,6,-74,18r7,-54v69,-25,173,-19,173,56v0,32,-19,55,-56,69v25,13,38,32,38,58","w":247},"\u00b4":{"d":"254,-578r102,-137r132,0r-158,137r-76,0","w":500},"\u00b5":{"d":"356,0v5,-23,7,-49,15,-70v0,-2,0,-4,1,-6v-53,78,-137,107,-230,68r-31,211r-135,0r148,-697r129,0r-51,242v-8,39,-12,66,-12,82v-1,42,30,77,70,76v46,-2,86,-36,105,-71v38,-70,60,-231,83,-329r128,0r-79,379v-11,51,-17,89,-20,115r-121,0","w":588},"\u00b6":{"d":"67,-410v5,-151,87,-257,247,-257r277,0r-20,97r-40,0r-164,773r-100,0r164,-773r-78,0r-164,773r-100,0r103,-484v-81,4,-127,-51,-125,-129"},"\u00b7":{"d":"59,-184r28,-132r136,0r-28,132r-136,0","w":269},"\u00b8":{"d":"283,118v0,-32,-44,-32,-76,-22r-17,-22r57,-74r50,0r-43,55v55,-12,112,1,110,52v-2,59,-70,98,-135,98v-30,0,-61,-7,-93,-22r25,-42v22,13,43,19,64,19v31,1,58,-14,58,-42","w":500},"\u00b9":{"d":"144,-400r43,-201v-16,14,-30,20,-47,30r-30,-43r103,-62r57,0r-59,276r-67,0","w":247},"\u00ba":{"d":"433,-541v0,102,-84,179,-187,179v-84,0,-151,-55,-150,-136v0,-101,78,-182,188,-182v92,0,149,49,149,139xm189,-494v0,38,24,67,61,67v53,1,91,-59,91,-116v0,-43,-21,-72,-62,-72v-53,0,-90,62,-90,121xm58,-280r12,-57r322,0r-12,57r-322,0","w":403},"\u00bb":{"d":"227,-70r144,-183r-76,-208r113,0r87,211r-137,180r-131,0xm14,-70r151,-200r-73,-191r112,0r85,206r-143,185r-132,0","w":535},"\u00bc":{"d":"201,41r492,-749r76,0r-492,749r-76,0xm163,-267r50,-235v7,-31,12,-53,16,-65v-12,12,-51,35,-72,48r-42,-61r148,-89r80,0r-85,402r-95,0xm561,-81r10,-72r209,-250r114,0r-54,255r57,0r-14,67r-57,0r-17,81r-91,0r17,-81r-174,0xm658,-147v27,-2,62,-1,91,-1r22,-103r16,-62v-38,57,-81,112,-129,166","w":921},"\u00bd":{"d":"201,41r492,-749r76,0r-492,749r-76,0xm163,-267r50,-235v7,-31,12,-53,16,-65v-12,12,-51,35,-72,48r-42,-61r148,-89r80,0r-85,402r-95,0xm745,-410v79,-1,140,40,140,114v0,43,-27,89,-80,138v-36,33,-73,62,-111,88r159,-1r-15,71r-290,0r16,-72v60,-48,160,-120,204,-168v35,-37,17,-97,-38,-97v-25,0,-61,11,-106,32r-4,-77v47,-19,89,-28,125,-28","w":921},"\u00be":{"d":"200,41r493,-749r76,0r-493,749r-76,0xm356,-389v-1,84,-84,129,-177,129v-53,0,-98,-8,-133,-24r20,-71v36,17,70,25,102,25v47,1,92,-18,92,-59v0,-35,-31,-53,-94,-53v-9,0,-19,0,-30,1r13,-72v63,6,140,-1,140,-54v0,-28,-27,-43,-58,-42v-28,0,-64,9,-107,26r10,-75v98,-36,247,-27,249,82v0,49,-29,82,-87,101v40,18,60,47,60,86xm561,-81r9,-72r209,-250r115,0r-54,255r57,0r-15,67r-56,0r-17,81r-92,0r17,-81r-173,0xm657,-147v28,-2,62,0,92,-1v16,-72,14,-83,38,-165v-36,53,-79,109,-130,166","w":921},"\u00bf":{"d":"229,-369r27,-125r133,0r-26,125r-134,0xm245,183v-131,2,-233,-58,-235,-178v0,-45,19,-87,56,-125v-1,-4,125,-99,142,-128v9,-16,17,-34,20,-55r118,0v-7,46,-17,80,-32,103v-15,23,-49,57,-101,102v-43,37,-65,70,-65,101v1,53,60,80,121,79v31,0,70,-8,115,-23r-2,108v-42,11,-88,16,-137,16","w":482},"\u00c0":{"d":"425,-733r-124,-130r127,0r77,130r-80,0xm-37,0r407,-667r149,0r124,667r-136,0r-25,-155r-280,0r-89,155r-150,0xm261,-260r204,0r-30,-185v-7,-40,-10,-75,-11,-104r-5,0v-11,29,-26,58,-43,88","w":696},"\u00c1":{"d":"411,-733r104,-130r134,0r-155,130r-83,0xm-37,0r407,-667r149,0r124,667r-136,0r-25,-155r-280,0r-89,155r-150,0xm261,-260r204,0r-30,-185v-7,-40,-10,-75,-11,-104r-5,0v-11,29,-26,58,-43,88","w":696},"\u00c2":{"d":"302,-733r129,-130r116,0r77,130r-100,0r-45,-76r-77,76r-100,0xm-37,0r407,-667r149,0r124,667r-136,0r-25,-155r-280,0r-89,155r-150,0xm261,-260r204,0r-30,-185v-7,-40,-10,-75,-11,-104r-5,0v-11,29,-26,58,-43,88","w":696},"\u00c3":{"d":"535,-740v-41,2,-90,-46,-134,-45v-18,0,-33,14,-45,41r-54,0v25,-75,66,-113,121,-113v22,-7,102,45,127,45v22,0,40,-20,47,-39r53,0v-11,61,-50,108,-115,111xm-37,0r407,-667r149,0r124,667r-136,0r-25,-155r-280,0r-89,155r-150,0xm261,-260r204,0r-30,-185v-7,-40,-10,-75,-11,-104r-5,0v-11,29,-26,58,-43,88","w":696},"\u00c4":{"d":"511,-738r24,-115r111,0r-24,115r-111,0xm307,-738r24,-115r111,0r-24,115r-111,0xm-37,0r407,-667r149,0r124,667r-136,0r-25,-155r-280,0r-89,155r-150,0xm261,-260r204,0r-30,-185v-7,-40,-10,-75,-11,-104r-5,0v-11,29,-26,58,-43,88","w":696},"\u00c5":{"d":"574,-806v0,55,-47,101,-101,101v-55,0,-101,-47,-101,-102v0,-54,48,-100,103,-100v52,0,99,48,99,101xm430,-806v0,23,20,43,43,43v23,0,43,-21,43,-43v0,-22,-20,-43,-42,-43v-23,0,-44,20,-44,43xm-37,0r407,-667r149,0r124,667r-136,0r-25,-155r-280,0r-89,155r-150,0xm261,-260r204,0r-30,-185v-7,-40,-10,-75,-11,-104r-5,0v-11,29,-26,58,-43,88","w":696},"\u00c6":{"d":"-38,0r515,-667r472,0r-23,105r-260,0r-21,169r225,0r-23,105r-214,0r-22,183r225,0r-23,105r-346,0r18,-156r-248,0r-120,156r-155,0xm315,-261r186,0r23,-187v-1,-21,15,-85,18,-118r-31,46r-41,57","w":910},"\u00c7":{"d":"330,5v-161,-19,-258,-135,-258,-297v0,-230,161,-383,392,-382v63,0,127,11,192,34r-33,108v-39,-23,-85,-35,-138,-35v-156,0,-265,109,-270,266v-4,111,85,199,196,197v45,0,90,-10,135,-31r-19,121v-59,15,-109,22,-148,21r-41,53v15,-3,29,-5,42,-5v49,0,74,20,74,59v0,62,-69,104,-137,102v-29,0,-61,-7,-95,-22r24,-46v23,13,45,19,66,19v31,0,56,-14,57,-43v1,-29,-45,-33,-76,-23r-18,-22","w":589},"\u00c8":{"d":"356,-733r-124,-130r127,0r77,130r-80,0xm32,0r142,-667r396,0r-23,105r-260,0r-35,166r236,0r-22,105r-236,0r-40,186r266,0r-22,105r-402,0","w":535},"\u00c9":{"d":"329,-733r104,-130r134,0r-155,130r-83,0xm32,0r142,-667r396,0r-23,105r-260,0r-35,166r236,0r-22,105r-236,0r-40,186r266,0r-22,105r-402,0","w":535},"\u00ca":{"d":"230,-733r129,-130r116,0r77,130r-100,0r-45,-76r-77,76r-100,0xm32,0r142,-667r396,0r-23,105r-260,0r-35,166r236,0r-22,105r-236,0r-40,186r266,0r-22,105r-402,0","w":535},"\u00cb":{"d":"439,-738r24,-115r111,0r-24,115r-111,0xm235,-738r24,-115r111,0r-24,115r-111,0xm32,0r142,-667r396,0r-23,105r-260,0r-35,166r236,0r-22,105r-236,0r-40,186r266,0r-22,105r-402,0","w":535},"\u00cc":{"d":"214,-733r-115,-130r124,0r71,130r-80,0xm17,0r142,-667r139,0r-142,667r-139,0","w":267},"\u00cd":{"d":"193,-733r97,-130r131,0r-145,130r-83,0xm17,0r142,-667r139,0r-142,667r-139,0","w":267},"\u00ce":{"d":"95,-733r119,-130r116,0r67,130r-97,0r-38,-76r-71,76r-96,0xm17,0r142,-667r139,0r-142,667r-139,0","w":267},"\u00cf":{"d":"268,-738r25,-115r104,0r-25,115r-104,0xm111,-738r24,-115r104,0r-24,115r-104,0xm17,0r142,-667r139,0r-142,667r-139,0","w":267},"\u00d0":{"d":"33,0r63,-297r-67,0r20,-93r67,0r58,-277v100,1,237,-3,308,14v119,29,197,125,194,269v-5,195,-101,335,-270,370v-87,18,-255,13,-373,14xm537,-380v1,-139,-93,-194,-248,-185r-37,175r146,0r-20,93r-146,0r-42,196v127,-3,173,0,240,-45v60,-40,107,-137,107,-234","w":697},"\u00d1":{"d":"543,-740v-41,2,-90,-46,-134,-45v-18,0,-33,14,-45,41r-54,0v25,-75,66,-113,121,-113v22,-7,102,45,127,45v22,0,40,-20,47,-39r53,0v-11,61,-50,108,-115,111xm27,0r142,-667r170,0r133,463r11,55r5,0v6,-44,11,-76,16,-96r89,-422r128,0r-141,667r-175,0r-112,-394v-17,-59,-26,-100,-27,-123r-5,0v-1,17,-6,44,-13,79r-93,438r-128,0","w":698},"\u00d2":{"d":"454,-733r-124,-130r127,0r77,130r-80,0xm345,13v-171,0,-277,-114,-277,-282v1,-124,52,-234,118,-302v69,-73,158,-109,267,-109v176,-1,279,108,278,285v-1,118,-54,231,-115,298v-67,73,-156,110,-271,110xm592,-401v1,-100,-51,-177,-145,-177v-122,0,-183,93,-217,192v-14,42,-22,84,-22,125v-2,97,52,172,143,172v107,0,186,-96,218,-189v14,-43,23,-84,23,-123","w":749},"\u00d3":{"d":"424,-733r104,-130r134,0r-155,130r-83,0xm345,13v-171,0,-277,-114,-277,-282v1,-124,52,-234,118,-302v69,-73,158,-109,267,-109v176,-1,279,108,278,285v-1,118,-54,231,-115,298v-67,73,-156,110,-271,110xm592,-401v1,-100,-51,-177,-145,-177v-122,0,-183,93,-217,192v-14,42,-22,84,-22,125v-2,97,52,172,143,172v107,0,186,-96,218,-189v14,-43,23,-84,23,-123","w":749},"\u00d4":{"d":"328,-733r129,-130r116,0r77,130r-100,0r-45,-76r-77,76r-100,0xm345,13v-171,0,-277,-114,-277,-282v1,-124,52,-234,118,-302v69,-73,158,-109,267,-109v176,-1,279,108,278,285v-1,118,-54,231,-115,298v-67,73,-156,110,-271,110xm592,-401v1,-100,-51,-177,-145,-177v-122,0,-183,93,-217,192v-14,42,-22,84,-22,125v-2,97,52,172,143,172v107,0,186,-96,218,-189v14,-43,23,-84,23,-123","w":749},"\u00d5":{"d":"561,-740v-41,2,-90,-46,-134,-45v-18,0,-33,14,-45,41r-54,0v25,-75,66,-113,121,-113v22,-7,102,45,127,45v22,0,40,-20,47,-39r53,0v-11,61,-50,108,-115,111xm345,13v-171,0,-277,-114,-277,-282v1,-124,52,-234,118,-302v69,-73,158,-109,267,-109v176,-1,279,108,278,285v-1,118,-54,231,-115,298v-67,73,-156,110,-271,110xm592,-401v1,-100,-51,-177,-145,-177v-122,0,-183,93,-217,192v-14,42,-22,84,-22,125v-2,97,52,172,143,172v107,0,186,-96,218,-189v14,-43,23,-84,23,-123","w":749},"\u00d6":{"d":"537,-738r24,-115r111,0r-24,115r-111,0xm333,-738r24,-115r111,0r-24,115r-111,0xm345,13v-171,0,-277,-114,-277,-282v1,-124,52,-234,118,-302v69,-73,158,-109,267,-109v176,-1,279,108,278,285v-1,118,-54,231,-115,298v-67,73,-156,110,-271,110xm592,-401v1,-100,-51,-177,-145,-177v-122,0,-183,93,-217,192v-14,42,-22,84,-22,125v-2,97,52,172,143,172v107,0,186,-96,218,-189v14,-43,23,-84,23,-123","w":749},"\u00d7":{"d":"151,-142r-61,-61r144,-144r-144,-144r61,-61r144,144r144,-144r61,61r-144,144r144,144r-61,61r-144,-143"},"\u00d8":{"d":"45,-26r70,-71v-61,-93,-60,-225,-17,-337v53,-138,182,-246,354,-246v73,0,133,18,181,54r65,-67r54,54r-68,69v60,95,57,221,16,333v-52,141,-175,250,-354,250v-77,0,-137,-18,-180,-54r-67,68xm216,-194r325,-345v-42,-46,-122,-50,-183,-17v-93,51,-146,162,-151,296v0,20,3,42,9,66xm355,-89v151,-3,271,-208,227,-382r-326,343v21,26,54,39,99,39","w":749},"\u00d9":{"d":"437,-733r-124,-130r127,0r77,130r-80,0xm334,11v-145,0,-253,-67,-254,-200v0,-36,4,-72,12,-107r79,-371r136,0r-77,360v-8,40,-12,73,-12,100v-1,69,46,117,115,116v50,0,91,-20,122,-60v21,-28,39,-75,53,-141r80,-375r136,0r-84,395v-21,95,-55,165,-104,210v-53,49,-120,73,-202,73","w":702},"\u00da":{"d":"407,-733r104,-130r134,0r-155,130r-83,0xm334,11v-145,0,-253,-67,-254,-200v0,-36,4,-72,12,-107r79,-371r136,0r-77,360v-8,40,-12,73,-12,100v-1,69,46,117,115,116v50,0,91,-20,122,-60v21,-28,39,-75,53,-141r80,-375r136,0r-84,395v-21,95,-55,165,-104,210v-53,49,-120,73,-202,73","w":702},"\u00db":{"d":"308,-733r129,-130r116,0r77,130r-100,0r-45,-76r-77,76r-100,0xm334,11v-145,0,-253,-67,-254,-200v0,-36,4,-72,12,-107r79,-371r136,0r-77,360v-8,40,-12,73,-12,100v-1,69,46,117,115,116v50,0,91,-20,122,-60v21,-28,39,-75,53,-141r80,-375r136,0r-84,395v-21,95,-55,165,-104,210v-53,49,-120,73,-202,73","w":702},"\u00dc":{"d":"517,-738r24,-115r111,0r-24,115r-111,0xm313,-738r24,-115r111,0r-24,115r-111,0xm334,11v-145,0,-253,-67,-254,-200v0,-36,4,-72,12,-107r79,-371r136,0r-77,360v-8,40,-12,73,-12,100v-1,69,46,117,115,116v50,0,91,-20,122,-60v21,-28,39,-75,53,-141r80,-375r136,0r-84,395v-21,95,-55,165,-104,210v-53,49,-120,73,-202,73","w":702},"\u00dd":{"d":"365,-733r104,-130r134,0r-155,130r-83,0xm206,0r59,-275r-159,-392r141,0r71,182v12,30,22,64,32,100v9,-16,23,-37,44,-64r172,-218r156,0r-321,392r-59,275r-136,0","w":641},"\u00de":{"d":"551,-394v0,146,-117,239,-285,234v-9,0,-33,-1,-73,-2r-34,162r-139,0r142,-667r138,0r-19,94v160,-6,270,47,270,179xm209,-262v113,15,202,-29,202,-124v0,-41,-21,-67,-63,-78v-15,-4,-47,-6,-95,-6","w":534},"\u00df":{"d":"459,-562v1,-44,-36,-78,-81,-77v-33,0,-60,13,-80,38v-20,25,-38,76,-54,152r-95,449r-129,0r103,-485v34,-153,98,-240,267,-244v114,-2,198,59,198,167v-1,103,-69,165,-163,180r-1,5v80,14,125,61,125,145v0,179,-159,271,-350,229r22,-100v102,40,204,-33,200,-134v-3,-70,-37,-98,-126,-95r19,-91v76,-2,107,-23,130,-76v10,-22,15,-43,15,-63","w":588},"\u00e0":{"d":"315,-578r-125,-137r122,0r76,137r-73,0xm171,8v-86,0,-154,-52,-151,-135v5,-162,170,-187,352,-178v13,-80,-29,-112,-102,-112v-49,0,-101,13,-156,40r19,-104v53,-16,110,-24,171,-24v108,-2,188,54,188,155v0,106,-48,245,-61,350r-106,0v5,-25,6,-54,15,-75v0,-2,0,-4,1,-7v-39,60,-96,90,-170,90xm147,-137v-3,35,29,59,66,58v84,-2,130,-70,143,-151v-104,-1,-202,3,-209,93"},"\u00e1":{"d":"285,-578r102,-137r132,0r-158,137r-76,0xm171,8v-86,0,-154,-52,-151,-135v5,-162,170,-187,352,-178v13,-80,-29,-112,-102,-112v-49,0,-101,13,-156,40r19,-104v53,-16,110,-24,171,-24v108,-2,188,54,188,155v0,106,-48,245,-61,350r-106,0v5,-25,6,-54,15,-75v0,-2,0,-4,1,-7v-39,60,-96,90,-170,90xm147,-137v-3,35,29,59,66,58v84,-2,130,-70,143,-151v-104,-1,-202,3,-209,93"},"\u00e2":{"d":"175,-578r131,-137r105,0r73,137r-90,0r-43,-83r-86,83r-90,0xm171,8v-86,0,-154,-52,-151,-135v5,-162,170,-187,352,-178v13,-80,-29,-112,-102,-112v-49,0,-101,13,-156,40r19,-104v53,-16,110,-24,171,-24v108,-2,188,54,188,155v0,106,-48,245,-61,350r-106,0v5,-25,6,-54,15,-75v0,-2,0,-4,1,-7v-39,60,-96,90,-170,90xm147,-137v-3,35,29,59,66,58v84,-2,130,-70,143,-151v-104,-1,-202,3,-209,93"},"\u00e3":{"d":"273,-631v-26,2,-30,15,-42,37r-49,0v21,-71,56,-107,107,-107v22,-5,109,43,126,43v17,0,31,-13,42,-38r49,0v-10,54,-54,103,-112,107v-30,2,-98,-44,-121,-42xm171,8v-86,0,-154,-52,-151,-135v5,-162,170,-187,352,-178v13,-80,-29,-112,-102,-112v-49,0,-101,13,-156,40r19,-104v53,-16,110,-24,171,-24v108,-2,188,54,188,155v0,106,-48,245,-61,350r-106,0v5,-25,6,-54,15,-75v0,-2,0,-4,1,-7v-39,60,-96,90,-170,90xm147,-137v-3,35,29,59,66,58v84,-2,130,-70,143,-151v-104,-1,-202,3,-209,93"},"\u00e4":{"d":"382,-589r24,-111r109,0r-23,111r-110,0xm193,-589r24,-111r109,0r-24,111r-109,0xm171,8v-86,0,-154,-52,-151,-135v5,-162,170,-187,352,-178v13,-80,-29,-112,-102,-112v-49,0,-101,13,-156,40r19,-104v53,-16,110,-24,171,-24v108,-2,188,54,188,155v0,106,-48,245,-61,350r-106,0v5,-25,6,-54,15,-75v0,-2,0,-4,1,-7v-39,60,-96,90,-170,90xm147,-137v-3,35,29,59,66,58v84,-2,130,-70,143,-151v-104,-1,-202,3,-209,93"},"\u00e5":{"d":"453,-650v0,55,-47,101,-101,101v-55,0,-101,-47,-101,-102v0,-54,48,-100,103,-100v52,0,99,48,99,101xm307,-650v0,25,20,45,45,45v25,0,45,-20,45,-45v0,-23,-21,-45,-44,-45v-25,0,-46,20,-46,45xm171,8v-86,0,-154,-52,-151,-135v5,-162,170,-187,352,-178v13,-80,-29,-112,-102,-112v-49,0,-101,13,-156,40r19,-104v53,-16,110,-24,171,-24v108,-2,188,54,188,155v0,106,-48,245,-61,350r-106,0v5,-25,6,-54,15,-75v0,-2,0,-4,1,-7v-39,60,-96,90,-170,90xm147,-137v-3,35,29,59,66,58v84,-2,130,-70,143,-151v-104,-1,-202,3,-209,93"},"\u00e6":{"d":"198,9v-100,2,-177,-47,-177,-140v0,-70,47,-120,101,-144v60,-27,162,-34,265,-26v10,-71,-20,-112,-97,-112v-51,0,-108,14,-171,41r16,-104v67,-18,129,-27,188,-27v81,0,136,20,148,92v24,-56,92,-94,173,-94v121,0,191,71,190,192v0,31,-4,66,-13,103r-333,0v-9,84,50,126,134,125v41,0,86,-10,136,-29r-22,104v-57,13,-111,19,-162,19v-92,0,-149,-35,-170,-104v-39,73,-104,102,-206,104xm715,-297v20,-68,-18,-122,-82,-121v-70,2,-111,56,-128,121r210,0xm373,-227v-102,-6,-219,-4,-222,85v-1,40,34,67,76,66v81,-2,129,-66,146,-151","w":857},"\u00e7":{"d":"249,118v0,-32,-45,-32,-75,-22r-17,-22r57,-74v-106,-17,-174,-87,-174,-206v0,-173,109,-293,290,-291v45,0,88,6,129,19r-31,103v-28,-15,-59,-23,-92,-23v-102,0,-164,95,-164,186v0,69,47,114,116,113v36,0,69,-8,99,-24r-12,105v-41,14,-78,21,-113,21r-41,52v51,-13,110,-2,109,51v-1,59,-68,99,-134,99v-30,0,-61,-7,-93,-22r24,-42v22,13,44,19,65,19v30,1,57,-15,57,-42","w":428},"\u00e8":{"d":"327,-578r-125,-137r122,0r76,137r-73,0xm268,11v-132,2,-229,-78,-228,-206v0,-79,23,-150,70,-213v50,-67,121,-100,212,-100v120,-1,193,70,192,191v0,39,-4,75,-12,108r-341,0v-13,86,51,126,135,126v51,0,101,-13,152,-38r-15,103v-55,19,-110,29,-165,29xm398,-296v15,-77,-20,-125,-87,-125v-73,0,-118,58,-135,125r222,0","w":535},"\u00e9":{"d":"297,-578r102,-137r132,0r-158,137r-76,0xm268,11v-132,2,-229,-78,-228,-206v0,-79,23,-150,70,-213v50,-67,121,-100,212,-100v120,-1,193,70,192,191v0,39,-4,75,-12,108r-341,0v-13,86,51,126,135,126v51,0,101,-13,152,-38r-15,103v-55,19,-110,29,-165,29xm398,-296v15,-77,-20,-125,-87,-125v-73,0,-118,58,-135,125r222,0","w":535},"\u00ea":{"d":"194,-578r131,-137r105,0r73,137r-90,0r-43,-83r-86,83r-90,0xm268,11v-132,2,-229,-78,-228,-206v0,-79,23,-150,70,-213v50,-67,121,-100,212,-100v120,-1,193,70,192,191v0,39,-4,75,-12,108r-341,0v-13,86,51,126,135,126v51,0,101,-13,152,-38r-15,103v-55,19,-110,29,-165,29xm398,-296v15,-77,-20,-125,-87,-125v-73,0,-118,58,-135,125r222,0","w":535},"\u00eb":{"d":"395,-589r24,-111r109,0r-23,111r-110,0xm206,-589r24,-111r109,0r-24,111r-109,0xm268,11v-132,2,-229,-78,-228,-206v0,-79,23,-150,70,-213v50,-67,121,-100,212,-100v120,-1,193,70,192,191v0,39,-4,75,-12,108r-341,0v-13,86,51,126,135,126v51,0,101,-13,152,-38r-15,103v-55,19,-110,29,-165,29xm398,-296v15,-77,-20,-125,-87,-125v-73,0,-118,58,-135,125r222,0","w":535},"\u00ec":{"d":"183,-578r-115,-137r119,0r69,137r-73,0xm24,0r103,-494r129,0r-103,494r-129,0","w":268},"\u00ed":{"d":"160,-578r95,-137r129,0r-148,137r-76,0xm24,0r103,-494r129,0r-103,494r-129,0","w":268},"\u00ee":{"d":"61,-578r121,-137r105,0r63,137r-87,0r-37,-83r-78,83r-87,0xm24,0r103,-494r129,0r-103,494r-129,0","w":268},"\u00ef":{"d":"234,-589r24,-111r100,0r-24,111r-100,0xm81,-589r24,-111r100,0r-24,111r-100,0xm24,0r103,-494r129,0r-103,494r-129,0","w":268},"\u00f0":{"d":"269,14v-134,0,-230,-90,-230,-218v0,-167,93,-299,262,-299v60,0,79,14,121,43v-11,-69,-33,-115,-65,-139r-101,54r-39,-50r84,-45v-29,-11,-61,-19,-97,-26r29,-61v38,1,87,16,147,45r108,-59r39,51r-92,50v71,67,126,201,126,334v0,182,-115,320,-292,320xm326,-415v-96,-1,-156,122,-156,216v0,66,39,118,102,118v103,-1,154,-105,157,-210v2,-72,-35,-123,-103,-124","w":588},"\u00f1":{"d":"304,-631v-26,2,-30,15,-42,37r-49,0v21,-71,56,-107,107,-107v22,-5,109,43,126,43v17,0,31,-13,42,-38r49,0v-10,54,-54,103,-112,107v-30,2,-98,-44,-121,-42xm414,-325v1,-42,-27,-73,-69,-73v-44,0,-81,21,-107,65v-42,71,-63,232,-87,333r-129,0r88,-421v6,-33,10,-57,12,-73r123,0r-16,77r3,1v31,-56,82,-83,155,-85v94,-2,157,63,155,156v-2,105,-44,243,-63,345r-128,0r45,-214v12,-57,18,-94,18,-111","w":589},"\u00f2":{"d":"342,-578r-125,-137r122,0r76,137r-73,0xm268,14v-133,0,-233,-92,-229,-220v5,-175,114,-302,293,-302v144,0,228,81,228,224v0,166,-128,298,-292,298xm327,-414v-99,-2,-155,121,-155,216v0,66,39,118,101,118v92,0,156,-108,156,-209v0,-73,-34,-125,-102,-125","w":588},"\u00f3":{"d":"312,-578r102,-137r132,0r-158,137r-76,0xm268,14v-133,0,-233,-92,-229,-220v5,-175,114,-302,293,-302v144,0,228,81,228,224v0,166,-128,298,-292,298xm327,-414v-99,-2,-155,121,-155,216v0,66,39,118,101,118v92,0,156,-108,156,-209v0,-73,-34,-125,-102,-125","w":588},"\u00f4":{"d":"214,-578r131,-137r105,0r73,137r-90,0r-43,-83r-86,83r-90,0xm268,14v-133,0,-233,-92,-229,-220v5,-175,114,-302,293,-302v144,0,228,81,228,224v0,166,-128,298,-292,298xm327,-414v-99,-2,-155,121,-155,216v0,66,39,118,101,118v92,0,156,-108,156,-209v0,-73,-34,-125,-102,-125","w":588},"\u00f5":{"d":"319,-631v-26,2,-30,15,-42,37r-49,0v21,-71,56,-107,107,-107v22,-5,109,43,126,43v17,0,31,-13,42,-38r49,0v-10,54,-54,103,-112,107v-30,2,-98,-44,-121,-42xm268,14v-133,0,-233,-92,-229,-220v5,-175,114,-302,293,-302v144,0,228,81,228,224v0,166,-128,298,-292,298xm327,-414v-99,-2,-155,121,-155,216v0,66,39,118,101,118v92,0,156,-108,156,-209v0,-73,-34,-125,-102,-125","w":588},"\u00f6":{"d":"414,-589r24,-111r109,0r-23,111r-110,0xm225,-589r24,-111r109,0r-24,111r-109,0xm268,14v-133,0,-233,-92,-229,-220v5,-175,114,-302,293,-302v144,0,228,81,228,224v0,166,-128,298,-292,298xm327,-414v-99,-2,-155,121,-155,216v0,66,39,118,101,118v92,0,156,-108,156,-209v0,-73,-34,-125,-102,-125","w":588},"\u00f7":{"d":"239,-465r0,-107r112,0r0,107r-112,0xm62,-303r0,-87r467,0r0,87r-467,0xm239,-122r0,-107r112,0r0,107r-112,0"},"\u00f8":{"d":"561,-286v0,168,-125,300,-291,300v-56,0,-104,-14,-144,-41r-55,55r-46,-46r56,-55v-79,-107,-31,-268,35,-344v52,-60,122,-91,215,-91v61,0,110,13,147,40r53,-52r46,47r-53,52v25,37,37,82,37,135xm329,-414v-99,-3,-158,121,-157,212v0,9,1,22,3,40r219,-226v-17,-17,-39,-26,-65,-26xm272,-80v99,-1,153,-101,158,-202v0,-9,-2,-24,-5,-46r-215,224v19,16,40,24,62,24","w":588},"\u00f9":{"d":"345,-578r-125,-137r122,0r76,137r-73,0xm220,9v-95,1,-159,-61,-158,-155v0,-42,21,-158,62,-348r129,0r-51,242v-8,40,-12,68,-12,83v-1,41,30,76,70,75v46,-2,85,-36,105,-71v38,-68,60,-232,83,-329r128,0r-79,379v-12,59,-19,97,-20,115r-121,0r15,-76v-39,57,-89,85,-151,85","w":588},"\u00fa":{"d":"318,-578r102,-137r132,0r-158,137r-76,0xm220,9v-95,1,-159,-61,-158,-155v0,-42,21,-158,62,-348r129,0r-51,242v-8,40,-12,68,-12,83v-1,41,30,76,70,75v46,-2,85,-36,105,-71v38,-68,60,-232,83,-329r128,0r-79,379v-12,59,-19,97,-20,115r-121,0r15,-76v-39,57,-89,85,-151,85","w":588},"\u00fb":{"d":"219,-578r131,-137r105,0r73,137r-90,0r-43,-83r-86,83r-90,0xm220,9v-95,1,-159,-61,-158,-155v0,-42,21,-158,62,-348r129,0r-51,242v-8,40,-12,68,-12,83v-1,41,30,76,70,75v46,-2,85,-36,105,-71v38,-68,60,-232,83,-329r128,0r-79,379v-12,59,-19,97,-20,115r-121,0r15,-76v-39,57,-89,85,-151,85","w":588},"\u00fc":{"d":"416,-589r24,-111r109,0r-23,111r-110,0xm227,-589r24,-111r109,0r-24,111r-109,0xm220,9v-95,1,-159,-61,-158,-155v0,-42,21,-158,62,-348r129,0r-51,242v-8,40,-12,68,-12,83v-1,41,30,76,70,75v46,-2,85,-36,105,-71v38,-68,60,-232,83,-329r128,0r-79,379v-12,59,-19,97,-20,115r-121,0r15,-76v-39,57,-89,85,-151,85","w":588},"\u00fd":{"d":"284,-578r102,-137r132,0r-158,137r-76,0xm-14,100v71,22,113,9,151,-49r18,-29r-87,-516r131,0r40,282v4,25,6,54,7,87r4,0v7,-20,21,-48,41,-84r154,-285r141,0r-337,576v-51,81,-84,123,-196,127v-27,0,-59,-4,-96,-13"},"\u00fe":{"d":"561,-291v0,155,-104,300,-250,298v-72,0,-120,-30,-144,-91r-4,24r-56,263r-129,0r196,-922r129,0v-26,110,-36,211,-81,309r4,0v35,-56,74,-89,155,-90v113,-1,180,90,180,209xm335,-401v-85,0,-139,102,-139,197v0,63,31,114,90,114v84,0,142,-103,142,-196v0,-65,-32,-115,-93,-115","w":589},"\u00ff":{"d":"386,-589r24,-111r109,0r-23,111r-110,0xm197,-589r24,-111r109,0r-24,111r-109,0xm-14,100v71,22,113,9,151,-49r18,-29r-87,-516r131,0r40,282v4,25,6,54,7,87r4,0v7,-20,21,-48,41,-84r154,-285r141,0r-337,576v-51,81,-84,123,-196,127v-27,0,-59,-4,-96,-13"},"\u0152":{"d":"382,3v-200,5,-313,-111,-313,-295v0,-105,37,-195,110,-270v70,-71,164,-109,281,-106r196,5r293,0r-22,105r-250,0r-36,167r228,0r-22,105r-228,0r-39,181r255,0r-22,105r-329,0xm204,-285v0,127,103,210,240,180r97,-453v-25,-5,-48,-8,-69,-8v-157,-7,-268,130,-268,281","w":910},"\u0153":{"d":"272,12v-133,0,-235,-86,-232,-215v4,-177,120,-306,299,-304v88,1,150,26,175,96v33,-63,95,-94,186,-94v117,0,192,66,190,189v0,28,-4,63,-11,105r-334,0v-11,85,52,133,134,132v37,0,82,-11,136,-33r-22,101v-49,13,-102,20,-157,20v-90,0,-147,-30,-170,-90v-44,62,-109,93,-194,93xm770,-298v16,-66,-13,-123,-76,-121v-69,2,-112,59,-130,121r206,0xm328,-413v-90,0,-153,107,-153,207v0,71,33,121,99,124v92,4,156,-106,156,-203v0,-74,-33,-127,-102,-128","w":910},"\u0178":{"d":"475,-738r24,-115r111,0r-24,115r-111,0xm271,-738r24,-115r111,0r-24,115r-111,0xm206,0r59,-275r-159,-392r141,0r71,182v12,30,22,64,32,100v9,-16,23,-37,44,-64r172,-218r156,0r-321,392r-59,275r-136,0","w":641},"\u02c6":{"d":"172,-578r131,-137r105,0r73,137r-90,0r-43,-83r-86,83r-90,0","w":500},"\u02dc":{"d":"252,-631v-26,2,-30,15,-42,37r-49,0v21,-71,56,-107,107,-107v22,-5,109,43,126,43v17,0,31,-13,42,-38r49,0v-10,54,-54,103,-112,107v-30,2,-98,-44,-121,-42","w":500},"\u2013":{"d":"20,-198r22,-104r487,0r-22,104r-487,0"},"\u2014":{"d":"-5,-198r22,-104r721,0r-22,104r-721,0","w":721},"\u2018":{"d":"88,-480r128,-239r116,0r-99,239r-145,0","w":268},"\u2019":{"d":"92,-480r99,-239r145,0r-129,239r-115,0","w":265},"\u201a":{"d":"-32,107r99,-239r145,0r-129,239r-115,0","w":265},"\u201c":{"d":"321,-480r128,-239r116,0r-99,239r-145,0xm123,-480r128,-239r116,0r-99,239r-145,0","w":531},"\u201d":{"d":"321,-480r99,-239r145,0r-129,239r-115,0xm123,-480r99,-239r145,0r-129,239r-115,0","w":531},"\u201e":{"d":"205,107r99,-239r145,0r-129,239r-115,0xm7,107r99,-239r145,0r-129,239r-115,0","w":529},"\u2022":{"d":"473,-338v0,74,-64,138,-138,138v-75,0,-139,-64,-139,-138v0,-76,64,-139,140,-139v73,0,137,66,137,139","w":667},"\u2026":{"d":"559,0r28,-132r136,0r-28,132r-136,0xm291,0r28,-132r136,0r-28,132r-136,0xm22,0r28,-132r136,0r-28,132r-136,0","w":806},"\u2039":{"d":"108,-48r-83,-202r140,-190r132,0r-147,195r68,197r-110,0","w":268},"\u203a":{"d":"-14,-60r147,-195r-68,-197r110,0r83,202r-140,190r-132,0","w":267},"\u20ac":{"d":"412,13v-164,1,-265,-97,-275,-264r-88,0r37,-69r54,0v1,-9,2,-20,5,-33r-74,0r36,-69r57,0v53,-150,171,-256,358,-258v72,0,131,17,177,51r-64,120v-29,-46,-68,-69,-119,-69v-89,0,-157,52,-205,156r279,0r-36,69r-266,0v-3,13,-6,24,-7,33r255,0r-37,69r-222,0v4,92,52,161,142,162v53,0,100,-21,142,-63r-32,149v-38,11,-77,16,-117,16","w":699},"\u2122":{"d":"691,-580r-9,31r-96,262r-78,0r-75,-208v-11,-31,-21,-62,-29,-92r0,300r-86,0r0,-382r140,0r60,173v13,39,23,70,28,95v23,-94,63,-180,94,-268r142,0r0,382r-91,0r0,-293xm69,-287r0,-311r-115,0r0,-71r322,0r0,71r-114,0r0,311r-93,0","w":869}}});
