/*!
 * The following copyright notice may not be removed under any circumstances.
 * 
 * Copyright:
 * Typeface © FontSite Inc., 1996-2008. All Rights Reserved. www.fontsite.com
 * 
 * Trademark:
 * CartoGothic is a trademark of FontSite Inc.
 * 
 * Designer:
 * FontSite.com
 * 
 * Vendor URL:
 * http://www.fontsite.com
 * 
 * License information:
 * http://www.fontsite.com/license.html
 */
Cufon.registerFont({"w":536,"face":{"font-family":"CartoGothic Std","font-weight":700,"font-stretch":"normal","units-per-em":"1000","panose-1":"2 11 7 3 3 5 4 2 2 4","ascent":"758","descent":"-242","x-height":"13","bbox":"-35 -909 953 216.077","underline-thickness":"50","underline-position":"-50","unicode-range":"U+0020-U+2122"},"glyphs":{" ":{"w":250},"!":{"d":"152,-192r-22,-475r150,0r-21,475r-107,0xm140,0r0,-123r132,0r0,123r-132,0","w":362},"\"":{"d":"248,-452r-23,-268r140,0r-23,268r-94,0xm65,-452r-23,-268r141,0r-24,268r-94,0","w":407},"#":{"d":"63,0r32,-184r-90,0r16,-90r90,0r23,-133r-90,0r16,-90r90,0r30,-170r103,0r-30,170r98,0r30,-170r103,0r-30,170r90,0r-16,90r-90,0r-23,133r90,0r-16,90r-90,0r-32,184r-103,0r32,-184r-98,0r-33,184r-102,0xm214,-274r98,0r24,-133r-99,0"},"$":{"d":"239,8v-96,-2,-119,-4,-190,-29r13,-121v67,31,115,46,177,42r0,-185v-61,-21,-102,-39,-124,-54v-51,-33,-77,-82,-77,-145v1,-117,89,-177,207,-185r0,-86r52,0r0,83v59,0,112,7,158,22r-11,112v-43,-19,-92,-30,-147,-31r0,168v65,22,110,42,133,60v47,35,70,85,70,150v0,114,-88,186,-208,196r0,84r-53,0r0,-81xm245,-417r0,-152v-52,11,-78,37,-78,76v0,48,33,60,78,76xm292,-102v52,-13,78,-40,78,-82v0,-54,-30,-66,-78,-86r0,168"},"%":{"d":"142,31r379,-729r65,0r-378,729r-66,0xm296,-494v1,97,-37,166,-126,166v-84,0,-126,-56,-126,-169v0,-117,42,-175,126,-175v84,0,126,59,126,178xm170,-383v33,0,49,-37,49,-112v0,-81,-17,-122,-50,-122v-32,0,-48,40,-48,120v0,76,16,114,49,114xm557,5v-91,0,-126,-70,-126,-169v0,-117,42,-175,125,-175v84,0,126,59,126,177v0,98,-35,167,-125,167xm508,-164v0,76,16,114,49,114v32,0,48,-37,48,-112v0,-81,-16,-122,-49,-122v-32,0,-48,40,-48,120","w":724},"&":{"d":"295,13v-129,3,-237,-80,-236,-203v0,-85,46,-144,139,-178v-59,-53,-89,-106,-89,-157v1,-103,95,-155,207,-155v104,0,188,56,188,152v0,85,-62,138,-132,175r127,137v25,-36,39,-85,41,-146r115,0v-3,89,-31,165,-84,227r118,135r-161,0r-47,-55v-58,43,-98,66,-186,68xm311,-587v-58,0,-100,58,-64,107v9,13,26,32,51,57v45,-22,89,-64,89,-101v0,-39,-35,-63,-76,-63xm191,-189v0,58,54,106,114,106v37,0,75,-15,114,-46r-151,-166v-51,31,-77,66,-77,106","w":696},"'":{"d":"65,-452r-23,-268r141,0r-24,268r-94,0","w":225},"(":{"d":"172,-260v0,177,59,320,141,463r-121,0v-93,-155,-151,-254,-151,-461v0,-209,58,-303,151,-462r121,0v-94,163,-141,316,-141,460","w":355},")":{"d":"42,203v86,-155,141,-278,141,-463v0,-144,-47,-297,-141,-460r121,0v94,163,151,250,151,463v0,205,-59,305,-151,460r-121,0","w":356},"*":{"d":"195,-350r-81,-59r95,-102r-136,-32r31,-95r129,58r-13,-140r98,0r-13,140r128,-54r30,91r-136,32r92,102r-81,59r-70,-120"},"+":{"d":"222,-120r0,-183r-187,0r0,-87r187,0r0,-183r92,0r0,183r188,0r0,87r-188,0r0,183r-92,0"},",":{"d":"21,108r60,-240r136,0r-84,240r-112,0","w":267},"-":{"d":"0,-197r0,-107r244,0r0,107r-244,0","w":244},".":{"d":"65,0r0,-131r136,0r0,131r-136,0","w":267},"\/":{"d":"-35,203r325,-923r106,0r-324,923r-107,0","w":436},"0":{"d":"267,11v-78,0,-141,-38,-175,-88v-38,-56,-57,-139,-57,-249v0,-164,29,-265,123,-324v62,-38,155,-37,218,0v95,58,124,166,124,327v0,157,-34,259,-132,311v-31,16,-64,23,-101,23xm268,-89v65,0,97,-78,97,-235v0,-87,-8,-151,-24,-192v-16,-41,-41,-62,-74,-62v-65,0,-97,84,-97,251v0,159,33,238,98,238"},"1":{"d":"243,0r0,-520r-113,96r-69,-88r198,-155r117,0r0,667r-133,0"},"2":{"d":"256,-678v125,0,214,75,211,189v-3,103,-45,145,-105,224v-41,54,-93,106,-152,160r276,-2r0,107r-447,0r0,-112v109,-100,194,-178,259,-280v19,-29,26,-57,26,-82v1,-58,-45,-96,-105,-95v-49,0,-101,19,-156,56r-11,-118v70,-31,138,-47,204,-47"},"3":{"d":"480,-181v-2,132,-121,194,-268,192v-59,0,-115,-8,-170,-24r8,-116v49,23,99,35,150,35v77,1,139,-30,139,-99v0,-65,-54,-98,-163,-98v-18,0,-34,0,-49,1r0,-109v71,6,125,-1,164,-21v30,-16,45,-41,45,-73v-1,-56,-54,-81,-118,-80v-55,0,-105,12,-150,35r-8,-110v65,-20,124,-30,178,-30v134,-1,234,51,236,172v1,83,-52,143,-124,156v63,17,87,35,112,86v13,26,18,54,18,83"},"4":{"d":"15,-135r0,-114r248,-418r171,0r0,430r86,0r0,102r-86,0r0,135r-133,0r0,-135r-286,0xm138,-237r166,0r2,-278v0,-18,2,-33,6,-46v-8,20,-14,33,-17,39"},"5":{"d":"493,-215v0,150,-108,226,-273,226v-36,0,-101,-10,-152,-21r3,-122v46,23,93,34,142,34v76,1,137,-40,137,-111v-1,-78,-67,-119,-152,-118v-37,0,-77,7,-120,20r6,-360r387,0r0,104r-260,0r-3,136v164,-23,285,64,285,212"},"6":{"d":"499,-212v0,135,-86,225,-221,223v-178,-3,-235,-121,-235,-317v0,-248,92,-372,275,-372v43,0,91,8,146,23r-17,108v-78,-39,-179,-39,-227,22v-26,33,-41,84,-46,153v30,-44,74,-66,131,-66v122,-1,194,99,194,226xm271,-335v-59,0,-89,52,-89,117v0,69,31,129,93,129v58,0,89,-56,89,-120v0,-69,-30,-126,-93,-126"},"7":{"d":"103,0r250,-564r-302,0r0,-103r434,0r0,103r-234,564r-148,0"},"8":{"d":"267,11v-131,0,-232,-69,-232,-193v0,-92,50,-148,126,-167v-66,-17,-114,-73,-114,-152v0,-115,97,-177,220,-177v118,0,214,53,215,161v0,79,-38,131,-113,157v78,20,132,79,132,173v0,125,-94,198,-234,198xm268,-583v-49,0,-92,33,-91,79v2,62,49,81,103,104v42,-21,74,-59,74,-101v0,-48,-37,-82,-86,-82xm255,-294v-50,20,-85,59,-85,110v0,57,45,98,102,98v56,0,96,-37,94,-93v-3,-74,-43,-89,-111,-115"},"9":{"d":"262,-678v172,2,232,122,230,311v-2,181,-34,293,-148,351v-75,39,-193,31,-273,5r16,-109v97,46,200,35,244,-51v15,-29,25,-72,30,-129v-25,46,-69,69,-131,69v-121,1,-195,-97,-195,-223v0,-142,84,-226,227,-224xm170,-455v0,65,34,121,94,121v57,0,88,-51,88,-112v0,-70,-29,-132,-92,-132v-59,0,-90,58,-90,123"},":":{"d":"65,-364r0,-131r136,0r0,131r-136,0xm65,0r0,-131r136,0r0,131r-136,0","w":267},";":{"d":"83,-364r0,-131r136,0r0,131r-136,0xm21,108r60,-240r137,0r-85,240r-112,0","w":267},"<":{"d":"33,-287r0,-106r433,-220r0,125r-299,148r299,148r0,125","w":500},"=":{"d":"35,-380r0,-87r467,0r0,87r-467,0xm35,-226r0,-87r467,0r0,87r-467,0"},">":{"d":"33,-66r0,-126r299,-148r-299,-148r0,-125r433,220r0,107","w":500},"?":{"d":"268,-678v123,0,213,56,213,171v0,29,-8,53,-18,76v-14,31,-114,130,-131,169v-8,17,-12,41,-13,72r-115,0v3,-109,17,-121,75,-187v40,-46,61,-84,61,-115v-1,-54,-49,-82,-109,-81v-41,0,-89,12,-145,37r-11,-110v66,-21,130,-32,193,-32xm195,0r0,-124r132,0r0,124r-132,0","w":508},"@":{"d":"406,15v-210,0,-351,-133,-357,-342v-6,-194,160,-355,354,-355v175,0,318,126,318,297v0,106,-71,233,-165,233v-39,0,-70,-24,-78,-56v-23,36,-69,64,-125,64v-83,1,-142,-73,-142,-158v0,-100,80,-202,176,-202v46,0,79,17,98,50r8,-39r87,1r-37,192v-5,25,-7,39,-7,44v0,21,8,32,23,32v49,-2,85,-100,85,-161v0,-129,-104,-218,-236,-218v-151,0,-276,125,-274,277v2,151,107,262,274,262v63,0,125,-10,184,-31r20,79v-61,21,-129,31,-206,31xm399,-410v-48,0,-88,54,-88,105v0,41,27,72,66,72v47,0,86,-56,86,-105v0,-41,-25,-72,-64,-72","w":769},"A":{"d":"9,0r260,-667r150,0r267,667r-147,0r-58,-152r-276,0r-57,152r-139,0xm246,-261r194,0r-86,-236v-5,-13,-9,-27,-13,-44v-26,99,-64,186,-95,280","w":696},"B":{"d":"397,-349v92,11,153,67,156,165v3,94,-69,163,-156,178v-78,13,-220,4,-316,6r0,-667v129,4,310,-16,381,37v44,32,67,76,67,133v0,82,-44,131,-132,148xm216,-397r64,0v76,0,114,-27,114,-82v0,-57,-36,-85,-109,-85r-69,0r0,167xm418,-199v0,-70,-53,-100,-128,-99r-74,0r0,196r66,0v78,0,136,-27,136,-97","w":602},"C":{"d":"411,5v-222,2,-362,-122,-362,-340v0,-209,143,-339,350,-337v51,0,106,10,165,29r-11,114v-44,-24,-91,-36,-141,-36v-134,-1,-220,89,-220,225v0,133,93,235,224,233v47,0,96,-9,146,-28r5,118v-55,15,-107,22,-156,22","w":589},"D":{"d":"649,-336v-3,231,-128,339,-376,336r-193,0r0,-667v109,1,252,-3,332,15v150,33,239,142,237,316xm215,-102v94,1,157,-5,207,-45v55,-45,84,-106,84,-186v0,-121,-63,-203,-170,-222v-26,-5,-67,-7,-121,-8r0,461","w":697},"E":{"d":"80,0r0,-667r395,0r0,109r-260,0r0,162r238,0r0,109r-238,0r0,178r264,0r0,109r-399,0","w":537},"F":{"d":"80,0r0,-667r370,0r0,109r-235,0r0,159r226,0r0,109r-225,0r0,290r-136,0","w":491},"G":{"d":"405,5v-229,2,-353,-121,-356,-342v-3,-213,157,-338,378,-335v63,0,125,9,184,27r-9,118v-55,-25,-114,-37,-177,-37v-144,-1,-233,85,-233,228v0,167,141,274,309,220r0,-162r-142,0r0,-109r270,0r0,357v-66,23,-141,35,-224,35","w":698},"H":{"d":"80,0r0,-667r135,0r0,271r265,0r0,-271r135,0r0,667r-135,0r0,-287r-265,0r0,287r-135,0","w":695},"I":{"d":"87,0r0,-667r135,0r0,667r-135,0","w":308},"J":{"d":"298,-212v2,148,-57,214,-190,218v-29,0,-60,-5,-95,-14r4,-114v20,7,39,10,57,10v67,0,89,-33,89,-113r0,-442r135,0r0,455","w":378},"K":{"d":"81,0r0,-667r135,0r0,237v0,17,-1,35,-3,53v15,-22,27,-37,35,-46r209,-244r162,0r-273,308r288,359r-174,0r-215,-275v-14,-18,-25,-33,-32,-44v7,97,1,216,3,319r-135,0","w":643},"L":{"d":"80,0r0,-667r135,0r0,558r260,0r0,109r-395,0","w":492},"M":{"d":"457,-153v9,-48,20,-92,35,-135r128,-379r216,0r0,667r-135,0r0,-394v0,-34,3,-94,9,-180r-4,0v-7,27,-13,50,-20,69r-170,505r-124,0r-144,-418v-16,-47,-31,-99,-46,-156r-4,0v19,190,7,374,10,574r-128,0r0,-667r213,0r121,350v18,51,32,105,43,164","w":916},"N":{"d":"80,0r0,-667r159,0r223,404v17,29,35,78,50,118v-1,-13,-2,-25,-4,-36v-14,-149,-4,-325,-7,-486r128,0r0,667r-163,0r-218,-403v-20,-37,-38,-77,-55,-118v10,72,15,129,15,172r0,349r-128,0","w":709},"O":{"d":"374,15v-202,0,-325,-141,-325,-347v0,-213,114,-347,325,-350v206,-3,330,141,327,352v-3,209,-121,345,-327,345xm374,-579v-118,0,-182,117,-182,246v0,130,64,243,183,245v118,2,183,-120,183,-242v0,-132,-64,-249,-184,-249","w":749},"P":{"d":"529,-461v0,133,-97,215,-253,210v-17,0,-37,-1,-61,-2r0,253r-135,0r0,-667r183,0v165,-4,266,67,266,206xm215,-357v40,3,98,-2,115,-11v37,-18,56,-47,56,-92v0,-53,-25,-86,-74,-99v-12,-3,-44,-5,-97,-6r0,208","w":549},"Q":{"d":"407,13v-227,20,-358,-129,-358,-345v0,-213,120,-350,327,-350v201,0,328,142,325,348v-3,151,-57,262,-173,317r159,146r-165,0xm375,-579v-117,0,-183,117,-183,246v0,130,64,242,183,244v123,2,183,-120,183,-244v0,-131,-64,-246,-183,-246","w":749},"R":{"d":"539,-491v0,89,-54,147,-135,157v49,22,58,44,82,102r96,232r-150,0r-73,-189v-26,-62,-35,-86,-111,-88r-32,0r0,277r-136,0r0,-667v133,4,322,-16,394,39v42,32,65,76,65,137xm215,-380r60,0v81,0,121,-32,121,-96v0,-58,-37,-87,-110,-87r-71,0r0,183","w":596},"S":{"d":"492,-194v3,136,-106,211,-250,209v-57,0,-115,-10,-172,-31r12,-120v52,29,102,44,150,44v66,1,117,-32,117,-93v0,-29,-11,-50,-32,-64v-13,-9,-39,-22,-77,-37v-57,-22,-98,-44,-124,-66v-39,-33,-59,-77,-59,-134v0,-131,97,-198,236,-196v56,0,109,9,158,26r-11,110v-51,-22,-97,-33,-139,-33v-59,-1,-105,26,-106,80v0,29,14,51,41,66v12,7,43,19,91,39v100,41,163,81,165,200","w":540},"T":{"d":"199,0r0,-558r-190,0r0,-109r517,0r0,109r-192,0r0,558r-135,0"},"U":{"d":"348,15v-180,0,-268,-88,-268,-279r0,-403r135,0r0,391v-6,117,41,180,141,184v72,3,122,-47,134,-114v3,-16,4,-41,4,-75r0,-386r131,0r0,405v-1,190,-87,277,-277,277","w":705},"V":{"d":"241,0r-232,-667r144,0r142,429v13,41,24,77,32,107v14,-52,25,-91,34,-117r138,-419r134,0r-227,667r-165,0","w":643},"W":{"d":"188,0r-179,-667r139,0r64,255v37,147,58,244,63,291r4,0r18,-114r27,-130r68,-302r180,0r66,273v28,117,46,208,55,273r4,0v21,-145,84,-385,124,-546r132,0r-176,667r-171,0r-60,-251r-54,-247v-3,-12,-6,-32,-9,-59r-4,0v-23,147,-82,396,-118,557r-173,0","w":962},"X":{"d":"9,0r220,-350r-200,-317r155,0r142,236r143,-236r143,0r-202,317r223,350r-159,0r-156,-262r-158,262r-151,0","w":643},"Y":{"d":"253,0r0,-267r-244,-400r157,0r143,248v6,11,11,22,15,32v2,-6,7,-16,15,-30r146,-250r144,0r-241,397r0,270r-135,0","w":638},"Z":{"d":"33,0r0,-115r276,-394v22,-30,22,-35,43,-51v-7,1,-22,2,-46,2r-264,0r0,-109r446,0r0,125r-279,400v-11,15,-21,27,-31,36v100,-7,215,-1,321,-3r0,109r-466,0","w":534},"[":{"d":"81,203r0,-923r213,0r0,89r-96,0r0,744r96,0r0,90r-213,0","w":366},"\\":{"d":"364,203r-324,-923r106,0r325,923r-107,0","w":436},"]":{"d":"72,113r96,0r0,-744r-96,0r0,-89r213,0r0,923r-213,0r0,-90","w":366},"^":{"d":"6,-336r161,-335r166,0r162,335r-133,0r-112,-234r-112,234r-132,0","w":500},"_":{"d":"0,47r500,0r0,114r-500,0r0,-114","w":500},"`":{"d":"233,-579r-136,-136r132,0r80,136r-76,0","w":500},"a":{"d":"205,8v-98,0,-168,-59,-168,-155v0,-107,83,-160,248,-160v17,0,41,1,72,4v2,-73,-35,-110,-110,-110v-55,0,-106,18,-153,54r-4,-110v110,-51,293,-50,353,37v37,53,31,152,31,252v0,52,2,112,5,180r-114,0r-2,-73v-33,54,-85,81,-158,81xm164,-143v0,65,91,80,139,45v36,-26,57,-62,56,-127v-16,-1,-28,-2,-35,-2v-107,0,-160,28,-160,84","w":538},"b":{"d":"547,-254v0,151,-65,260,-205,262v-73,0,-124,-29,-155,-86r-3,78r-120,0r0,-720r128,0r0,220v0,30,-2,61,-5,92v33,-64,87,-96,160,-96v134,1,200,107,200,250xm308,-397v-75,0,-115,72,-115,153v0,81,39,151,112,151v71,0,109,-74,109,-153v0,-83,-32,-151,-106,-151","w":585},"c":{"d":"291,4v-155,2,-254,-99,-254,-254v0,-192,168,-290,359,-233r-10,103v-29,-11,-54,-16,-76,-16v-85,-1,-140,62,-140,148v0,85,57,146,142,145v29,0,58,-7,88,-20r7,108v-43,13,-82,19,-116,19","w":431},"d":{"d":"37,-256v0,-138,76,-248,205,-248v69,0,120,30,154,91v-10,-98,-3,-203,-5,-307r128,0r0,576v0,49,1,97,4,144r-121,0r-2,-84v-30,61,-82,92,-156,92v-141,-1,-207,-113,-207,-264xm170,-250v0,83,37,157,111,157v73,0,112,-70,112,-150v0,-84,-40,-154,-117,-154v-72,0,-106,67,-106,147","w":587},"e":{"d":"293,13v-162,1,-257,-99,-257,-262v0,-152,91,-259,239,-259v160,0,243,127,220,301r-333,0v6,77,63,126,146,125v47,0,98,-17,155,-51r2,111v-52,23,-109,35,-172,35xm376,-296v0,-72,-36,-122,-104,-122v-68,0,-106,54,-112,122r216,0","w":535},"f":{"d":"66,0r0,-400r-99,0r0,-95r99,0v4,-85,2,-112,29,-160v35,-61,127,-82,217,-59r-8,103v-46,-13,-88,-1,-102,38v-5,12,-8,38,-8,78r112,0r0,95r-112,0r0,400r-128,0","w":324},"g":{"d":"520,-60v7,187,-85,271,-257,271v-56,0,-114,-12,-174,-35r10,-111v54,28,104,42,150,42v82,0,133,-39,145,-113v2,-15,4,-46,6,-93v-36,66,-92,99,-167,99v-129,-1,-196,-113,-196,-253v0,-146,70,-250,207,-251v71,0,122,30,152,90r2,-80r122,0r0,434xm170,-255v0,80,37,150,109,151v69,1,114,-72,114,-146v0,-78,-43,-148,-115,-148v-71,1,-108,65,-108,143","w":579},"h":{"d":"349,-504v130,0,171,73,171,220r0,284r-128,0r0,-240v0,-57,-4,-94,-13,-111v-24,-51,-91,-61,-135,-27v-47,37,-50,76,-51,176r0,202r-128,0r0,-720r128,0r0,295v37,-53,89,-79,156,-79","w":581},"i":{"d":"63,-585r0,-121r132,0r0,121r-132,0xm65,0r0,-495r128,0r0,495r-128,0","w":258},"j":{"d":"70,-585r0,-121r132,0r0,121r-132,0xm-8,107v60,4,80,-22,80,-95r0,-507r128,0r0,525v3,143,-80,195,-213,171","w":264},"k":{"d":"65,0r0,-720r128,0r0,335v0,30,-1,62,-3,97v56,-84,103,-132,161,-207r149,0r-184,222r208,273r-162,0r-128,-181v-17,-25,-32,-48,-44,-71v6,75,2,171,3,252r-128,0","w":527},"l":{"d":"65,0r0,-720r128,0r0,720r-128,0","w":257},"m":{"d":"294,-396v-63,0,-97,62,-97,148r0,248r-128,0r0,-374v0,-43,-1,-84,-4,-121r123,0r2,75v36,-55,88,-83,155,-83v64,0,110,29,138,88v34,-59,86,-88,156,-88v120,0,158,75,158,216r0,287r-128,0r0,-240v0,-53,-3,-88,-9,-106v-12,-33,-35,-50,-68,-50v-72,0,-95,70,-95,167r0,229r-128,0r0,-253v0,-53,-4,-87,-11,-102v-13,-27,-35,-41,-64,-41","w":857},"n":{"d":"309,-396v-77,0,-111,64,-111,161r0,235r-128,0r0,-315v0,-58,-2,-118,-5,-180r120,0r4,79v38,-58,83,-87,168,-87v126,0,168,74,168,224r0,279r-128,0r0,-249v-1,-89,-12,-147,-88,-147","w":585},"o":{"d":"293,13v-152,0,-256,-108,-256,-262v0,-152,106,-259,257,-259v155,0,257,109,257,266v0,150,-108,255,-258,255xm294,-413v-79,0,-124,78,-124,164v0,90,42,166,124,167v79,0,124,-77,124,-162v0,-90,-42,-169,-124,-169","w":587},"p":{"d":"553,-252v0,148,-68,259,-206,260v-70,0,-120,-26,-150,-78r1,273r-128,0r0,-554v0,-36,-2,-84,-5,-144r123,0r2,78v39,-57,92,-86,159,-86v133,0,204,109,204,251xm314,-396v-78,0,-116,68,-116,153v0,84,36,150,112,150v72,0,110,-72,110,-151v0,-85,-31,-152,-106,-152","w":589},"q":{"d":"37,-255v0,-139,73,-248,204,-248v73,0,125,29,155,87r3,-79r121,0r0,698r-128,0r0,-196v0,-37,1,-66,4,-89v-27,60,-79,90,-154,90v-137,-1,-205,-115,-205,-263xm170,-247v0,86,31,154,108,154v75,0,115,-67,115,-148v0,-83,-41,-155,-116,-155v-74,0,-107,67,-107,149","w":584},"r":{"d":"69,0r0,-346v0,-66,-1,-116,-4,-149r117,0r2,126v28,-99,83,-146,177,-124r0,119v-111,-27,-164,40,-164,170r0,204r-128,0","w":375},"s":{"d":"392,-151v-1,108,-87,162,-204,160v-40,0,-88,-7,-145,-22r6,-108v43,23,85,35,124,35v46,1,89,-17,90,-57v0,-15,-8,-27,-25,-37v-10,-6,-34,-15,-71,-28v-76,-28,-126,-55,-126,-142v0,-102,91,-155,202,-153v39,0,82,6,129,18r-9,97v-37,-13,-73,-20,-109,-20v-42,-1,-84,16,-86,52v0,12,6,22,17,29v20,15,141,49,156,66v34,25,51,61,51,110","w":430},"t":{"d":"261,4v-124,-1,-166,-64,-167,-194r0,-210r-93,0r0,-95r95,0r0,-98r127,-42r0,140r114,0r0,95r-114,0r0,184v0,43,4,72,12,85v21,34,58,38,107,25r4,100v-31,7,-59,10,-85,10","w":369},"u":{"d":"229,8v-125,0,-168,-82,-168,-224r0,-279r128,0r0,238v0,53,5,91,14,112v13,31,38,46,74,46v70,0,105,-55,105,-164r0,-232r128,0r0,302v0,61,2,125,6,193r-120,0r-4,-76v-35,56,-90,84,-163,84","w":581},"v":{"d":"194,0r-185,-495r140,0v38,116,102,268,123,385v28,-127,83,-262,120,-385r129,0r-184,495r-143,0","w":531},"w":{"d":"177,0r-168,-495r135,0v37,115,98,284,112,396v12,-108,71,-283,103,-396r148,0v35,117,94,275,111,393v14,-111,71,-279,102,-393r124,0r-153,495r-149,0v-35,-114,-98,-280,-111,-393v-24,143,-69,263,-107,393r-147,0","w":854},"x":{"d":"9,0r172,-256r-156,-239r151,0r100,164v27,-52,67,-112,97,-164r135,0r-150,239r169,256r-154,0r-111,-185r-22,38r-90,147r-141,0","w":537},"y":{"d":"51,99v40,16,84,15,112,-7v15,-12,28,-35,41,-67r-195,-520r142,0r102,302r21,66r24,-82r96,-286r130,0r-197,529v-24,63,-48,106,-72,129v-47,48,-137,57,-213,33","w":534},"z":{"d":"33,0r0,-98r206,-248v14,-17,33,-36,56,-57r-64,2r-186,0r0,-94r392,0r0,99r-208,250v-15,19,-33,37,-53,54v72,-9,184,-5,270,-6r0,98r-413,0","w":482},"{":{"d":"198,20v3,91,4,92,95,94r0,89v-92,-3,-104,5,-154,-19v-39,-19,-58,-62,-58,-125r0,-182v-1,-56,-12,-81,-55,-91r0,-89v40,-12,55,-38,55,-90r0,-183v-1,-85,37,-129,105,-140v16,-2,51,-3,107,-4r0,88r-19,0v-74,1,-76,19,-76,95r0,153v-1,75,-15,92,-61,126v45,30,60,54,61,126r0,152","w":366},"|":{"d":"187,167r0,-834r127,0r0,834r-127,0","w":500},"}":{"d":"286,-394v1,56,11,80,54,91r0,89v-36,9,-54,39,-54,90r0,183v1,83,-36,130,-106,140v-16,2,-52,3,-107,4r0,-89v5,1,12,1,19,1v75,-1,78,-19,77,-96r0,-152v1,-74,15,-93,61,-126v-45,-30,-60,-54,-61,-126r0,-152v-3,-92,-4,-92,-96,-95r0,-88v94,4,106,-6,155,19v39,20,58,62,58,124r0,183","w":366},"~":{"d":"234,-623v-47,3,-51,23,-74,62r-70,-46r8,-17v22,-49,29,-68,63,-95v23,-17,49,-26,80,-26v36,0,158,52,192,50v41,-2,51,-20,71,-52r72,42v-25,52,-48,87,-72,104v-26,19,-55,28,-86,28v-18,6,-161,-52,-184,-50","w":667},"\u00a0":{"w":250},"\u00a1":{"d":"88,-372r0,-123r132,0r0,123r-132,0xm80,171r21,-475r107,0r22,475r-150,0","w":362},"\u00a2":{"d":"75,-335v0,-145,84,-228,215,-247r0,-83r50,0r0,80v31,2,62,7,95,16r-10,104v-34,-13,-55,-18,-85,-17r0,296v36,1,65,-7,99,-22r6,108v-37,9,-72,15,-105,17r0,83r-50,0r0,-83v-134,-20,-215,-102,-215,-252xm290,-197r0,-274v-55,27,-82,73,-82,138v0,64,27,109,82,136"},"\u00a3":{"d":"50,0r0,-101r85,0r0,-215r-74,0r0,-71r74,0v0,-136,12,-201,90,-253v68,-45,173,-49,270,-22r-6,109v-29,-11,-59,-16,-89,-16v-70,0,-112,29,-125,88v-5,22,-7,53,-7,94r149,0r0,71r-149,0r0,215r223,0r0,101r-441,0"},"\u00a4":{"d":"73,-55r-55,-54r82,-83v-48,-67,-48,-155,1,-221r-84,-83r55,-56r84,83v70,-46,153,-47,223,-1r82,-81r55,55r-81,82v49,74,50,150,1,222r83,82r-55,56r-82,-83v-73,49,-152,50,-227,1xm157,-302v0,60,51,111,111,111v60,0,111,-51,111,-111v0,-59,-51,-111,-110,-111v-61,0,-112,51,-112,111"},"\u00a5":{"d":"272,-387r128,-280r146,0r-127,240r109,0r0,71r-148,0r-32,63r180,0r0,71r-193,0r0,222r-133,0r0,-222r-187,0r0,-71r173,0r-32,-63r-141,0r0,-71r102,0r-126,-240r157,0"},"\u00a6":{"d":"187,-321r0,-346r127,0r0,346r-127,0xm187,-153r127,0r0,320r-127,0r0,-320","w":500},"\u00a7":{"d":"476,19v0,115,-100,197,-231,197v-59,0,-126,-13,-202,-38r9,-116v59,30,121,45,186,45v61,1,112,-24,113,-78v0,-29,-15,-52,-46,-70v-16,-9,-57,-28,-122,-56v-93,-40,-140,-98,-140,-173v0,-75,32,-103,83,-143v-47,-41,-73,-60,-74,-131v-2,-119,104,-189,230,-189v49,0,107,9,173,27r-12,108v-60,-21,-113,-31,-158,-31v-62,-1,-109,24,-110,79v0,23,12,44,36,62v13,9,58,30,137,63v96,40,144,96,144,168v0,67,-34,116,-90,145v49,32,74,76,74,131xm142,-296v0,52,29,70,73,92v17,9,60,28,129,57v48,-42,65,-98,21,-143v-32,-33,-126,-65,-179,-91v-29,29,-44,58,-44,85"},"\u00a8":{"d":"291,-591r0,-112r108,0r0,112r-108,0xm102,-591r0,-112r109,0r0,112r-109,0","w":500},"\u00a9":{"d":"396,15v-185,0,-347,-163,-347,-348v0,-191,161,-349,352,-349v181,0,340,166,340,348v0,187,-159,349,-345,349xm400,-621v-156,0,-283,132,-283,288v0,152,129,287,279,287v149,0,277,-136,277,-287v0,-150,-125,-288,-273,-288xm425,-144v-133,1,-222,-68,-222,-195v-1,-122,89,-195,215,-193v30,0,65,6,104,18r-8,74v-28,-15,-58,-23,-89,-23v-77,-1,-127,47,-127,122v0,74,56,126,131,125v27,0,58,-6,91,-17r3,76v-35,9,-68,13,-98,13","w":789},"\u00aa":{"d":"181,-682v104,0,142,36,139,154r0,43v0,38,1,75,3,110r-81,0r-1,-34v-26,26,-58,39,-96,39v-63,1,-110,-36,-110,-96v0,-66,54,-99,161,-99v12,0,26,1,41,2v-1,-37,-22,-56,-64,-56v-35,0,-69,12,-102,37r-2,-78v35,-15,73,-22,112,-22xm124,-464v0,43,74,40,95,12v11,-15,19,-33,19,-56r-18,0v-64,0,-96,15,-96,44xm38,-276r0,-57r285,0r0,57r-285,0","w":359},"\u00ab":{"d":"265,-250r111,-195r121,0r-103,195r105,198r-120,0xm160,-52r-114,-198r111,-195r121,0r-103,195r106,198r-121,0","w":537},"\u00ac":{"d":"33,-148r0,-118r433,0r0,266r-127,0r0,-148r-306,0","w":500},"\u00ad":{"d":"0,-197r0,-107r244,0r0,107r-244,0","w":244},"\u00ae":{"d":"396,15v-185,0,-347,-163,-347,-348v0,-191,161,-349,352,-349v181,0,340,166,340,348v0,187,-159,349,-345,349xm400,-621v-156,0,-283,132,-283,288v0,152,129,287,279,287v149,0,277,-136,277,-287v0,-150,-125,-288,-273,-288xm545,-426v0,48,-29,80,-70,89v22,17,25,23,38,53r60,137r-100,0r-45,-108v-16,-39,-26,-48,-77,-47r0,155r-91,0r0,-382r136,0v93,-2,149,27,149,103xm350,-369v52,3,100,-5,100,-49v0,-29,-20,-43,-61,-43r-39,0r0,92","w":789},"\u00af":{"d":"95,-609r0,-68r311,0r0,68r-311,0","w":500},"\u00b0":{"d":"342,-582v0,82,-71,152,-153,152v-84,0,-154,-71,-154,-154v0,-80,73,-149,154,-149v83,0,153,69,153,151xm111,-583v0,42,36,79,78,79v42,0,77,-37,77,-78v0,-42,-37,-77,-78,-77v-40,0,-77,36,-77,76","w":377},"\u00b1":{"d":"222,-207r0,-169r-187,0r0,-87r187,0r0,-170r92,0r0,170r188,0r0,87r-188,0r0,169r-92,0xm35,-73r0,-87r467,0r0,87r-467,0"},"\u00b2":{"d":"26,-660v74,-37,188,-30,189,60v0,41,-34,91,-103,148r111,0r0,52r-202,0r0,-52v82,-68,123,-116,123,-143v0,-21,-18,-33,-40,-33v-21,0,-45,9,-72,26","w":247},"\u00b3":{"d":"219,-477v-1,83,-119,94,-198,70r4,-56v24,11,47,16,69,16v37,0,55,-12,55,-35v0,-30,-47,-36,-91,-34r0,-53v7,1,15,1,23,1v45,0,67,-11,67,-34v0,-19,-15,-28,-46,-28v-23,0,-46,6,-69,17r-4,-55v80,-24,188,-20,188,61v0,28,-14,49,-42,62v29,12,44,35,44,68","w":247},"\u00b4":{"d":"191,-579r80,-136r132,0r-136,136r-76,0","w":500},"\u00b5":{"d":"252,-84v69,0,94,-59,94,-145r0,-251r127,0r0,480r-127,0r0,-58v-39,89,-147,90,-193,7r0,224r-127,0r0,-653r127,0r0,255v1,60,4,84,32,113v19,19,41,28,67,28","w":500},"\u00b6":{"d":"20,-470v1,-131,62,-197,199,-197r277,0r0,97r-40,0r0,773r-100,0r0,-773r-77,0r0,773r-100,0r0,-484v-105,5,-160,-84,-159,-189"},"\u00b7":{"d":"65,-185r0,-131r136,0r0,131r-136,0","w":267},"\u00b8":{"d":"279,124v0,-35,-44,-38,-79,-28r-20,-22r46,-74r51,0r-36,55v58,-13,116,5,117,58v1,57,-59,94,-121,92v-29,0,-61,-7,-96,-22r19,-42v25,13,47,19,67,19v28,0,52,-11,52,-36","w":500},"\u00b9":{"d":"107,-400r0,-203r-45,35r-36,-42r91,-66r57,0r0,276r-67,0","w":247},"\u00ba":{"d":"395,-520v0,93,-72,155,-167,155v-96,0,-166,-64,-166,-159v0,-95,70,-158,166,-158v99,0,167,65,167,162xm155,-524v0,51,27,93,74,93v45,0,73,-41,73,-90v0,-52,-25,-95,-74,-95v-46,0,-73,43,-73,92xm72,-276r0,-57r313,0r0,57r-313,0","w":457},"\u00bb":{"d":"256,-52r105,-198r-103,-195r121,0r112,195r-114,198r-121,0xm38,-52r104,-198r-103,-195r122,0r111,195r-114,198r-120,0","w":537},"\u00bc":{"d":"220,31r379,-729r72,0r-379,729r-72,0xm156,-267r0,-302r-67,54r-50,-59r130,-95r80,0r0,402r-93,0xm551,-79r0,-73r158,-251r115,0r0,254r54,0r0,70r-54,0r0,79r-93,0r0,-79r-180,0xm641,-149r92,0r1,-158","w":892},"\u00bd":{"d":"220,31r379,-729r72,0r-379,729r-72,0xm156,-267r0,-302r-67,54r-50,-59r130,-95r80,0r0,402r-93,0xm845,-293v0,74,-96,173,-153,222r165,-1r0,72r-291,0r0,-73v120,-101,180,-172,180,-211v0,-33,-26,-53,-61,-52v-31,0,-66,12,-103,37r-8,-81v48,-19,92,-29,133,-29v78,-1,138,42,138,116","w":892},"\u00be":{"d":"221,31r379,-729r72,0r-379,729r-72,0xm316,-378v0,121,-171,136,-286,103r6,-79v35,15,68,23,99,23v45,0,83,-15,83,-54v0,-35,-33,-53,-99,-53v-13,0,-24,0,-35,1r0,-74v10,1,20,1,31,1v67,0,101,-17,101,-52v0,-29,-23,-43,-70,-43v-33,0,-66,8,-98,23r-6,-75v110,-36,270,-30,270,88v0,43,-21,73,-64,92v45,17,68,50,68,99xm551,-79r0,-73r158,-251r115,0r0,254r54,0r0,70r-54,0r0,79r-93,0r0,-79r-180,0xm641,-149r92,0r1,-158","w":892},"\u00bf":{"d":"181,-372r0,-123r132,0r0,123r-132,0xm241,182v-120,0,-213,-60,-214,-171v0,-28,6,-53,18,-75v12,-22,38,-54,76,-98v49,-56,62,-60,68,-143r116,0v-3,110,-17,120,-76,187v-39,44,-61,81,-61,114v1,54,49,82,109,81v42,0,91,-12,146,-37r10,110v-65,21,-129,32,-192,32","w":508},"\u00c0":{"d":"310,-735r-127,-130r130,0r80,130r-83,0xm9,0r260,-667r150,0r267,667r-147,0r-58,-152r-276,0r-57,152r-139,0xm246,-261r194,0r-86,-236v-5,-13,-9,-27,-13,-44v-26,99,-64,186,-95,280","w":696},"\u00c1":{"d":"303,-735r80,-130r130,0r-127,130r-83,0xm9,0r260,-667r150,0r267,667r-147,0r-58,-152r-276,0r-57,152r-139,0xm246,-261r194,0r-86,-236v-5,-13,-9,-27,-13,-44v-26,99,-64,186,-95,280","w":696},"\u00c2":{"d":"186,-735r105,-130r112,0r105,130r-100,0r-61,-76r-61,76r-100,0xm9,0r260,-667r150,0r267,667r-147,0r-58,-152r-276,0r-57,152r-139,0xm246,-261r194,0r-86,-236v-5,-13,-9,-27,-13,-44v-26,99,-64,186,-95,280","w":696},"\u00c3":{"d":"421,-745v-39,2,-95,-39,-135,-40v-24,0,-40,14,-49,43r-56,0v11,-68,51,-110,112,-115v26,-2,104,40,134,40v28,0,35,-16,44,-41r56,0v-5,64,-41,110,-106,113xm9,0r260,-667r150,0r267,667r-147,0r-58,-152r-276,0r-57,152r-139,0xm246,-261r194,0r-86,-236v-5,-13,-9,-27,-13,-44v-26,99,-64,186,-95,280","w":696},"\u00c4":{"d":"391,-741r0,-115r115,0r0,115r-115,0xm183,-741r0,-115r115,0r0,115r-115,0xm9,0r260,-667r150,0r267,667r-147,0r-58,-152r-276,0r-57,152r-139,0xm246,-261r194,0r-86,-236v-5,-13,-9,-27,-13,-44v-26,99,-64,186,-95,280","w":696},"\u00c5":{"d":"447,-806v0,55,-47,103,-102,103v-56,0,-103,-48,-103,-104v0,-55,49,-102,104,-102v53,0,101,49,101,103xm302,-806v0,22,20,43,43,43v22,0,42,-20,42,-43v0,-22,-20,-43,-42,-43v-23,0,-43,20,-43,43xm9,0r260,-667r150,0r267,667r-147,0r-58,-152r-276,0r-57,152r-139,0xm246,-261r194,0r-86,-236v-5,-13,-9,-27,-13,-44v-26,99,-64,186,-95,280","w":696},"\u00c6":{"d":"-5,0r365,-667r475,0r0,109r-260,0r15,164r225,0r0,109r-216,0r17,176r226,0r0,109r-352,0r-12,-152r-257,0r-82,152r-144,0xm278,-261r190,0r-24,-312","w":900},"\u00c7":{"d":"486,122v0,59,-59,96,-124,94v-31,0,-63,-7,-98,-22r19,-46v23,13,46,19,67,19v35,0,52,-13,52,-38v0,-33,-47,-39,-79,-28r-20,-22r48,-77v-185,-18,-302,-138,-302,-337v0,-209,143,-339,350,-337v51,0,106,10,165,29r-11,114v-44,-24,-91,-36,-141,-36v-134,-1,-220,89,-220,225v0,133,93,235,224,233v47,0,96,-9,146,-28r5,118v-49,14,-105,21,-168,22r-35,55v59,-16,123,4,122,62","w":589},"\u00c8":{"d":"249,-735r-127,-130r130,0r80,130r-83,0xm80,0r0,-667r395,0r0,109r-260,0r0,162r238,0r0,109r-238,0r0,178r264,0r0,109r-399,0","w":537},"\u00c9":{"d":"231,-735r80,-130r130,0r-127,130r-83,0xm80,0r0,-667r395,0r0,109r-260,0r0,162r238,0r0,109r-238,0r0,178r264,0r0,109r-399,0","w":537},"\u00ca":{"d":"120,-735r105,-130r112,0r105,130r-100,0r-61,-76r-61,76r-100,0xm80,0r0,-667r395,0r0,109r-260,0r0,162r238,0r0,109r-238,0r0,178r264,0r0,109r-399,0","w":537},"\u00cb":{"d":"327,-741r0,-115r115,0r0,115r-115,0xm119,-741r0,-115r115,0r0,115r-115,0xm80,0r0,-667r395,0r0,109r-260,0r0,162r238,0r0,109r-238,0r0,178r264,0r0,109r-399,0","w":537},"\u00cc":{"d":"119,-735r-127,-130r130,0r80,130r-83,0xm86,0r0,-667r135,0r0,667r-135,0","w":308},"\u00cd":{"d":"113,-735r80,-130r130,0r-127,130r-83,0xm87,0r0,-667r135,0r0,667r-135,0","w":308},"\u00ce":{"d":"6,-735r95,-130r112,0r95,130r-96,0r-55,-80r-54,80r-97,0xm86,0r0,-667r135,0r0,667r-135,0","w":308},"\u00cf":{"d":"181,-741r0,-115r105,0r0,115r-105,0xm23,-741r0,-115r105,0r0,115r-105,0xm87,0r0,-667r135,0r0,667r-135,0","w":308},"\u00d0":{"d":"648,-335v0,230,-125,338,-375,335r-193,0r0,-297r-67,0r0,-93r67,0r0,-277r152,0v137,0,235,21,296,64v80,57,120,146,120,268xm215,-102v97,1,157,-4,208,-46v54,-44,81,-105,81,-183v1,-116,-59,-203,-166,-224v-26,-5,-67,-7,-123,-8r0,173r140,0r0,93r-140,0r0,195","w":697},"\u00d1":{"d":"438,-745v-39,2,-95,-39,-135,-40v-24,0,-40,14,-49,43r-56,0v11,-68,51,-110,112,-115v26,-2,104,40,134,40v28,0,35,-16,44,-41r56,0v-5,64,-41,110,-106,113xm80,0r0,-667r159,0r223,404v17,29,35,78,50,118v-1,-13,-2,-25,-4,-36v-14,-149,-4,-325,-7,-486r128,0r0,667r-163,0r-218,-403v-20,-37,-38,-77,-55,-118v10,72,15,129,15,172r0,349r-128,0","w":709},"\u00d2":{"d":"347,-735r-127,-130r130,0r80,130r-83,0xm374,15v-202,0,-325,-141,-325,-347v0,-213,114,-347,325,-350v206,-3,330,141,327,352v-3,209,-121,345,-327,345xm374,-579v-118,0,-182,117,-182,246v0,130,64,243,183,245v118,2,183,-120,183,-242v0,-132,-64,-249,-184,-249","w":749},"\u00d3":{"d":"330,-735r80,-130r130,0r-127,130r-83,0xm374,15v-202,0,-325,-141,-325,-347v0,-213,114,-347,325,-350v206,-3,330,141,327,352v-3,209,-121,345,-327,345xm374,-579v-118,0,-182,117,-182,246v0,130,64,243,183,245v118,2,183,-120,183,-242v0,-132,-64,-249,-184,-249","w":749},"\u00d4":{"d":"217,-735r105,-130r112,0r105,130r-100,0r-61,-76r-61,76r-100,0xm374,15v-202,0,-325,-141,-325,-347v0,-213,114,-347,325,-350v206,-3,330,141,327,352v-3,209,-121,345,-327,345xm374,-579v-118,0,-182,117,-182,246v0,130,64,243,183,245v118,2,183,-120,183,-242v0,-132,-64,-249,-184,-249","w":749},"\u00d5":{"d":"452,-745v-39,2,-95,-39,-135,-40v-24,0,-40,14,-49,43r-56,0v11,-68,51,-110,112,-115v26,-2,104,40,134,40v28,0,35,-16,44,-41r56,0v-5,64,-41,110,-106,113xm374,15v-202,0,-325,-141,-325,-347v0,-213,114,-347,325,-350v206,-3,330,141,327,352v-3,209,-121,345,-327,345xm374,-579v-118,0,-182,117,-182,246v0,130,64,243,183,245v118,2,183,-120,183,-242v0,-132,-64,-249,-184,-249","w":749},"\u00d6":{"d":"421,-741r0,-115r115,0r0,115r-115,0xm213,-741r0,-115r115,0r0,115r-115,0xm374,15v-202,0,-325,-141,-325,-347v0,-213,114,-347,325,-350v206,-3,330,141,327,352v-3,209,-121,345,-327,345xm374,-579v-118,0,-182,117,-182,246v0,130,64,243,183,245v118,2,183,-120,183,-242v0,-132,-64,-249,-184,-249","w":749},"\u00d7":{"d":"124,-142r-61,-61r144,-144r-144,-144r61,-61r144,144r144,-144r61,61r-144,144r144,144r-61,61r-144,-143"},"\u00d8":{"d":"701,-332v0,203,-125,349,-324,347v-85,0,-153,-20,-204,-60r-58,66r-62,-51r63,-72v-45,-61,-67,-139,-67,-232v0,-213,113,-344,322,-348v79,-2,162,25,205,61r61,-68r60,53r-64,72v45,59,68,136,68,232xm373,-579v-116,1,-184,116,-181,244v0,35,7,78,20,128r274,-323v-24,-33,-62,-49,-113,-49xm377,-88v158,0,220,-216,157,-370r-274,323v29,31,68,47,117,47","w":749},"\u00d9":{"d":"325,-735r-127,-130r130,0r80,130r-83,0xm348,15v-180,0,-268,-88,-268,-279r0,-403r135,0r0,391v-6,117,41,180,141,184v72,3,122,-47,134,-114v3,-16,4,-41,4,-75r0,-386r131,0r0,405v-1,190,-87,277,-277,277","w":705},"\u00da":{"d":"304,-735r80,-130r130,0r-127,130r-83,0xm348,15v-180,0,-268,-88,-268,-279r0,-403r135,0r0,391v-6,117,41,180,141,184v72,3,122,-47,134,-114v3,-16,4,-41,4,-75r0,-386r131,0r0,405v-1,190,-87,277,-277,277","w":705},"\u00db":{"d":"195,-735r105,-130r112,0r105,130r-100,0r-61,-76r-61,76r-100,0xm348,15v-180,0,-268,-88,-268,-279r0,-403r135,0r0,391v-6,117,41,180,141,184v72,3,122,-47,134,-114v3,-16,4,-41,4,-75r0,-386r131,0r0,405v-1,190,-87,277,-277,277","w":705},"\u00dc":{"d":"402,-741r0,-115r115,0r0,115r-115,0xm194,-741r0,-115r115,0r0,115r-115,0xm348,15v-180,0,-268,-88,-268,-279r0,-403r135,0r0,391v-6,117,41,180,141,184v72,3,122,-47,134,-114v3,-16,4,-41,4,-75r0,-386r131,0r0,405v-1,190,-87,277,-277,277","w":705},"\u00dd":{"d":"271,-735r80,-130r130,0r-127,130r-83,0xm253,0r0,-267r-244,-400r157,0r143,248v6,11,11,22,15,32v2,-6,7,-16,15,-30r146,-250r144,0r-241,397r0,270r-135,0","w":638},"\u00de":{"d":"80,0r0,-667r135,0r0,94v96,-3,185,10,233,43v77,53,103,161,60,256v-42,94,-146,125,-293,115r0,159r-135,0xm213,-263v45,0,74,-1,89,-4v50,-7,86,-44,86,-99v0,-53,-25,-86,-75,-99v-15,-4,-49,-6,-100,-6r0,208","w":548},"\u00df":{"d":"385,-531v1,-59,-31,-101,-87,-101v-41,0,-71,20,-89,61v-12,27,-17,72,-17,133r0,438r-128,0r0,-465v-3,-173,84,-259,241,-262v118,-2,210,70,209,184v0,86,-51,144,-125,159r0,3v98,16,157,77,157,182v0,155,-136,238,-301,197r2,-101v22,3,40,4,55,4v69,1,116,-47,114,-116v-3,-83,-46,-121,-148,-117r0,-95v74,6,117,-35,117,-104","w":584},"\u00e0":{"d":"246,-579r-136,-136r132,0r80,136r-76,0xm205,8v-98,0,-168,-59,-168,-155v0,-107,83,-160,248,-160v17,0,41,1,72,4v2,-73,-35,-110,-110,-110v-55,0,-106,18,-153,54r-4,-110v110,-51,293,-50,353,37v37,53,31,152,31,252v0,52,2,112,5,180r-114,0r-2,-73v-33,54,-85,81,-158,81xm164,-143v0,65,91,80,139,45v36,-26,57,-62,56,-127v-16,-1,-28,-2,-35,-2v-107,0,-160,28,-160,84","w":538},"\u00e1":{"d":"227,-579r80,-136r132,0r-136,136r-76,0xm205,8v-98,0,-168,-59,-168,-155v0,-107,83,-160,248,-160v17,0,41,1,72,4v2,-73,-35,-110,-110,-110v-55,0,-106,18,-153,54r-4,-110v110,-51,293,-50,353,37v37,53,31,152,31,252v0,52,2,112,5,180r-114,0r-2,-73v-33,54,-85,81,-158,81xm164,-143v0,65,91,80,139,45v36,-26,57,-62,56,-127v-16,-1,-28,-2,-35,-2v-107,0,-160,28,-160,84","w":538},"\u00e2":{"d":"123,-579r105,-136r99,0r105,136r-90,0r-64,-83r-65,83r-90,0xm205,8v-98,0,-168,-59,-168,-155v0,-107,83,-160,248,-160v17,0,41,1,72,4v2,-73,-35,-110,-110,-110v-55,0,-106,18,-153,54r-4,-110v110,-51,293,-50,353,37v37,53,31,152,31,252v0,52,2,112,5,180r-114,0r-2,-73v-33,54,-85,81,-158,81xm164,-143v0,65,91,80,139,45v36,-26,57,-62,56,-127v-16,-1,-28,-2,-35,-2v-107,0,-160,28,-160,84","w":538},"\u00e3":{"d":"338,-595v-29,0,-100,-37,-126,-37v-20,0,-33,14,-40,41r-48,0v7,-66,40,-108,96,-112v22,-2,111,39,131,38v19,-1,36,-22,39,-41r49,0v-2,57,-45,111,-101,111xm205,8v-98,0,-168,-59,-168,-155v0,-107,83,-160,248,-160v17,0,41,1,72,4v2,-73,-35,-110,-110,-110v-55,0,-106,18,-153,54r-4,-110v110,-51,293,-50,353,37v37,53,31,152,31,252v0,52,2,112,5,180r-114,0r-2,-73v-33,54,-85,81,-158,81xm164,-143v0,65,91,80,139,45v36,-26,57,-62,56,-127v-16,-1,-28,-2,-35,-2v-107,0,-160,28,-160,84","w":538},"\u00e4":{"d":"318,-591r0,-112r108,0r0,112r-108,0xm129,-591r0,-112r109,0r0,112r-109,0xm205,8v-98,0,-168,-59,-168,-155v0,-107,83,-160,248,-160v17,0,41,1,72,4v2,-73,-35,-110,-110,-110v-55,0,-106,18,-153,54r-4,-110v110,-51,293,-50,353,37v37,53,31,152,31,252v0,52,2,112,5,180r-114,0r-2,-73v-33,54,-85,81,-158,81xm164,-143v0,65,91,80,139,45v36,-26,57,-62,56,-127v-16,-1,-28,-2,-35,-2v-107,0,-160,28,-160,84","w":538},"\u00e5":{"d":"375,-654v0,52,-47,99,-99,99v-53,0,-99,-47,-99,-100v0,-54,47,-98,101,-98v51,0,97,48,97,99xm236,-654v0,22,18,41,40,41v22,0,41,-18,41,-40v0,-22,-19,-41,-40,-41v-22,0,-41,18,-41,40xm205,8v-98,0,-168,-59,-168,-155v0,-107,83,-160,248,-160v17,0,41,1,72,4v2,-73,-35,-110,-110,-110v-55,0,-106,18,-153,54r-4,-110v110,-51,293,-50,353,37v37,53,31,152,31,252v0,52,2,112,5,180r-114,0r-2,-73v-33,54,-85,81,-158,81xm164,-143v0,65,91,80,139,45v36,-26,57,-62,56,-127v-16,-1,-28,-2,-35,-2v-107,0,-160,28,-160,84","w":538},"\u00e6":{"d":"227,8v-105,2,-191,-56,-191,-155v0,-103,82,-155,245,-155v19,0,47,1,83,3v-2,-73,-42,-110,-121,-110v-71,0,-95,16,-151,46r-4,-100v58,-27,117,-40,177,-40v88,0,144,27,167,80v35,-53,90,-80,166,-80v170,0,219,111,221,297r-331,0v6,81,59,118,141,119v55,0,103,-14,145,-43r4,105v-120,54,-318,46,-364,-60v-31,63,-100,92,-187,93xm689,-295v-1,-68,-36,-120,-97,-120v-62,0,-97,52,-105,120r202,0xm366,-221v-89,-7,-195,-1,-197,77v-2,62,82,86,135,52v41,-26,61,-65,62,-129","w":856},"\u00e7":{"d":"285,124v0,-34,-45,-39,-79,-28r-20,-22r47,-75v-131,-30,-196,-113,-196,-249v0,-192,168,-290,359,-233r-10,103v-29,-11,-54,-16,-76,-16v-85,-1,-140,62,-140,148v0,85,57,146,142,145v29,0,58,-7,88,-20r7,108v-50,14,-84,20,-127,19r-34,51v58,-13,117,5,118,58v1,57,-59,94,-121,92v-30,0,-62,-7,-96,-22r18,-42v25,13,47,19,68,19v28,0,52,-11,52,-36","w":431},"\u00e8":{"d":"254,-579r-136,-136r132,0r80,136r-76,0xm293,13v-162,1,-257,-99,-257,-262v0,-152,91,-259,239,-259v160,0,243,127,220,301r-333,0v6,77,63,126,146,125v47,0,98,-17,155,-51r2,111v-52,23,-109,35,-172,35xm376,-296v0,-72,-36,-122,-104,-122v-68,0,-106,54,-112,122r216,0","w":535},"\u00e9":{"d":"238,-579r80,-136r132,0r-136,136r-76,0xm293,13v-162,1,-257,-99,-257,-262v0,-152,91,-259,239,-259v160,0,243,127,220,301r-333,0v6,77,63,126,146,125v47,0,98,-17,155,-51r2,111v-52,23,-109,35,-172,35xm376,-296v0,-72,-36,-122,-104,-122v-68,0,-106,54,-112,122r216,0","w":535},"\u00ea":{"d":"129,-579r105,-136r99,0r105,136r-90,0r-64,-83r-65,83r-90,0xm293,13v-162,1,-257,-99,-257,-262v0,-152,91,-259,239,-259v160,0,243,127,220,301r-333,0v6,77,63,126,146,125v47,0,98,-17,155,-51r2,111v-52,23,-109,35,-172,35xm376,-296v0,-72,-36,-122,-104,-122v-68,0,-106,54,-112,122r216,0","w":535},"\u00eb":{"d":"324,-591r0,-112r108,0r0,112r-108,0xm135,-591r0,-112r109,0r0,112r-109,0xm293,13v-162,1,-257,-99,-257,-262v0,-152,91,-259,239,-259v160,0,243,127,220,301r-333,0v6,77,63,126,146,125v47,0,98,-17,155,-51r2,111v-52,23,-109,35,-172,35xm376,-296v0,-72,-36,-122,-104,-122v-68,0,-106,54,-112,122r216,0","w":535},"\u00ec":{"d":"98,-579r-126,-136r129,0r73,136r-76,0xm65,0r0,-495r128,0r0,495r-128,0","w":258},"\u00ed":{"d":"91,-579r73,-136r129,0r-126,136r-76,0xm65,0r0,-495r128,0r0,495r-128,0","w":258},"\u00ee":{"d":"-12,-579r95,-136r99,0r95,136r-87,0r-57,-83r-58,83r-87,0xm65,0r0,-495r128,0r0,495r-128,0","w":258},"\u00ef":{"d":"156,-591r0,-112r100,0r0,112r-100,0xm3,-591r0,-112r100,0r0,112r-100,0xm66,0r0,-495r128,0r0,495r-128,0","w":258},"\u00f0":{"d":"293,13v-154,1,-256,-108,-256,-263v0,-161,129,-291,300,-248v16,4,34,16,55,33v-17,-53,-49,-100,-95,-140r-105,64r-40,-55r77,-46v-20,-8,-54,-16,-103,-24r22,-62v49,5,103,17,162,37r112,-66r42,53r-90,53v96,77,175,229,177,390v2,172,-96,272,-258,274xm171,-251v1,86,36,168,124,168v82,0,123,-81,123,-163v0,-89,-44,-168,-124,-168v-78,0,-124,78,-123,163","w":587},"\u00f1":{"d":"358,-595v-29,0,-100,-37,-126,-37v-20,0,-33,14,-40,41r-48,0v7,-66,40,-108,96,-112v22,-2,111,39,131,38v19,-1,36,-22,39,-41r49,0v-2,57,-45,111,-101,111xm309,-396v-77,0,-111,64,-111,161r0,235r-128,0r0,-315v0,-58,-2,-118,-5,-180r120,0r4,79v38,-58,83,-87,168,-87v126,0,168,74,168,224r0,279r-128,0r0,-249v-1,-89,-12,-147,-88,-147","w":585},"\u00f2":{"d":"271,-579r-136,-136r132,0r80,136r-76,0xm293,13v-152,0,-256,-108,-256,-262v0,-152,106,-259,257,-259v155,0,257,109,257,266v0,150,-108,255,-258,255xm294,-413v-79,0,-124,78,-124,164v0,90,42,166,124,167v79,0,124,-77,124,-162v0,-90,-42,-169,-124,-169","w":587},"\u00f3":{"d":"251,-579r80,-136r132,0r-136,136r-76,0xm293,13v-152,0,-256,-108,-256,-262v0,-152,106,-259,257,-259v155,0,257,109,257,266v0,150,-108,255,-258,255xm294,-413v-79,0,-124,78,-124,164v0,90,42,166,124,167v79,0,124,-77,124,-162v0,-90,-42,-169,-124,-169","w":587},"\u00f4":{"d":"146,-579r105,-136r99,0r105,136r-90,0r-64,-83r-65,83r-90,0xm293,13v-152,0,-256,-108,-256,-262v0,-152,106,-259,257,-259v155,0,257,109,257,266v0,150,-108,255,-258,255xm294,-413v-79,0,-124,78,-124,164v0,90,42,166,124,167v79,0,124,-77,124,-162v0,-90,-42,-169,-124,-169","w":587},"\u00f5":{"d":"361,-595v-29,0,-100,-37,-126,-37v-20,0,-33,14,-40,41r-48,0v7,-66,40,-108,96,-112v22,-2,111,39,131,38v19,-1,36,-22,39,-41r49,0v-2,57,-45,111,-101,111xm293,13v-152,0,-256,-108,-256,-262v0,-152,106,-259,257,-259v155,0,257,109,257,266v0,150,-108,255,-258,255xm294,-413v-79,0,-124,78,-124,164v0,90,42,166,124,167v79,0,124,-77,124,-162v0,-90,-42,-169,-124,-169","w":587},"\u00f6":{"d":"338,-591r0,-112r108,0r0,112r-108,0xm149,-591r0,-112r109,0r0,112r-109,0xm293,13v-152,0,-256,-108,-256,-262v0,-152,106,-259,257,-259v155,0,257,109,257,266v0,150,-108,255,-258,255xm294,-413v-79,0,-124,78,-124,164v0,90,42,166,124,167v79,0,124,-77,124,-162v0,-90,-42,-169,-124,-169","w":587},"\u00f7":{"d":"212,-465r0,-107r112,0r0,107r-112,0xm35,-303r0,-87r467,0r0,87r-467,0xm212,-122r0,-107r112,0r0,107r-112,0"},"\u00f8":{"d":"551,-245v2,152,-105,260,-257,258v-59,0,-109,-15,-151,-44r-53,57r-55,-47r55,-59v-35,-47,-53,-103,-53,-169v0,-153,105,-261,258,-259v55,0,105,15,151,44r52,-56r55,47r-55,58v35,46,53,103,53,170xm295,-413v-105,1,-149,132,-113,240r185,-213v-23,-18,-47,-27,-72,-27xm293,-82v107,1,148,-132,113,-240r-185,212v23,19,47,28,72,28","w":587},"\u00f9":{"d":"261,-579r-136,-136r132,0r80,136r-76,0xm229,8v-125,0,-168,-82,-168,-224r0,-279r128,0r0,238v0,53,5,91,14,112v13,31,38,46,74,46v70,0,105,-55,105,-164r0,-232r128,0r0,302v0,61,2,125,6,193r-120,0r-4,-76v-35,56,-90,84,-163,84","w":581},"\u00fa":{"d":"245,-579r80,-136r132,0r-136,136r-76,0xm229,8v-125,0,-168,-82,-168,-224r0,-279r128,0r0,238v0,53,5,91,14,112v13,31,38,46,74,46v70,0,105,-55,105,-164r0,-232r128,0r0,302v0,61,2,125,6,193r-120,0r-4,-76v-35,56,-90,84,-163,84","w":581},"\u00fb":{"d":"134,-579r105,-136r99,0r105,136r-90,0r-64,-83r-65,83r-90,0xm229,8v-125,0,-168,-82,-168,-224r0,-279r128,0r0,238v0,53,5,91,14,112v13,31,38,46,74,46v70,0,105,-55,105,-164r0,-232r128,0r0,302v0,61,2,125,6,193r-120,0r-4,-76v-35,56,-90,84,-163,84","w":581},"\u00fc":{"d":"329,-591r0,-112r108,0r0,112r-108,0xm140,-591r0,-112r109,0r0,112r-109,0xm229,8v-125,0,-168,-82,-168,-224r0,-279r128,0r0,238v0,53,5,91,14,112v13,31,38,46,74,46v70,0,105,-55,105,-164r0,-232r128,0r0,302v0,61,2,125,6,193r-120,0r-4,-76v-35,56,-90,84,-163,84","w":581},"\u00fd":{"d":"224,-579r80,-136r132,0r-136,136r-76,0xm51,99v40,16,84,15,112,-7v15,-12,28,-35,41,-67r-195,-520r142,0r102,302r21,66r24,-82r96,-286r130,0r-197,529v-24,63,-48,106,-72,129v-47,48,-137,57,-213,33","w":534},"\u00fe":{"d":"554,-252v0,148,-68,259,-206,260v-70,0,-120,-26,-150,-78r1,273r-129,0r0,-923r129,0v-2,104,7,209,-8,303v41,-58,94,-87,160,-87v132,0,203,110,203,252xm314,-398v-77,0,-115,69,-115,154v0,84,36,151,112,151v71,0,110,-73,110,-152v0,-86,-30,-153,-107,-153","w":590},"\u00ff":{"d":"307,-591r0,-112r108,0r0,112r-108,0xm118,-591r0,-112r109,0r0,112r-109,0xm51,99v40,16,84,15,112,-7v15,-12,28,-35,41,-67r-195,-520r142,0r102,302r21,66r24,-82r96,-286r130,0r-197,529v-24,63,-48,106,-72,129v-47,48,-137,57,-213,33","w":534},"\u0152":{"d":"417,-670r251,3r186,0r0,109r-249,0r0,161r228,0r0,109r-228,0r0,179r254,0r0,109r-437,1v-131,1,-206,-22,-275,-82v-66,-57,-98,-143,-98,-255v0,-139,57,-241,149,-291v53,-29,126,-44,219,-43xm404,-563v-127,-2,-219,99,-216,228v4,159,106,246,282,229r0,-453v-21,-3,-43,-4,-66,-4","w":917},"\u0153":{"d":"297,13v-157,2,-260,-104,-260,-261v0,-155,105,-262,260,-260v93,1,136,27,178,84v45,-56,104,-84,176,-84v166,2,229,115,227,301r-332,0v5,78,56,126,139,125v49,0,98,-16,146,-49r4,107v-123,57,-290,52,-354,-46v-43,55,-92,82,-184,83xm746,-296v-4,-73,-35,-121,-97,-121v-65,0,-100,54,-103,121r200,0xm295,-413v-79,0,-125,77,-125,162v0,90,41,169,123,169v81,0,125,-75,125,-163v0,-89,-43,-168,-123,-168","w":914},"\u0178":{"d":"365,-741r0,-115r115,0r0,115r-115,0xm157,-741r0,-115r115,0r0,115r-115,0xm253,0r0,-267r-244,-400r157,0r143,248v6,11,11,22,15,32v2,-6,7,-16,15,-30r146,-250r144,0r-241,397r0,270r-135,0","w":638},"\u02c6":{"d":"98,-579r105,-136r99,0r105,136r-90,0r-64,-83r-65,83r-90,0","w":500},"\u02dc":{"d":"307,-595v-29,0,-100,-37,-126,-37v-20,0,-33,14,-40,41r-48,0v7,-66,40,-108,96,-112v22,-2,111,39,131,38v19,-1,36,-22,39,-41r49,0v-2,57,-45,111,-101,111","w":500},"\u2013":{"d":"35,-207r0,-87r465,0r0,87r-465,0"},"\u2014":{"d":"0,-207r0,-87r732,0r0,87r-732,0","w":732},"\u2018":{"d":"33,-481r85,-239r111,0r-59,239r-137,0","w":267},"\u2019":{"d":"38,-481r60,-239r136,0r-84,239r-112,0","w":267},"\u201a":{"d":"38,107r60,-239r136,0r-84,239r-112,0","w":267},"\u201c":{"d":"229,-481r85,-239r112,0r-60,239r-137,0xm33,-481r85,-239r111,0r-59,239r-137,0","w":463},"\u201d":{"d":"234,-481r60,-239r137,0r-85,239r-112,0xm38,-481r60,-239r136,0r-84,239r-112,0","w":463},"\u201e":{"d":"229,108r60,-240r137,0r-85,240r-112,0xm33,108r60,-240r136,0r-84,240r-112,0","w":463},"\u2022":{"d":"473,-338v0,74,-64,138,-138,138v-75,0,-139,-64,-139,-138v0,-76,64,-139,140,-139v73,0,137,66,137,139","w":667},"\u2026":{"d":"598,0r0,-131r136,0r0,131r-136,0xm332,0r0,-131r136,0r0,131r-136,0xm65,0r0,-131r136,0r0,131r-136,0","w":800},"\u2039":{"d":"160,-52r-114,-198r111,-195r121,0r-103,195r106,198r-121,0","w":319},"\u203a":{"d":"38,-52r105,-198r-103,-195r121,0r112,195r-114,198r-121,0","w":319},"\u20ac":{"d":"429,15v-176,0,-294,-108,-317,-266r-77,0r22,-69r49,0r0,-33r-71,0r22,-69r57,0v22,-112,67,-176,153,-222v97,-52,251,-50,340,6r-41,132v-35,-49,-80,-73,-135,-73v-98,0,-148,69,-172,157r281,0r-22,69r-268,0r-1,33r258,0r-22,69r-227,0v20,91,75,163,174,163v57,0,103,-25,136,-75r0,153v-42,17,-88,25,-139,25","w":643},"\u2122":{"d":"365,-287r0,-382r136,0r73,198v10,29,17,53,22,72v26,-92,64,-181,94,-270r138,0r0,382r-90,0r0,-225v0,-32,1,-55,3,-69r-106,294r-81,0r-88,-237r-18,-52v7,101,1,187,3,289r-86,0xm115,-287r0,-311r-114,0r0,-71r320,0r0,71r-116,0r0,311r-90,0","w":871}}});
