/*!
 * The following copyright notice may not be removed under any circumstances.
 * 
 * Copyright:
 * Digitized data © 2007 Ascender Corporation. All rights reserved.
 * 
 * Trademark:
 * Liberation is a trademark of Red Hat, Inc. registered in U.S. Patent and
 * Trademark Office and certain other jurisdictions.
 * 
 * Manufacturer:
 * Ascender Corporation
 * 
 * Designer:
 * Steve Matteson
 * 
 * Vendor URL:
 * http://www.ascendercorp.com/
 * 
 * License information:
 * http://www.ascendercorp.com/liberation.html
 */
Cufon.registerFont({"w":1139,"face":{"font-family":"liberation_sans","font-weight":400,"font-stretch":"normal","units-per-em":"2048","panose-1":"2 11 6 4 2 2 2 2 2 4","ascent":"1638","descent":"-410","x-height":"20","bbox":"-50 -1516 1926 434","underline-thickness":"150","underline-position":"-142","unicode-range":"U+0020-U+007E"},"glyphs":{" ":{"w":569,"k":{"Y":37,"T":37,"A":113}},"\u00a0":{"w":569},"!":{"d":"359,-397r-148,0r-24,-1012r196,0xm185,0r0,-201r194,0r0,201r-194,0","w":569},"\"":{"d":"618,-966r-142,0r-20,-443r184,0xm249,-966r-141,0r-21,-443r184,0","w":727},"#":{"d":"896,-885r-78,369r260,0r0,108r-283,0r-88,408r-110,0r86,-408r-363,0r-84,408r-110,0r84,-408r-201,0r0,-108r225,0r78,-369r-252,0r0,-108r274,0r89,-408r110,0r-88,408r363,0r88,-408r110,0r-88,408r211,0r0,108r-233,0xm425,-885r-80,369r362,0r78,-369r-360,0"},"$":{"d":"642,-797v233,55,470,112,464,401v-6,262,-201,359,-464,376r0,162r-124,0r0,-162v-278,-10,-447,-130,-496,-359r170,-37v32,159,142,237,326,248r0,-496r-20,-5v-210,-51,-412,-116,-412,-377v0,-245,192,-325,432,-339r0,-131r124,0r0,131v248,9,382,116,433,320r-174,33v-29,-131,-108,-196,-259,-210r0,445xm642,-167v159,-13,290,-62,292,-227v3,-177,-152,-202,-292,-241r0,468xm518,-1244v-146,10,-260,52,-260,196v0,159,132,190,260,225r0,-421"},"%":{"d":"1432,-885v248,0,316,189,316,451v0,258,-77,446,-320,446v-242,0,-315,-189,-315,-446v0,-265,68,-451,319,-451xm527,0r-155,0r922,-1409r157,0xm73,-975v0,-264,71,-446,321,-446v244,0,313,186,313,446v0,258,-74,451,-317,451v-244,0,-317,-192,-317,-451xm1432,-774v-163,0,-172,164,-172,340v0,146,14,266,98,319v39,24,101,23,142,0v115,-63,112,-319,89,-483v-14,-101,-49,-176,-157,-176xm220,-975v0,173,11,338,172,338v155,0,168,-168,168,-338v0,-147,-10,-269,-95,-322v-20,-12,-44,-16,-71,-16v-164,0,-174,162,-174,338","w":1821},"&":{"d":"1334,-10v-36,15,-91,22,-141,22v-139,-1,-225,-52,-298,-127v-90,75,-206,135,-372,135v-277,0,-451,-124,-451,-391v0,-245,168,-347,343,-429v-42,-84,-81,-182,-81,-302v0,-212,132,-315,351,-315v196,0,336,89,336,284v0,178,-128,254,-252,321v-49,26,-102,49,-157,71v84,155,181,283,293,412v82,-121,131,-247,171,-410r145,43v-46,186,-119,330,-212,469v71,83,196,121,325,82r0,135xm683,-1296v-125,-2,-196,71,-196,194v0,89,33,179,65,244v113,-47,231,-92,292,-186v17,-26,25,-56,25,-89v0,-108,-75,-161,-186,-163xm240,-373v-3,200,166,294,372,253v75,-15,137,-54,183,-97v-117,-138,-231,-293,-319,-457v-130,57,-234,137,-236,301","w":1366},"'":{"d":"266,-966r-141,0r-21,-443r184,0","w":391},"(":{"d":"496,424v-216,-236,-369,-514,-369,-956v1,-438,154,-717,369,-952r174,0v-211,237,-362,519,-362,954v0,435,151,718,362,954r-174,0","w":682},")":{"d":"186,-1484v216,236,369,515,369,956v-1,439,-154,717,-369,952r-174,0v211,-237,362,-519,362,-954v0,-435,-152,-717,-362,-954r174,0","w":682},"*":{"d":"456,-1114r264,-103r45,132r-282,73r185,250r-119,72r-150,-258r-156,256r-119,-72r189,-248r-280,-73r45,-134r267,107r-12,-297r136,0","w":797},"+":{"d":"671,-608r0,428r-147,0r0,-428r-424,0r0,-146r424,0r0,-428r147,0r0,428r424,0r0,146r-424,0","w":1196},",":{"d":"385,-219v4,192,2,374,-78,481r-123,0v50,-74,92,-155,94,-262r-88,0r0,-219r195,0","w":569},"-":{"d":"91,-464r0,-160r500,0r0,160r-500,0","w":682},"\u00ad":{"d":"91,-464r0,-160r500,0r0,160r-500,0","w":682},".":{"d":"187,0r0,-219r195,0r0,219r-195,0","w":569},"\/":{"d":"0,20r411,-1504r158,0r-407,1504r-162,0","w":569},"0":{"d":"1021,-1058v48,173,49,519,-1,694v-65,226,-186,384,-453,384v-383,0,-484,-317,-487,-725v-2,-255,45,-440,141,-575v100,-140,344,-190,541,-116v137,52,213,174,259,338xm697,-156v202,-102,202,-539,159,-828v-26,-175,-93,-300,-283,-300v-287,0,-307,274,-311,579v-3,190,18,341,80,451v45,81,114,127,227,127v47,0,90,-9,128,-29"},"1":{"d":"156,0r0,-153r359,0r0,-1084r-318,227r0,-170r333,-229r166,0r0,1256r343,0r0,153r-883,0","k":{"1":152}},"2":{"d":"572,-1430v271,0,442,119,442,386v0,174,-98,275,-192,369v-143,143,-326,257,-454,413v-29,35,-51,71,-67,109r735,0r0,153r-933,0r0,-127v119,-285,379,-433,583,-627v76,-72,143,-151,143,-284v0,-162,-96,-244,-257,-244v-163,0,-257,89,-277,238r-184,-17v35,-234,193,-369,461,-369"},"3":{"d":"715,-719v196,24,334,123,334,330v0,285,-188,409,-478,409v-293,0,-457,-130,-493,-382r186,-17v24,160,121,250,307,250v178,0,294,-88,291,-266v-4,-222,-214,-251,-446,-244r0,-156v222,9,409,-31,409,-243v0,-157,-98,-244,-264,-244v-159,0,-264,88,-278,233r-181,-14v32,-239,197,-367,461,-367v270,0,447,115,447,373v0,203,-121,297,-295,334r0,4"},"4":{"d":"881,-319r0,319r-170,0r0,-319r-664,0r0,-140r645,-950r189,0r0,948r198,0r0,142r-198,0xm711,-1206r-67,119r-415,606r-16,20r498,0r0,-745"},"5":{"d":"307,-809v96,-85,326,-120,480,-58v158,63,266,195,266,408v0,312,-184,479,-500,479v-268,0,-424,-117,-471,-335r182,-21v36,129,124,212,293,209v203,-3,309,-122,309,-328v0,-188,-114,-294,-305,-297v-120,-2,-198,45,-262,101r-176,0r47,-758r801,0r0,153r-637,0"},"6":{"d":"283,-725v59,-113,178,-186,342,-186v276,0,424,172,424,450v0,299,-156,481,-455,481v-377,0,-490,-304,-490,-692v0,-336,80,-594,292,-710v130,-71,351,-59,462,16v73,50,124,123,152,223r-172,31v-31,-108,-108,-172,-232,-172v-189,0,-262,144,-300,314v-15,70,-23,152,-23,245xm588,-125v192,0,278,-133,278,-328v0,-196,-90,-319,-284,-319v-172,0,-281,96,-281,276v0,163,62,283,168,342v35,19,75,29,119,29"},"7":{"d":"1036,-1263v-229,366,-474,692,-483,1263r-188,0v7,-400,152,-690,306,-958v59,-102,124,-200,191,-298r-757,0r0,-153r931,0r0,146"},"8":{"d":"765,-739v174,32,285,143,285,346v0,284,-186,413,-480,413v-293,0,-481,-127,-481,-411v0,-199,115,-311,281,-346r0,-4v-149,-39,-248,-147,-248,-328v0,-246,186,-361,444,-361v213,0,359,77,422,223v19,44,27,91,27,140v0,179,-97,290,-250,324r0,4xm568,-809v175,0,261,-81,260,-248v0,-165,-93,-240,-262,-239v-167,0,-260,76,-260,239v0,161,91,248,262,248xm572,-115v199,0,293,-98,291,-295v-2,-180,-109,-264,-297,-264v-183,0,-291,92,-291,268v0,194,99,291,297,291"},"9":{"d":"96,-956v0,-302,166,-474,469,-474v157,0,275,58,356,174v81,116,121,290,121,523v-1,336,-83,593,-298,706v-135,72,-365,58,-474,-21v-71,-51,-117,-126,-145,-226r172,-27v34,112,104,176,238,176v189,0,263,-143,303,-311v16,-69,25,-151,26,-244v-58,121,-178,199,-350,199v-211,0,-332,-118,-388,-281v-20,-58,-30,-123,-30,-194xm279,-956v0,194,85,333,278,333v172,0,289,-105,289,-284v0,-163,-57,-288,-164,-347v-36,-20,-76,-30,-123,-30v-191,0,-280,133,-280,328"},":":{"d":"187,-875r0,-207r195,0r0,207r-195,0xm187,0r0,-207r195,0r0,207r-195,0","w":569},";":{"d":"385,-207v4,188,1,364,-78,469r-123,0v50,-74,92,-155,94,-262r-88,0r0,-207r195,0xm190,-875r0,-207r195,0r0,207r-195,0","w":569},"\u037e":{"d":"385,-207v4,188,1,364,-78,469r-123,0v50,-74,92,-155,94,-262r-88,0r0,-207r195,0xm190,-875r0,-207r195,0r0,207r-195,0","w":569},"<":{"d":"101,-571r0,-205r995,-418r0,154r-858,366r858,367r0,153","w":1196},"=":{"d":"100,-856r0,-148r995,0r0,148r-995,0xm100,-344r0,-148r995,0r0,148r-995,0","w":1196},">":{"d":"101,-154r0,-153r858,-367r-858,-366r0,-154r995,418r0,205","w":1196},"?":{"d":"584,-1430v284,0,479,121,479,398v0,283,-233,337,-371,483v-40,42,-70,94,-71,172r-175,0v6,-271,238,-318,368,-465v39,-44,69,-100,67,-182v-4,-171,-120,-243,-295,-246v-184,-2,-300,99,-318,262r-184,-12v38,-259,200,-410,500,-410xm438,0r0,-201r195,0r0,201r-195,0"},"@":{"d":"1612,105v-170,99,-385,178,-658,178v-389,0,-631,-179,-740,-463v-100,-260,-42,-621,69,-816v160,-279,417,-488,843,-488v387,0,632,168,730,450v117,335,11,755,-222,882v-56,30,-114,48,-179,48v-127,-1,-205,-52,-207,-176r3,-70r-6,0v-72,129,-177,246,-374,246v-229,0,-330,-155,-330,-385v0,-267,118,-462,295,-561v62,-34,131,-51,207,-51v160,0,251,73,301,182r6,0r39,-160r156,0r-116,506v-20,92,-33,161,-37,253v-5,118,128,107,196,54v160,-125,229,-479,136,-727v-85,-227,-284,-365,-596,-365v-378,0,-601,183,-731,437v-90,176,-132,473,-52,690v88,237,287,386,609,386v250,0,445,-75,603,-162xm728,-664v-50,182,-32,437,172,429v166,-6,257,-115,320,-230v44,-81,76,-170,76,-282v0,-146,-93,-227,-242,-227v-194,0,-282,151,-326,310","w":2079},"A":{"d":"1167,0r-161,-412r-642,0r-162,412r-198,0r575,-1409r217,0r566,1409r-195,0xm949,-561r-211,-546r-53,-158r-83,241r-180,463r527,0","w":1366,"k":{"y":37,"w":37,"v":37,"Y":152,"W":76,"V":152,"T":152," ":113}},"B":{"d":"908,-743v204,26,350,127,350,346v0,291,-226,397,-518,397r-572,0r0,-1409r512,0v278,3,496,71,496,342v0,188,-110,286,-268,324xm680,-810v183,0,301,-57,304,-234v4,-275,-359,-201,-625,-212r0,446r321,0xm730,-153v198,0,335,-61,335,-259v-1,-315,-398,-240,-706,-249r0,508r371,0","w":1366},"C":{"d":"1207,-1021v-64,-153,-196,-253,-415,-253v-338,0,-494,223,-494,563v0,264,107,448,292,532v62,28,132,42,210,42v240,0,360,-133,445,-293r156,78v-108,215,-290,372,-610,372v-351,0,-555,-172,-644,-438v-58,-175,-57,-420,3,-591v91,-259,296,-421,640,-421v308,0,507,125,598,349","w":1479},"D":{"d":"1326,-1029v72,166,71,450,2,621v-99,247,-303,408,-633,408r-527,0r0,-1409v266,7,554,-23,766,41v185,56,318,169,392,339xm1189,-719v0,-363,-202,-533,-559,-537r-271,0r0,1103v185,-6,380,20,519,-36v196,-79,311,-255,311,-530","w":1479},"E":{"d":"168,0r0,-1409r1069,0r0,156r-878,0r0,452r818,0r0,154r-818,0r0,491r919,0r0,156r-1110,0","w":1366},"F":{"d":"359,-1253r0,524r786,0r0,158r-786,0r0,571r-191,0r0,-1409r1001,0r0,156r-810,0","w":1251,"k":{"A":113,".":227,",":227}},"G":{"d":"1440,-219v-142,140,-345,239,-627,239v-360,0,-572,-169,-665,-438v-60,-174,-59,-419,0,-591v91,-264,304,-419,656,-421v320,-3,509,113,605,332r-182,54v-72,-147,-206,-232,-428,-230v-347,3,-502,217,-502,563v0,267,105,450,293,533v64,28,138,43,223,43v199,-1,348,-63,451,-156r0,-254r-421,0r0,-160r597,0r0,486","w":1593},"H":{"d":"1121,0r0,-653r-762,0r0,653r-191,0r0,-1409r191,0r0,596r762,0r0,-596r191,0r0,1409r-191,0","w":1479},"I":{"d":"189,0r0,-1409r191,0r0,1409r-191,0","w":569},"J":{"d":"458,-135v152,0,224,-114,224,-281r0,-837r-271,0r0,-156r461,0r0,989v-5,274,-142,440,-415,440v-252,0,-385,-136,-425,-370r187,-31v23,139,89,246,239,246","w":1024},"K":{"d":"1106,0r-563,-680r-184,140r0,540r-191,0r0,-1409r191,0r0,706r679,-706r225,0r-600,612r680,797r-237,0","w":1366},"L":{"d":"168,0r0,-1409r191,0r0,1253r712,0r0,156r-903,0","k":{"y":76,"Y":152,"W":152,"V":152,"T":152," ":76}},"M":{"d":"331,-1240r7,300r0,940r-170,0r0,-1409r251,0r375,977r52,178v5,20,9,35,11,46v16,-72,44,-159,68,-224r368,-977r245,0r0,1409r-172,0r1,-1044r8,-196r-57,192v-10,32,-21,62,-31,88r-364,960r-134,0r-381,-995","w":1706},"N":{"d":"328,-1200r10,264r0,936r-170,0r0,-1409r222,0r762,1208r-12,-284r0,-924r172,0r0,1409r-230,0","w":1479},"O":{"d":"1449,-1007v62,174,62,423,-1,596v-94,262,-304,431,-653,431v-355,0,-563,-171,-654,-438v-59,-175,-59,-420,2,-591v92,-261,305,-421,654,-421v348,0,560,162,652,423xm795,-135v351,-4,505,-226,505,-576v0,-343,-161,-563,-503,-563v-345,0,-506,217,-506,563v0,265,102,449,287,533v63,28,135,43,217,43","w":1593},"P":{"d":"761,-1409v303,3,497,131,497,424v0,288,-189,436,-485,436r-414,0r0,549r-191,0r0,-1409r593,0xm746,-700v208,2,320,-88,320,-283v0,-191,-124,-273,-328,-273r-379,0r0,556r387,0","w":1366,"k":{"A":152,".":264,",":264," ":37}},"Q":{"d":"1319,365v-94,24,-239,34,-328,-3v-142,-59,-209,-190,-258,-346v-322,-18,-514,-187,-596,-446v-55,-174,-53,-412,6,-579v92,-261,305,-421,654,-421v348,0,560,162,652,423v59,163,61,400,7,569v-77,243,-249,404,-528,444v45,133,107,235,276,238v36,0,85,-7,115,-13r0,134xm795,-135v351,-4,505,-226,505,-576v0,-343,-161,-563,-503,-563v-345,0,-506,217,-506,563v0,265,102,449,287,533v63,28,135,43,217,43","w":1593},"R":{"d":"1328,-1006v0,232,-137,360,-344,399r400,607r-220,0r-366,-585r-439,0r0,585r-191,0r0,-1409r663,0v295,3,497,118,497,403xm820,-736v192,-2,316,-83,316,-268v0,-186,-135,-252,-324,-252r-453,0r0,520r461,0","w":1479,"k":{"Y":37,"W":37,"V":37,"T":37}},"S":{"d":"692,-1286v-193,2,-347,44,-347,223v0,145,121,187,242,216r281,67v210,55,404,128,404,391v0,308,-256,406,-582,409v-328,3,-535,-109,-597,-358r185,-37v45,176,192,249,419,246v206,-2,386,-50,386,-250v0,-223,-249,-223,-431,-271v-238,-63,-493,-113,-493,-403v0,-289,241,-373,535,-377v303,-4,484,90,545,324r-188,33v-39,-152,-163,-215,-359,-213","w":1366},"T":{"d":"720,-1253r0,1253r-190,0r0,-1253r-484,0r0,-156r1158,0r0,156r-484,0","w":1251,"k":{"y":113,"w":113,"u":76,"s":227,"r":76,"o":227,"i":76,"e":227,"c":227,"a":227,"O":37,"A":152,";":227,":":227,".":227,"-":113,",":227," ":37}},"U":{"d":"730,-135v258,0,401,-139,401,-406r0,-868r190,0r0,879v-2,284,-144,448,-361,517v-221,71,-505,20,-632,-95v-99,-89,-171,-217,-170,-404r0,-897r191,0r0,881v0,258,129,393,381,393","w":1479},"V":{"d":"782,0r-198,0r-575,-1409r201,0r390,992r84,249r84,-249r388,-992r201,0","w":1366,"k":{"y":76,"u":76,"r":76,"o":113,"i":37,"e":113,"a":152,"A":152,";":76,":":76,".":188,"-":113,",":188}},"W":{"d":"1511,0r-228,0r-267,-985r-47,-211r-48,212r-269,984r-228,0r-415,-1409r199,0r253,895r59,236r24,110r88,-364r245,-877r183,0r274,985r59,256r85,-346r249,-895r199,0","w":1933,"k":{"y":18,"u":37,"r":37,"o":37,"e":37,"a":76,"A":76,";":37,":":37,".":113,"-":37,",":113}},"X":{"d":"1112,0r-423,-616r-432,616r-211,0r536,-732r-495,-677r211,0r392,553r381,-553r211,0r-482,670r523,739r-211,0","w":1366},"Y":{"d":"777,-584r0,584r-190,0r0,-584r-542,-825r210,0r429,671r427,-671r210,0","w":1366,"k":{"v":113,"u":113,"q":188,"p":152,"o":188,"i":76,"e":188,"a":152,"A":152,";":133,":":113,".":264,"-":188,",":264," ":37}},"Z":{"d":"1187,0r-1122,0r0,-143r858,-1110r-785,0r0,-156r1002,0r0,139r-858,1114r905,0r0,156","w":1251},"[":{"d":"146,425r0,-1909r407,0r0,129r-233,0r0,1651r233,0r0,129r-407,0","w":569},"\\":{"d":"407,20r-407,-1504r158,0r411,1504r-162,0","w":569},"]":{"d":"16,425r0,-129r233,0r0,-1651r-233,0r0,-129r407,0r0,1909r-407,0","w":569},"^":{"d":"787,-673r-309,-633r-306,633r-162,0r368,-736r203,0r370,736r-164,0","w":961},"_":{"d":"-31,407r0,-130r1193,0r0,130r-1193,0"},"`":{"d":"436,-1201r-330,-278r0,-29r207,0r217,287r0,20r-94,0","w":682},"a":{"d":"797,-207v-73,133,-177,227,-383,227v-211,0,-327,-118,-327,-322v0,-270,204,-347,467,-354r243,-4v12,-195,-46,-305,-232,-305v-142,0,-230,44,-242,172r-188,-17v34,-206,187,-292,434,-292v259,0,410,117,410,364r0,466v2,96,12,159,101,161v21,0,41,-3,59,-7r0,112v-44,10,-86,16,-139,16v-141,2,-190,-83,-197,-217r-6,0xm272,-299v0,117,66,185,183,184v171,-2,272,-96,321,-219v25,-64,21,-121,21,-200r-197,4v-184,2,-328,43,-328,231"},"b":{"d":"655,-1102v305,0,398,220,398,556v0,377,-133,566,-398,566v-180,0,-271,-68,-339,-188r-10,168r-174,0r6,-223r0,-1261r180,0r0,423r-4,153r4,0v62,-130,159,-194,337,-194xm607,-113v224,0,257,-194,257,-427v0,-232,-31,-423,-255,-423v-239,0,-291,186,-291,434v0,242,55,416,289,416"},"c":{"d":"546,-961v-231,0,-271,180,-271,415v0,229,48,424,273,424v139,0,224,-79,240,-212r182,12v-35,209,-173,342,-417,342v-336,0,-466,-227,-466,-562v0,-341,134,-560,464,-560v238,0,370,125,413,323r-185,14v-19,-119,-93,-196,-233,-196","w":1024},"d":{"d":"835,0v-7,-50,-9,-115,-10,-174r-4,0v-62,130,-159,194,-337,194v-305,0,-398,-220,-398,-556v0,-377,133,-566,398,-566v178,0,272,68,339,188r-2,-570r180,0r0,1261r6,223r-172,0xm532,-969v-224,0,-257,194,-257,427v0,232,31,423,255,423v239,0,291,-187,291,-435v0,-241,-56,-415,-289,-415"},"e":{"d":"571,-1102v358,0,481,239,477,599r-772,0v3,224,79,385,302,388v147,3,246,-65,283,-166r158,45v-63,164,-206,257,-441,256v-337,-2,-493,-213,-491,-568v2,-346,152,-554,484,-554xm862,-641v-19,-206,-91,-328,-294,-328v-191,0,-281,130,-290,328r584,0"},"f":{"d":"492,-1341v-140,0,-134,122,-131,259r211,0r0,131r-211,0r0,951r-180,0r0,-951r-152,0r0,-131r152,0r0,-122v-2,-182,77,-281,264,-278v42,0,93,4,127,12r0,137v-21,-4,-56,-8,-80,-8","w":569,"k":{"f":37}},"g":{"d":"1001,-31v-1,304,-147,456,-453,456v-228,0,-372,-87,-417,-267r181,-26v25,102,111,157,241,156v192,-1,270,-117,269,-315r0,-174r-2,0v-61,122,-165,209,-348,209v-309,0,-386,-233,-386,-547v0,-322,88,-558,406,-560v167,-1,272,86,332,202r8,-162v1,-13,3,-21,4,-23r171,0r-6,224r0,827xm272,-541v0,235,33,416,261,416v211,0,289,-185,289,-416v0,-195,-56,-337,-180,-400v-34,-17,-70,-24,-106,-24v-226,3,-264,190,-264,424"},"h":{"d":"602,-963v-189,7,-280,132,-280,325r0,638r-180,0r0,-1484r180,0r-1,452r-7,135r3,0v67,-122,160,-205,346,-205v250,0,343,135,343,381r0,721r-181,0r0,-686v4,-177,-44,-283,-223,-277"},"i":{"d":"137,-1312r0,-172r180,0r0,172r-180,0xm137,0r0,-1082r180,0r0,1082r-180,0","w":455},"j":{"d":"137,-1312r0,-172r180,0r0,172r-180,0xm12,283v107,4,125,-70,125,-176r0,-1189r180,0r0,1216v1,178,-60,292,-240,291v-45,0,-89,-2,-127,-9r0,-139v16,2,45,6,62,6","w":455},"k":{"d":"816,0r-366,-494r-132,109r0,385r-180,0r0,-1484r180,0r0,927r475,-525r211,0r-439,465r462,617r-211,0","w":1024},"l":{"d":"138,0r0,-1484r180,0r0,1484r-180,0","w":455},"m":{"d":"1195,-963v-184,6,-249,144,-249,336r0,627r-178,0r0,-686v2,-169,-31,-283,-198,-277v-182,7,-249,145,-249,336r0,627r-179,0r0,-851r-6,-231r170,0r8,185r3,0v59,-117,140,-206,316,-205v170,1,257,66,294,205r3,0v60,-119,151,-204,328,-205v236,-2,313,142,313,381r0,721r-178,0r0,-686v2,-169,-31,-283,-198,-277","w":1706},"n":{"d":"663,-1102v247,0,343,132,343,381r0,721r-181,0r0,-686v3,-178,-44,-284,-223,-277v-194,6,-280,136,-280,336r0,627r-180,0r0,-851r-6,-231r170,0r8,185r3,0v65,-121,159,-205,346,-205"},"o":{"d":"571,-1102v350,0,482,208,482,560v0,357,-151,562,-488,562v-339,0,-479,-216,-479,-562v0,-373,162,-560,485,-560xm563,-113v243,3,301,-176,301,-429v0,-250,-50,-427,-290,-427v-240,0,-299,177,-299,427v0,246,56,426,288,429"},"p":{"d":"655,-1101v314,2,398,238,398,555v0,317,-84,566,-398,566v-168,0,-281,-63,-336,-188r-5,0v4,49,3,115,4,170r0,423r-180,0r0,-1286r-6,-221r174,0v6,49,9,118,10,174r4,0v58,-123,155,-195,335,-193xm607,-113v226,0,257,-198,257,-429v0,-227,-33,-420,-255,-420v-238,0,-291,183,-291,434v0,241,56,415,289,415"},"q":{"d":"823,-178v-60,123,-156,201,-339,198v-306,-5,-397,-222,-398,-556v0,-188,32,-329,98,-424v66,-95,166,-142,300,-142v181,0,274,74,339,188r8,-160v1,-13,3,-20,4,-22r173,0v-1,11,-2,41,-4,89v-2,48,-3,117,-3,206r0,1226r-180,0r4,-603r-2,0xm530,-119v235,0,291,-184,291,-435v0,-241,-58,-415,-289,-415v-224,0,-257,196,-257,427v0,231,32,423,255,423"},"r":{"d":"552,-937v-188,7,-230,178,-230,373r0,564r-180,0r0,-830r-6,-252r170,0r8,221r4,0v42,-132,86,-242,257,-241v25,-1,55,5,73,10r0,165v-27,-7,-60,-11,-96,-10","w":682,"k":{".":113,",":113}},"s":{"d":"513,-963v-140,0,-238,30,-238,149v0,147,172,150,293,185v186,54,382,98,382,330v0,238,-191,316,-439,319v-246,3,-409,-74,-454,-274r159,-31v34,123,133,168,295,168v143,0,264,-28,264,-168v0,-162,-185,-164,-315,-204v-170,-53,-360,-93,-360,-307v0,-219,171,-304,413,-303v233,1,379,74,418,265r-162,20v-25,-109,-124,-149,-256,-149","w":1024},"t":{"d":"450,-127v39,0,68,-7,104,-14r0,133v-57,15,-108,24,-182,24v-144,0,-216,-82,-216,-245r0,-722r-125,0r0,-131r132,0r53,-242r120,0r0,242r200,0r0,131r-200,0r0,683v1,98,22,139,114,141","w":569},"u":{"d":"476,20v-247,0,-343,-131,-343,-381r0,-721r181,0r0,686v-3,178,44,284,223,277v194,-6,280,-136,280,-336r0,-627r180,0r0,851r6,231r-170,0r-8,-185r-3,0v-65,121,-159,205,-346,205"},"v":{"d":"613,0r-213,0r-393,-1082r192,0r255,758r52,183r74,-235r246,-706r191,0","w":1024,"k":{".":152,",":152}},"w":{"d":"1174,0r-209,0r-189,-765r-36,-169r-54,240r-178,694r-208,0r-303,-1082r178,0r197,792r29,141r47,-190r196,-743r193,0r235,933r45,-198r191,-735r176,0","w":1479,"k":{".":113,",":113}},"x":{"d":"801,0r-291,-444r-293,444r-194,0r385,-556r-367,-526r199,0r270,421r268,-421r201,0r-367,524r390,558r-201,0","w":1024},"y":{"d":"67,279v220,38,304,-112,367,-284r-429,-1077r192,0r253,670r73,216r95,-268r212,-618r190,0r-416,1082v-66,164,-130,321,-275,396v-68,36,-176,35,-262,18r0,-135","w":1024,"k":{".":152,",":152}},"z":{"d":"49,0r0,-137r661,-806r-621,0r0,-139r824,0r0,137r-662,806r699,0r0,139r-901,0","w":1024},"{":{"d":"417,81v1,134,39,214,168,215r63,0r0,129r-135,0v-180,-3,-264,-112,-264,-293r0,-361v1,-154,-69,-232,-215,-237r0,-127v145,-5,215,-83,215,-236r0,-362v0,-182,85,-293,264,-293r135,0r0,129r-63,0v-130,1,-168,80,-168,215r0,356v-2,143,-85,218,-194,254v116,30,194,111,194,254r0,357","w":684},"|":{"d":"183,434r0,-1918r166,0r0,1918r-166,0","w":532},"}":{"d":"430,132v-2,181,-84,290,-264,293r-132,0r0,-129r60,0v129,-1,169,-82,170,-215r0,-357v1,-146,81,-221,193,-256v-114,-31,-193,-111,-193,-252r0,-356v-1,-136,-40,-214,-170,-215r-60,0r0,-129r132,0v179,0,265,111,264,293r0,362v-1,154,70,231,217,236r0,127v-147,5,-217,82,-217,237r0,361","w":684},"~":{"d":"1104,-633v-69,50,-143,81,-260,80v-172,-1,-347,-117,-504,-115v-112,1,-181,41,-248,88r0,-143v89,-78,274,-103,422,-61v116,33,208,94,346,94v103,0,182,-43,244,-92r0,149","w":1196}}});
/*!
 * The following copyright notice may not be removed under any circumstances.
 * 
 * Copyright:
 * Digitized data © 2007 Ascender Corporation. All rights reserved.
 * 
 * Trademark:
 * Liberation is a trademark of Red Hat, Inc. registered in U.S. Patent and
 * Trademark Office and certain other jurisdictions.
 * 
 * Manufacturer:
 * Ascender Corporation
 * 
 * Designer:
 * Steve Matteson
 * 
 * Vendor URL:
 * http://www.ascendercorp.com/
 * 
 * License information:
 * http://www.ascendercorp.com/liberation.html
 */
Cufon.registerFont({"w":1139,"face":{"font-family":"liberation_sans","font-weight":700,"font-stretch":"normal","units-per-em":"2048","panose-1":"2 11 7 4 2 2 2 2 2 4","ascent":"1638","descent":"-410","x-height":"20","bbox":"-32 -1520 1931 455","underline-thickness":"215","underline-position":"-110","unicode-range":"U+0020-U+007E"},"glyphs":{" ":{"w":569,"k":{"Y":37,"A":76}},"\u00a0":{"w":569},"!":{"d":"455,-426r-230,0r-32,-983r294,0xm193,0r0,-270r288,0r0,270r-288,0","w":682},"\"":{"d":"807,-898r-219,0r-27,-511r275,0xm381,-898r-219,0r-27,-511r273,0","w":971},"#":{"d":"909,-862r-69,332r215,0r0,149r-246,0r-82,381r-156,0r80,-381r-307,0r-80,381r-153,0r79,-381r-155,0r0,-149r188,0r70,-332r-207,0r0,-148r238,0r84,-385r153,0r-82,385r307,0r84,-385r156,0r-84,385r164,0r0,148r-197,0xm449,-862r-72,332r309,0r70,-332r-307,0"},"$":{"d":"629,-838v247,54,481,125,481,426v0,279,-201,376,-481,389r0,175r-109,0r0,-172v-289,-8,-446,-139,-493,-388r256,-47v21,136,90,216,237,228r0,-391v-232,-52,-448,-127,-448,-412v0,-259,196,-342,448,-356r0,-134r109,0r0,134v267,5,397,128,446,350r-264,39v-20,-112,-70,-177,-182,-193r0,352xm520,-1194v-109,9,-184,49,-186,160v-2,122,95,140,186,172r0,-332xm629,-227v129,-10,219,-52,221,-181v2,-138,-116,-154,-221,-186r0,367"},"%":{"d":"1417,-881v260,0,350,176,350,449v-1,270,-98,448,-354,448v-258,0,-353,-178,-354,-448v0,-277,92,-449,358,-449xm552,0r-206,0r920,-1409r209,0xm51,-977v-1,-277,92,-448,357,-448v260,0,352,175,352,448v-1,271,-99,449,-357,449v-256,0,-351,-179,-352,-449xm1415,-141v133,0,137,-145,137,-291v0,-127,-3,-239,-76,-282v-60,-35,-145,-6,-166,48v-23,60,-34,137,-34,234v0,149,2,291,139,291xm406,-684v135,0,137,-146,137,-293v0,-126,-5,-232,-76,-279v-16,-10,-36,-14,-59,-14v-141,5,-142,143,-142,293v0,149,3,293,140,293","w":1821},"&":{"d":"575,20v-293,0,-485,-123,-485,-405v0,-244,167,-343,338,-428v-37,-75,-74,-178,-74,-279v0,-223,144,-325,377,-325v212,0,363,89,363,297v0,173,-127,246,-246,314v-47,26,-96,50,-146,73v70,123,151,233,244,336v72,-109,121,-224,158,-363r209,70v-47,161,-108,293,-193,420v66,66,186,92,295,57r0,203v-166,59,-367,-13,-461,-99v-95,71,-213,129,-379,129xm729,-1247v-139,0,-186,128,-143,255v11,33,24,65,39,95v88,-39,180,-75,226,-151v55,-91,-12,-199,-122,-199xm344,-389v0,144,93,217,242,219v84,2,159,-39,202,-76v-102,-114,-196,-239,-272,-377v-96,47,-172,108,-172,234","w":1479},"'":{"d":"354,-898r-219,0r-26,-511r272,0","w":487},"(":{"d":"379,-530v0,421,126,699,301,955r-281,0v-176,-253,-297,-534,-297,-956v0,-421,122,-700,297,-953r281,0v-176,255,-301,534,-301,954","w":682},")":{"d":"580,-531v0,421,-121,703,-297,956r-281,0v175,-257,301,-533,301,-955v0,-420,-126,-699,-301,-954r281,0v176,253,297,531,297,953","w":682},"*":{"d":"492,-1135r235,-104r68,197r-250,61r186,213r-184,121r-146,-252r-149,252r-186,-123r190,-211r-250,-61r68,-197r239,104r-18,-274r215,0","w":797},"+":{"d":"711,-569r0,408r-226,0r0,-408r-399,0r0,-224r399,0r0,-408r226,0r0,408r402,0r0,224r-402,0","w":1196},",":{"d":"432,-66v1,167,-39,288,-108,383r-185,0v65,-84,127,-177,133,-317r-129,0r0,-305r289,0r0,239","w":569},"-":{"d":"80,-409r0,-244r520,0r0,244r-520,0","w":682},"\u00ad":{"d":"80,-409r0,-244r520,0r0,244r-520,0","w":682},".":{"d":"139,0r0,-305r289,0r0,305r-289,0","w":569},"\/":{"d":"20,41r291,-1525r238,0r-286,1525r-243,0","w":569},"0":{"d":"1018,-1058v45,173,48,519,0,694v-63,228,-184,384,-453,384v-386,0,-481,-318,-484,-725v-2,-254,37,-442,136,-575v77,-103,191,-150,356,-150v265,0,386,146,445,372xm725,-308v60,-139,57,-454,37,-644v-15,-145,-43,-258,-191,-258v-152,0,-184,113,-199,260v-19,189,-22,502,36,642v29,70,71,107,159,107v86,0,129,-38,158,-107"},"1":{"d":"129,0r0,-209r349,0r0,-961r-338,211r0,-221r353,-229r266,0r0,1200r323,0r0,209r-953,0","k":{"1":113}},"2":{"d":"563,-1430v285,0,472,118,472,396v0,227,-142,347,-275,453r-144,115v-82,69,-170,137,-213,235r654,0r0,231r-986,0r0,-195v117,-261,353,-412,545,-593v66,-62,132,-126,134,-234v2,-124,-63,-184,-185,-184v-130,0,-181,74,-199,194r-283,-16v34,-255,187,-402,480,-402"},"3":{"d":"728,-721v197,25,337,120,337,330v0,292,-199,414,-500,414v-309,0,-480,-141,-518,-406r286,-25v18,125,87,203,231,203v135,0,214,-66,213,-203v-2,-185,-178,-200,-368,-194r0,-227v181,8,335,-16,335,-191v0,-118,-69,-186,-190,-186v-119,0,-193,71,-202,184r-281,-20v35,-253,208,-388,488,-388v278,0,470,111,470,375v0,202,-125,294,-301,330r0,4"},"4":{"d":"940,-287r0,287r-268,0r0,-287r-641,0r0,-211r595,-911r314,0r0,913r188,0r0,209r-188,0xm672,-496r2,-562r7,-97v-126,233,-282,438,-421,659r412,0"},"5":{"d":"385,-844v58,-49,145,-92,255,-90v220,3,352,111,412,276v41,114,40,271,-4,384v-71,183,-233,294,-488,294v-288,0,-453,-130,-497,-372r281,-23v25,104,88,172,219,172v147,-1,233,-103,230,-260v-4,-149,-75,-241,-224,-244v-94,-1,-148,41,-191,91r-274,0r49,-793r847,0r0,209r-592,0"},"6":{"d":"350,-752v55,-94,164,-155,306,-155v270,0,409,172,409,446v0,305,-166,481,-474,481v-370,0,-516,-282,-516,-692v0,-251,46,-440,135,-568v112,-163,313,-226,541,-172v154,37,236,148,276,306r-265,37v-22,-87,-75,-139,-170,-139v-75,0,-135,38,-178,113v-43,75,-64,190,-64,343xm582,-199v136,0,203,-108,201,-254v-1,-149,-63,-247,-208,-247v-130,0,-205,81,-205,217v0,155,62,284,212,284"},"7":{"d":"1049,-1186v-205,344,-454,654,-463,1186r-293,0v11,-534,279,-840,495,-1178r-700,0r0,-231r961,0r0,223"},"8":{"d":"785,-739v174,32,291,138,291,342v0,293,-201,417,-505,417v-303,0,-506,-123,-506,-415v0,-200,118,-309,287,-342r0,-4v-148,-37,-254,-140,-254,-316v0,-264,194,-373,469,-373v281,0,474,105,474,375v0,175,-105,278,-256,312r0,4xm569,-838v132,0,183,-74,183,-202v0,-126,-56,-193,-185,-193v-127,0,-182,69,-182,193v1,126,54,202,184,202xm573,-178v156,0,213,-89,212,-242v-1,-145,-71,-222,-220,-221v-144,0,-209,84,-211,225v-1,153,63,238,219,238"},"9":{"d":"563,-1430v391,0,500,299,500,703v0,250,-48,435,-137,561v-115,162,-323,222,-552,167v-156,-38,-238,-152,-278,-312r264,-37v24,90,76,147,180,147v147,0,198,-116,228,-249v12,-56,18,-122,19,-199v-54,100,-163,160,-311,160v-274,0,-405,-189,-405,-469v0,-310,180,-472,492,-472xm557,-698v132,0,209,-88,209,-226v0,-157,-58,-286,-210,-286v-142,0,-200,107,-200,254v0,146,58,258,201,258"},":":{"d":"197,-752r0,-282r288,0r0,282r-288,0xm197,0r0,-281r288,0r0,281r-288,0","w":682},";":{"d":"199,-752r0,-282r288,0r0,282r-288,0xm487,-66v1,167,-39,288,-108,383r-184,0v64,-85,127,-177,133,-317r-129,0r0,-281r288,0r0,215","w":682},"\u037e":{"d":"199,-752r0,-282r288,0r0,282r-288,0xm487,-66v1,167,-39,288,-108,383r-184,0v64,-85,127,-177,133,-317r-129,0r0,-281r288,0r0,215","w":682},"<":{"d":"86,-516r0,-322r1027,-391r0,228r-833,325r833,324r0,227","w":1196},"=":{"d":"85,-842r0,-223r1027,0r0,223r-1027,0xm85,-291r0,-221r1027,0r0,221r-1027,0","w":1196},">":{"d":"86,-125r0,-227r832,-324r-832,-325r0,-228r1027,391r0,322","w":1196},"?":{"d":"94,-1001v42,-270,218,-429,531,-429v233,0,397,79,473,236v55,114,35,291,-29,374v-94,122,-259,173,-335,310v-13,24,-20,52,-21,84r-267,0v12,-273,260,-317,376,-484v19,-29,28,-64,28,-104v0,-124,-89,-193,-221,-190v-146,3,-230,85,-250,215xm438,0r0,-270r289,0r0,270r-289,0","w":1251},"@":{"d":"1571,147v-211,131,-571,234,-898,149v-342,-89,-556,-336,-556,-757v0,-422,191,-695,461,-859v135,-82,307,-134,514,-134v390,1,634,169,740,450v95,253,29,595,-96,748v-79,96,-184,179,-339,182v-142,4,-214,-92,-185,-239r-6,0v-65,123,-172,239,-350,239v-233,0,-330,-159,-330,-385v0,-262,114,-460,289,-559v62,-35,132,-53,211,-53v141,0,223,71,264,174r6,0r39,-152r156,0r-117,506v-17,81,-35,163,-37,240v-5,115,123,106,193,54v122,-90,196,-260,196,-474v0,-286,-145,-461,-360,-545v-142,-55,-361,-59,-517,-14v-294,85,-476,296,-547,600v-43,183,-23,407,46,542v100,195,279,320,572,320v244,0,427,-71,589,-155xm772,-778v-96,156,-151,574,117,563v136,-6,207,-100,261,-201v44,-82,76,-185,81,-305v7,-168,-157,-259,-314,-195v-65,26,-109,79,-145,138","w":1997},"A":{"d":"1133,0r-125,-360r-537,0r-125,360r-295,0r514,-1409r348,0r512,1409r-292,0xm942,-582r-182,-540r-21,-70r-63,205r-139,405r405,0","w":1479,"k":{"y":76,"w":37,"v":76,"Y":188,"W":113,"V":152,"T":152," ":76}},"B":{"d":"1036,-741v207,23,350,127,350,339v0,300,-242,402,-544,402r-705,0r0,-1409r645,0v290,4,523,74,523,354v0,178,-105,282,-269,314xm770,-841v149,0,238,-42,238,-174v0,-138,-94,-175,-240,-175r-336,0r0,349r338,0xm817,-219v159,0,273,-47,273,-206v0,-156,-127,-198,-284,-198r-374,0r0,404r385,0","w":1479},"C":{"d":"381,-711v0,298,117,499,414,499v210,0,311,-119,371,-268r257,97v-99,237,-286,405,-628,403v-470,-3,-711,-267,-711,-731v0,-462,232,-717,698,-719v340,-2,538,140,623,392r-260,71v-49,-141,-167,-231,-357,-231v-293,0,-407,193,-407,487","w":1479},"D":{"d":"647,-1409v466,6,746,224,746,694v0,352,-159,572,-415,669v-83,32,-174,46,-271,46r-570,0r0,-1409r510,0xm1096,-715v0,-305,-156,-462,-455,-466r-209,0r0,953v148,-5,304,17,414,-31v160,-70,250,-225,250,-456","w":1479},"E":{"d":"137,0r0,-1409r1108,0r0,228r-813,0r0,354r752,0r0,228r-752,0r0,371r854,0r0,228r-1149,0","w":1366},"F":{"d":"432,-1181r0,436r721,0r0,228r-721,0r0,517r-295,0r0,-1409r1039,0r0,228r-744,0","w":1251,"k":{"A":113,".":227,",":227}},"G":{"d":"381,-711v0,299,127,500,425,500v163,0,300,-46,390,-119r0,-195r-344,0r0,-218r614,0r0,518v-150,146,-373,245,-668,245v-474,0,-714,-264,-714,-731v0,-468,248,-719,721,-719v333,0,541,126,631,367r-272,82v-56,-132,-170,-217,-359,-217v-298,0,-424,189,-424,487","w":1593},"H":{"d":"1057,0r0,-604r-625,0r0,604r-295,0r0,-1409r295,0r0,561r625,0r0,-561r284,0r0,1409r-284,0","w":1479},"I":{"d":"137,0r0,-1409r295,0r0,1409r-295,0","w":569},"J":{"d":"999,-446v-5,302,-170,462,-475,466v-303,4,-449,-141,-493,-402r293,-43v22,121,67,214,202,214v126,0,180,-93,179,-228r0,-739r-281,0r0,-231r575,0r0,963"},"K":{"d":"1112,0r-506,-647r-174,133r0,514r-295,0r0,-1409r295,0r0,639r635,-639r344,0r-602,596r651,813r-348,0","w":1479},"L":{"d":"137,0r0,-1409r295,0r0,1181r756,0r0,228r-1051,0","w":1251,"k":{"y":76,"Y":188,"W":113,"V":152,"T":152," ":37}},"M":{"d":"1307,0r1,-959r9,-202r-105,375r-254,786r-210,0r-284,-887r-77,-274r12,307r0,854r-262,0r0,-1409r395,0r252,788r70,265r74,-260r248,-793r393,0r0,1409r-262,0","w":1706},"N":{"d":"995,0r-614,-1085r15,170v2,29,3,57,3,84r0,831r-262,0r0,-1409r337,0r623,1094r-15,-176v-2,-33,-3,-66,-3,-99r0,-819r262,0r0,1409r-346,0","w":1479},"O":{"d":"1460,-1008v63,173,63,425,-2,597v-97,262,-312,431,-665,431v-359,0,-572,-170,-665,-438v-60,-175,-59,-420,2,-591v94,-263,312,-421,665,-421v353,0,570,160,665,422xm793,-212v294,0,413,-204,413,-499v0,-290,-124,-487,-411,-487v-290,0,-414,195,-414,487v0,226,80,388,234,462v51,25,111,37,178,37","w":1593},"P":{"d":"770,-1409v321,3,526,135,526,446v0,303,-198,467,-514,467r-350,0r0,496r-295,0r0,-1409r633,0xm745,-723v162,-1,254,-77,254,-235v0,-155,-98,-222,-262,-222r-305,0r0,457r313,0","w":1366,"k":{"A":152,".":264,",":264," ":37}},"Q":{"d":"1251,183v41,0,82,-4,119,-10r-2,202v-118,27,-295,45,-408,-1v-152,-61,-225,-199,-276,-364v-392,-42,-600,-297,-600,-721v0,-348,150,-570,406,-669v170,-66,440,-66,610,1v255,101,407,320,407,668v0,396,-193,634,-524,707v39,119,113,189,268,187xm793,-211v295,0,413,-205,413,-500v0,-290,-124,-487,-411,-487v-290,0,-414,195,-414,487v0,226,80,389,234,463v51,25,111,37,178,37","w":1593},"R":{"d":"1367,-989v0,224,-129,348,-311,397r381,592r-332,0r-327,-535r-346,0r0,535r-295,0r0,-1409r704,0v312,3,526,118,526,420xm818,-764v155,-1,252,-65,252,-213v0,-147,-105,-203,-260,-203r-378,0r0,416r386,0","w":1479,"k":{"Y":76,"W":37,"V":37}},"S":{"d":"680,-1221v-149,1,-268,32,-268,168v0,172,192,172,340,211v43,11,88,20,131,30v216,53,408,136,403,406v-6,326,-261,424,-604,426v-341,2,-561,-113,-623,-387r285,-47v36,150,153,215,346,213v172,-1,309,-37,309,-188v0,-135,-124,-166,-239,-196v-289,-74,-640,-89,-635,-451v4,-304,251,-390,561,-394v318,-4,515,91,563,353r-286,39v-32,-126,-120,-184,-283,-183","w":1366},"T":{"d":"773,-1181r0,1181r-295,0r0,-1181r-455,0r0,-228r1206,0r0,228r-456,0","w":1251,"k":{"y":152,"w":152,"u":152,"s":152,"r":113,"o":152,"i":37,"e":152,"c":152,"a":152,"O":37,"A":152,";":227,":":227,".":227,"-":113,",":227}},"U":{"d":"731,-211v218,0,328,-126,328,-350r0,-848r295,0r0,866v-6,387,-245,563,-631,563v-373,0,-600,-172,-600,-548r0,-881r295,0r0,858v0,218,100,340,313,340","w":1479},"V":{"d":"834,0r-299,0r-521,-1409r308,0r290,905r74,266r72,-266r289,-905r305,0","w":1366,"k":{"y":76,"u":76,"r":113,"o":152,"i":37,"e":113,"a":113,"A":152,";":113,":":113,".":188,"-":113,",":188}},"W":{"d":"1567,0r-350,0r-211,-903r-39,-213r-62,301r-190,815r-350,0r-363,-1409r299,0r228,1021r22,109r80,-380r174,-750r330,0r190,803r59,327r78,-346r170,-784r299,0","w":1933,"k":{"y":37,"u":37,"r":37,"o":37,"i":18,"e":37,"a":76,"A":113,";":37,":":37,".":113,"-":41,",":113}},"X":{"d":"1038,0r-354,-561r-354,561r-312,0r488,-741r-447,-668r312,0r313,498r313,-498r310,0r-428,668r469,741r-310,0","w":1366},"Y":{"d":"831,-578r0,578r-294,0r0,-578r-502,-831r309,0r338,596r342,-596r309,0","w":1366,"k":{"v":113,"u":113,"q":152,"p":113,"o":152,"i":76,"e":113,"a":113,"A":188,";":152,":":152,".":227,"-":113,",":227," ":37}},"Z":{"d":"1192,0r-1131,0r0,-209r762,-969r-686,0r0,-231r1014,0r0,205r-762,973r803,0r0,231","w":1251},"[":{"d":"115,425r0,-1909r542,0r0,190r-276,0r0,1528r276,0r0,191r-542,0","w":682},"\\":{"d":"307,41r-286,-1526r238,0r291,1526r-243,0","w":569},"]":{"d":"25,425r0,-191r278,0r0,-1528r-278,0r0,-190r542,0r0,1909r-542,0","w":682},"^":{"d":"922,-514r-326,-752r-324,752r-227,0r391,-895r322,0r393,895r-229,0","w":1196},"_":{"d":"-20,250r0,-78r1177,0r0,78r-1177,0"},"`":{"d":"406,-1183r-340,-276r0,-43r258,0r251,288r0,31r-169,0","w":682},"a":{"d":"749,-193v-70,124,-174,213,-356,213v-213,0,-333,-113,-333,-326v0,-253,179,-340,427,-346r233,-4v5,-148,-15,-264,-158,-264v-108,0,-150,54,-160,153r-293,-14v39,-219,202,-321,465,-321v266,0,427,124,427,388r0,394v1,84,5,160,89,160v21,0,42,-2,62,-6r0,152v-57,13,-108,26,-180,26v-145,0,-203,-73,-217,-205r-6,0xm353,-328v0,95,44,152,130,152v169,0,245,-137,237,-325r-144,2v-130,3,-223,33,-223,171"},"b":{"d":"424,-894v60,-136,169,-208,346,-208v303,0,397,249,397,557v0,246,-68,437,-229,523v-52,28,-115,42,-186,42v-170,-1,-269,-79,-330,-194v-1,56,-5,127,-14,174r-273,0v2,-23,3,-57,5,-100v2,-43,3,-92,3,-147r0,-1237r281,0r0,414r-4,176r4,0xm420,-536v0,201,48,364,231,364v71,0,126,-29,165,-88v39,-59,58,-154,58,-285v-2,-210,-42,-362,-221,-362v-185,0,-233,166,-233,371","w":1251},"c":{"d":"596,-172v120,0,188,-82,201,-201r282,13v-41,237,-208,380,-485,380v-346,0,-514,-210,-514,-555v0,-353,169,-567,518,-567v270,0,425,136,473,361r-283,14v-16,-106,-75,-185,-196,-182v-176,4,-217,161,-217,363v0,249,74,374,221,374"},"d":{"d":"1108,-236r8,236r-272,0v-9,-48,-14,-119,-15,-176r-4,0v-60,131,-168,196,-346,196v-301,0,-395,-253,-395,-560v0,-246,69,-434,230,-520v52,-28,114,-42,186,-42v170,0,269,77,329,191r-2,-573r281,0r0,1248xm598,-172v183,0,233,-171,233,-375v0,-202,-47,-364,-231,-364v-189,0,-223,171,-223,371v0,245,74,368,221,368","w":1251},"e":{"d":"1053,-274v-70,175,-212,297,-467,294v-347,-4,-506,-212,-506,-566v0,-355,170,-556,510,-556v356,0,477,255,479,615r-694,0v2,177,51,319,225,319v104,0,163,-45,188,-129xm797,-663v-2,-182,-115,-308,-291,-247v-88,30,-125,125,-129,247r420,0"},"f":{"d":"604,-1296v-92,-3,-133,38,-131,129r0,85r213,0r0,190r-213,0r0,892r-280,0r0,-892r-158,0r0,-190r158,0r0,-113v0,-199,109,-290,315,-289v61,0,127,8,178,16r0,181v-22,-5,-56,-9,-82,-9","w":682},"g":{"d":"1108,-33v-2,322,-190,467,-512,467v-252,0,-420,-88,-467,-291r281,-33v20,86,88,139,194,139v188,0,233,-143,225,-343v-1,-34,6,-77,0,-107v-59,131,-171,199,-348,199v-300,0,-397,-242,-397,-548v0,-317,106,-553,418,-553v162,0,272,71,327,195r5,0v1,-56,5,-127,14,-174r266,0r-6,250r0,799xm600,-197v181,0,231,-160,231,-359v0,-196,-51,-354,-229,-354v-185,0,-225,164,-225,360v0,201,49,353,223,353","w":1251},"h":{"d":"424,-1079r-8,213r4,0v67,-145,161,-236,348,-236v254,0,356,165,356,416r0,686r-280,0r0,-606v-1,-157,-39,-285,-193,-285v-163,0,-227,142,-227,312r0,579r-281,0r0,-1484r281,0r0,405","w":1251},"i":{"d":"143,-1277r0,-207r281,0r0,207r-281,0xm143,0r0,-1082r281,0r0,1082r-281,0","w":569},"j":{"d":"144,-1277r0,-207r281,0r0,207r-281,0xm425,128v-2,190,-94,296,-287,297v-65,0,-119,-3,-170,-9r0,-198v16,2,34,4,51,4v106,5,125,-58,125,-162r0,-1142r281,0r0,1210","w":569},"k":{"d":"834,0r-289,-490r-121,84r0,406r-281,0r0,-1484r281,0r0,850r386,-448r302,0r-380,422r409,660r-307,0"},"l":{"d":"143,0r0,-1484r281,0r0,1484r-281,0","w":569},"m":{"d":"1251,-892v-145,0,-192,146,-192,299r0,593r-279,0r0,-607v-3,-147,-24,-285,-164,-285v-148,0,-192,153,-192,312r0,580r-281,0r-3,-982r-5,-100r268,0v7,61,12,148,13,215r4,0v60,-142,141,-236,315,-236v173,0,268,90,301,236r6,0v60,-137,140,-236,328,-236v240,0,324,176,324,416r0,687r-279,0r0,-607v-3,-147,-24,-285,-164,-285","w":1821},"n":{"d":"768,-1103v254,0,356,165,356,416r0,687r-280,0r0,-607v-1,-157,-39,-285,-193,-285v-163,0,-227,142,-227,312r0,580r-281,0r-3,-982r-5,-100r268,0v7,61,12,148,13,215r4,0v67,-145,161,-236,348,-236","w":1251},"o":{"d":"627,-1102v365,0,544,201,544,560v0,356,-191,562,-550,562v-354,0,-541,-209,-541,-562v0,-354,189,-560,547,-560xm618,-172v203,0,258,-158,259,-370v1,-223,-56,-367,-246,-367v-192,0,-258,145,-256,367v2,205,52,370,243,370","w":1251},"p":{"d":"424,-906v60,-131,171,-199,346,-199v302,0,397,250,397,559v0,246,-68,438,-229,524v-52,28,-115,42,-186,42v-167,0,-271,-74,-328,-192r-6,0v12,187,4,400,6,597r-281,0r0,-1258v0,-55,-1,-105,-3,-148v-2,-43,-3,-77,-5,-101r273,0v10,46,11,120,12,176r4,0xm649,-172v189,0,225,-174,225,-374v0,-123,-22,-212,-56,-274v-63,-114,-254,-115,-324,-12v-47,69,-75,165,-74,294v3,201,48,366,229,366","w":1251},"q":{"d":"832,-180v-59,131,-176,200,-353,200v-301,0,-395,-253,-395,-560v0,-246,71,-435,232,-521v52,-28,114,-42,186,-42v162,0,272,71,327,195v1,-57,6,-127,15,-174r270,0r-6,249r0,1258r-279,0r5,-605r-2,0xm600,-172v183,0,231,-170,231,-374v0,-201,-46,-364,-229,-364v-188,0,-225,170,-225,370v0,245,74,368,223,368","w":1251},"r":{"d":"646,-868v-164,5,-222,146,-222,337r0,531r-281,0r-3,-976r-5,-106r268,0v7,64,12,160,13,231r4,0v48,-129,86,-252,259,-252v29,0,68,6,87,15r0,235v-39,-8,-71,-16,-120,-15","w":797,"k":{".":113,",":113}},"s":{"d":"573,-916v-113,2,-200,15,-200,111v0,90,87,102,167,121v34,8,72,15,113,25v202,45,402,97,402,343v0,312,-356,371,-670,321v-167,-27,-273,-117,-313,-275r247,-37v25,112,113,145,252,141v114,-2,226,-12,226,-124v0,-101,-101,-112,-191,-134v-38,-9,-80,-16,-123,-26v-186,-43,-368,-97,-368,-325v0,-298,327,-367,622,-311v154,29,261,119,293,275r-249,26v-17,-98,-92,-133,-208,-131"},"t":{"d":"657,-16v-70,23,-145,34,-237,34v-170,-1,-258,-95,-258,-272r0,-638r-137,0r0,-190r151,0r88,-254r176,0r0,254r205,0r0,190r-205,0r0,562v0,98,32,152,123,154v38,0,61,-7,94,-14r0,174","w":682},"u":{"d":"483,20v-252,0,-356,-164,-356,-415r0,-687r281,0r0,607v2,157,39,285,192,285v163,0,227,-142,227,-312r0,-580r281,0r2,982r6,100r-268,0r-12,-215r-5,0v-66,145,-162,235,-348,235","w":1251},"v":{"d":"731,0r-336,0r-387,-1082r297,0r227,735r33,120r74,-247r197,-608r294,0","k":{".":152,",":152}},"w":{"d":"1313,0r-297,0r-188,-730r-31,-152r-52,224r-174,658r-297,0r-280,-1082r264,0r178,827v55,-290,139,-552,209,-827r301,0r180,695r27,132r184,-827r260,0","w":1593,"k":{".":76,",":76}},"x":{"d":"819,0r-252,-392r-254,392r-299,0r396,-559r-377,-523r303,0r231,354r230,-354r305,0r-377,520r399,562r-305,0"},"y":{"d":"106,212v80,12,181,11,228,-31v50,-45,83,-117,110,-192r-428,-1071r297,0r223,674r48,167r90,-330r160,-511r294,0r-428,1139v-84,190,-156,368,-417,368v-60,0,-125,-4,-177,-13r0,-200","k":{".":152,",":152}},"z":{"d":"68,0r0,-199r540,-680r-499,0r0,-203r809,0r0,201r-537,676r586,0r0,205r-899,0","w":1024},"{":{"d":"524,25v-3,158,67,222,230,209r0,191r-197,0v-189,-4,-295,-109,-295,-299r0,-328v1,-156,-78,-227,-229,-229r0,-195v150,-4,229,-74,229,-231r0,-328v-2,-190,109,-299,295,-299r197,0r0,190r-58,0v-128,1,-171,76,-172,209r0,301v-4,144,-89,222,-207,252r0,4v118,31,207,107,207,252r0,301","w":797},"|":{"d":"156,455r0,-1939r262,0r0,1939r-262,0","w":573},"}":{"d":"535,126v-3,190,-106,299,-295,299r-197,0r0,-191r57,0v131,-1,172,-74,172,-209r0,-301v5,-144,89,-221,207,-252r0,-4v-118,-30,-207,-108,-207,-252r0,-301v-1,-134,-41,-208,-172,-209r-57,0r0,-190r197,0v186,0,295,109,295,299r0,328v-1,157,81,227,231,231r0,195v-152,2,-232,73,-231,229r0,328","w":797},"~":{"d":"1119,-596v-71,50,-147,82,-267,80v-195,-1,-326,-115,-516,-115v-115,0,-185,41,-255,88r0,-213v92,-78,283,-103,434,-60v116,33,217,93,356,93v102,0,187,-43,248,-92r0,219","w":1196}}});
/*!
 * The following copyright notice may not be removed under any circumstances.
 * 
 * Copyright:
 * Digitized data © 2007 Ascender Corporation. All rights reserved.
 * 
 * Trademark:
 * Liberation is a trademark of Red Hat, Inc. registered in U.S. Patent and
 * Trademark Office and certain other jurisdictions.
 * 
 * Manufacturer:
 * Ascender Corporation
 * 
 * Designer:
 * Steve Matteson
 * 
 * Vendor URL:
 * http://www.ascendercorp.com/
 * 
 * License information:
 * http://www.ascendercorp.com/liberation.html
 */
Cufon.registerFont({"w":1139,"face":{"font-family":"liberation_sans","font-weight":400,"font-style":"italic","font-stretch":"normal","units-per-em":"2048","panose-1":"2 11 6 4 2 2 2 9 2 4","ascent":"1638","descent":"-410","x-height":"20","bbox":"-229 -1516 2094 454","underline-thickness":"150","underline-position":"-142","slope":"-12","unicode-range":"U+0020-U+007E"},"glyphs":{" ":{"w":569,"k":{"Y":37,"A":76}},"\u00a0":{"w":569},"!":{"d":"329,-397r-148,0r172,-1012r196,0xm77,0r40,-201r194,0r-40,201r-194,0","w":569},"\"":{"d":"697,-966r-142,0r64,-443r184,0xm328,-966r-141,0r63,-443r184,0","w":727},"#":{"d":"926,-885r-78,369r260,0r0,108r-283,0r-88,408r-110,0r86,-408r-363,0r-84,408r-110,0r84,-408r-201,0r0,-108r225,0r78,-369r-252,0r0,-108r274,0r89,-408r110,0r-88,408r363,0r88,-408r110,0r-88,408r211,0r0,108r-233,0xm455,-885r-80,369r362,0r78,-369r-360,0"},"$":{"d":"690,-795v189,56,382,132,382,370v0,295,-235,390,-532,404r-31,161r-104,1r1,-1r-11,0r32,-163v-257,-16,-398,-130,-439,-353r163,-37v32,151,130,233,304,243r96,-493v-188,-55,-370,-117,-370,-355v0,-206,147,-299,317,-344v61,-16,126,-22,193,-23r25,-131r114,0r-27,137v197,24,327,115,367,292r-156,45v-31,-111,-110,-177,-238,-194xm569,-169v176,-12,318,-62,318,-244v0,-145,-116,-180,-228,-219xm663,-1240v-168,9,-300,58,-300,222v0,132,114,156,219,193"},"%":{"d":"425,0r-165,0r1186,-1409r167,0xm406,-524v-245,8,-291,-252,-243,-491v40,-197,112,-340,277,-392v37,-12,72,-14,105,-14v337,0,286,485,172,692v-65,117,-152,200,-311,205xm665,-1131v0,-110,-28,-182,-121,-182v-111,0,-156,64,-195,150v-32,70,-65,241,-65,336v0,112,31,190,126,190v108,0,151,-68,190,-153v33,-72,65,-246,65,-341xm1335,12v-245,8,-291,-252,-243,-491v40,-197,111,-340,276,-392v37,-12,73,-14,106,-14v337,0,286,485,172,692v-65,117,-152,200,-311,205xm1594,-595v0,-110,-28,-182,-121,-182v-111,0,-156,64,-195,150v-32,70,-65,241,-65,336v0,112,31,190,126,190v108,0,151,-68,190,-153v33,-72,65,-246,65,-341","w":1821},"&":{"d":"833,-1417v181,0,311,85,311,262v0,235,-203,293,-374,371r-124,50v54,159,126,294,218,419v105,-120,181,-271,252,-424r132,55v-78,175,-167,345,-291,476v61,66,190,101,299,63r-13,135v-149,57,-315,-8,-396,-100v-105,76,-232,131,-407,130v-253,-2,-407,-128,-407,-371v0,-290,215,-365,429,-455v-26,-112,-46,-273,-1,-383v56,-140,179,-228,372,-228xm203,-354v0,155,93,243,249,243v129,0,222,-44,301,-101v-105,-130,-191,-292,-251,-463v-149,64,-299,118,-299,321xm826,-1296v-188,-3,-256,148,-228,346v4,30,8,59,13,87v127,-50,277,-87,349,-186v20,-27,30,-60,30,-99v0,-96,-66,-146,-164,-148","w":1366},"'":{"d":"343,-966r-141,0r63,-443r184,0","w":391},"(":{"d":"96,-278v0,-579,250,-941,585,-1206r174,0v-189,167,-333,351,-431,553v-98,202,-147,425,-147,669v0,285,79,504,207,686r-174,0v-134,-183,-214,-410,-214,-702","w":682},")":{"d":"560,-782v0,579,-250,941,-585,1206r-174,0v189,-167,333,-351,431,-553v98,-202,147,-425,147,-669v0,-285,-79,-504,-207,-686r174,0v134,183,214,410,214,702","w":682},"*":{"d":"543,-1114r264,-103r45,132r-282,73r185,250r-119,72r-150,-258r-156,256r-119,-72r189,-248r-280,-73r45,-134r267,107r-12,-297r136,0","w":797},"+":{"d":"701,-608r0,428r-147,0r0,-428r-424,0r0,-146r424,0r0,-428r147,0r0,428r424,0r0,146r-424,0","w":1196},",":{"d":"160,262r-123,0v65,-75,122,-158,145,-262r-88,0r42,-219r195,0v-32,186,-66,368,-171,481","w":569},"-":{"d":"105,-464r31,-160r500,0r-31,160r-500,0","w":682},"\u00ad":{"d":"105,-464r31,-160r500,0r-31,160r-500,0","w":682},".":{"d":"80,0r43,-219r195,0r-43,219r-195,0","w":569},"\/":{"d":"-116,20r703,-1504r158,0r-700,1504r-161,0","w":569},"0":{"d":"476,20v-369,6,-433,-402,-361,-765v58,-288,154,-520,374,-633v68,-35,150,-52,243,-52v316,0,418,264,384,606v-29,296,-121,555,-276,704v-92,89,-208,137,-364,140xm294,-726v-49,243,-69,604,197,599v206,-4,289,-128,353,-290v54,-137,102,-358,103,-556v1,-184,-64,-311,-227,-311v-206,0,-288,129,-353,290v-29,71,-51,161,-73,268"},"1":{"d":"53,0r30,-153r359,0r208,-1070r-361,223r35,-180r377,-229r166,0r-244,1256r343,0r-30,153r-883,0","k":{"1":152}},"2":{"d":"211,-1081v68,-208,214,-349,489,-349v187,0,317,79,378,208v72,153,0,343,-78,434v-183,212,-474,330,-679,520v-39,36,-72,74,-99,115r727,0r-29,153r-932,0r24,-127v157,-277,447,-412,698,-592v109,-78,210,-167,210,-344v0,-142,-89,-219,-231,-219v-165,0,-267,97,-308,238"},"3":{"d":"841,-404v0,-165,-115,-231,-279,-235r-124,0r30,-156v257,10,462,-37,462,-286v0,-133,-86,-201,-222,-201v-169,0,-284,96,-324,233r-178,-14v68,-228,238,-367,512,-367v240,0,403,108,403,344v0,234,-156,338,-368,369r-1,4v160,31,277,128,277,306v0,287,-204,427,-503,427v-273,0,-422,-144,-478,-358r164,-48v43,145,142,257,329,257v186,0,300,-94,300,-275"},"4":{"d":"846,-319r-62,319r-180,0r62,-319r-653,0r27,-140r819,-950r199,0r-184,948r188,0r-28,142r-188,0xm826,-1157r-599,696r467,0"},"5":{"d":"607,-752v-129,-3,-211,43,-282,101r-176,0r194,-758r801,0r-29,153r-637,0r-114,447v88,-82,293,-118,441,-63v146,54,246,170,246,366v0,343,-199,523,-546,526v-264,3,-403,-123,-459,-329r163,-43v38,135,130,227,306,225v227,-2,346,-128,346,-359v0,-167,-92,-262,-254,-266"},"6":{"d":"307,-726v72,-109,189,-185,356,-185v182,0,302,88,355,222v76,193,-9,433,-110,543v-85,92,-206,166,-374,166v-216,0,-338,-121,-390,-290v-78,-256,10,-589,94,-768v101,-214,240,-392,523,-392v213,0,333,104,378,279r-166,36v-29,-98,-101,-169,-220,-169v-210,0,-304,151,-375,314v-30,69,-53,151,-71,244xm861,-522v1,-150,-81,-256,-231,-250v-208,8,-342,129,-342,351v0,171,80,296,250,296v165,0,255,-110,300,-241v16,-48,23,-100,23,-156"},"7":{"d":"1174,-1263r-176,207v-247,299,-475,601,-563,1056r-188,0v111,-549,433,-897,739,-1256r-774,0r29,-153r961,0"},"8":{"d":"411,-760v-112,-46,-191,-144,-191,-292v0,-270,206,-377,484,-377v192,0,329,70,393,199v62,125,15,303,-57,377v-57,59,-133,105,-233,120r-1,4v131,41,227,128,227,297v0,308,-214,452,-533,452v-271,0,-446,-119,-446,-380v0,-243,162,-349,357,-396r0,-4xm400,-1033v0,149,100,221,258,222v187,1,283,-100,283,-276v0,-142,-103,-209,-258,-207v-175,3,-283,83,-283,261xm850,-436v0,-161,-113,-236,-284,-236v-210,0,-327,110,-327,316v0,163,110,239,280,239v204,0,331,-112,331,-319"},"9":{"d":"228,-302v29,106,104,177,233,177v210,0,297,-158,367,-321v29,-69,51,-149,70,-238v-74,109,-174,203,-339,203v-198,0,-319,-102,-371,-249v-70,-200,13,-428,117,-538v86,-90,209,-159,377,-162v383,-8,464,377,387,751v-47,227,-125,408,-247,538v-91,96,-208,159,-369,161v-219,3,-335,-104,-383,-277xm346,-879v-6,197,149,299,337,239v148,-47,242,-180,242,-377v0,-162,-87,-267,-247,-267v-227,0,-325,169,-332,405"},":":{"d":"251,-875r41,-207r195,0r-41,207r-195,0xm81,0r41,-207r195,0r-41,207r-195,0","w":569},";":{"d":"161,262r-123,0v65,-75,122,-158,145,-262r-88,0r40,-207r195,0v-31,182,-67,358,-169,469xm265,-875r40,-207r195,0r-40,207r-195,0","w":569},"\u037e":{"d":"161,262r-123,0v65,-75,122,-158,145,-262r-88,0r40,-207r195,0v-31,182,-67,358,-169,469xm265,-875r40,-207r195,0r-40,207r-195,0","w":569},"<":{"d":"131,-571r0,-205r995,-418r0,154r-858,366r858,367r0,153","w":1196},"=":{"d":"130,-856r0,-148r995,0r0,148r-995,0xm130,-344r0,-148r995,0r0,148r-995,0","w":1196},">":{"d":"131,-154r0,-153r858,-367r-858,-366r0,-154r995,418r0,205","w":1196},"?":{"d":"159,-1048v75,-232,235,-382,542,-382v200,0,336,80,402,215v42,87,35,222,-1,307v-84,199,-313,251,-461,384v-41,37,-74,83,-86,147r-175,0v37,-243,245,-315,414,-425v82,-53,152,-118,152,-250v0,-147,-110,-216,-262,-218v-195,-3,-313,109,-360,262xm299,0r39,-201r195,0r-39,201r-195,0"},"@":{"d":"1645,105v-170,99,-385,178,-658,178v-389,0,-631,-179,-740,-463v-101,-259,-42,-621,69,-816v160,-279,417,-488,843,-488v387,0,626,170,730,450v91,245,35,588,-80,748v-71,98,-170,179,-321,182v-154,3,-227,-85,-204,-246r-6,0v-72,129,-177,246,-374,246v-229,0,-330,-155,-330,-385v0,-267,119,-462,296,-561v62,-34,130,-51,206,-51v160,0,251,73,301,182r6,0r39,-160r156,0r-116,506v-20,92,-33,161,-37,253v-5,118,129,107,197,54v160,-125,229,-479,136,-727v-85,-227,-285,-365,-597,-365v-378,0,-601,183,-731,437v-90,176,-132,473,-52,690v88,237,287,386,609,386v250,0,445,-75,603,-162xm762,-664v-50,182,-33,437,171,429v166,-6,259,-115,321,-231v44,-82,75,-169,75,-281v0,-146,-93,-227,-242,-227v-193,0,-281,151,-325,310","w":2079},"A":{"d":"1061,0r-75,-412r-639,0r-240,412r-208,0r848,-1409r217,0r292,1409r-195,0xm958,-561r-128,-704r-129,232r-270,472r527,0","w":1366,"k":{"y":18,"w":37,"v":37,"Y":152,"W":37,"V":113,"T":152," ":76}},"B":{"d":"957,-743v166,31,290,118,290,304v0,331,-258,439,-589,439r-595,0r273,-1409r510,0v199,1,348,59,418,187v21,40,32,85,32,135v-3,216,-138,309,-339,344xm1097,-1068v0,-142,-112,-188,-268,-188r-331,0r-87,446r331,0v216,0,355,-65,355,-258xm1056,-442v-2,-159,-131,-220,-308,-219r-366,0r-99,508v346,-8,777,68,773,-289","w":1366},"C":{"d":"713,-135v254,0,394,-140,502,-291r143,89v-136,201,-320,358,-658,357v-295,-1,-480,-136,-551,-358v-103,-322,21,-676,190,-848v137,-140,320,-244,587,-244v299,0,491,121,564,345r-180,55v-54,-152,-185,-244,-394,-244v-316,0,-493,181,-573,426v-28,86,-41,180,-41,282v0,268,140,431,411,431","w":1479},"D":{"d":"336,-1409v237,6,494,-23,679,39v241,81,398,263,398,579v0,368,-176,582,-426,704v-114,56,-252,86,-412,87r-512,0xm1219,-793v0,-307,-178,-457,-479,-463r-242,0r-215,1103v200,-3,402,14,551,-44v233,-90,385,-280,385,-596","w":1479},"E":{"d":"63,0r273,-1409r1049,0r-30,156r-858,0r-88,452r798,0r-30,154r-798,0r-95,491r899,0r-30,156r-1090,0","w":1366},"F":{"d":"497,-1253r-102,524r796,0r-31,158r-796,0r-110,571r-191,0r273,-1409r1011,0r-30,156r-820,0","w":1251,"k":{"A":152,".":264,",":264," ":37}},"G":{"d":"297,-577v0,287,159,442,451,442v211,0,369,-63,483,-156r51,-254r-421,0r32,-160r597,0r-100,495v-157,134,-355,232,-648,230v-403,-3,-641,-197,-641,-593v0,-408,198,-668,494,-793v215,-91,575,-82,738,36v81,59,138,135,172,232r-193,54v-49,-151,-176,-232,-380,-230v-324,2,-511,173,-594,420v-28,85,-41,177,-41,277","w":1593},"H":{"d":"1021,0r127,-653r-767,0r-127,653r-191,0r274,-1409r191,0r-116,596r767,0r116,-596r186,0r-274,1409r-186,0","w":1479},"I":{"d":"81,0r274,-1409r191,0r-274,1409r-191,0","w":569},"J":{"d":"163,-376v29,139,84,241,235,241v183,0,234,-147,265,-305r157,-813r-291,0r30,-156r481,0r-193,986v-50,253,-166,443,-466,443v-230,0,-357,-146,-386,-363","w":1024},"K":{"d":"1022,0r-472,-674r-190,129r-106,545r-191,0r273,-1409r191,0r-136,691r140,-129r665,-562r245,0r-750,630r557,779r-226,0","w":1366},"L":{"d":"63,0r273,-1409r191,0r-243,1253r712,0r-30,156r-903,0","k":{"y":37,"Y":188,"W":76,"V":113,"T":152," ":37}},"M":{"d":"1261,0r222,-1129v7,-34,15,-67,23,-99r-98,195r-595,1033r-124,0r-198,-1026r-28,-202r-50,300r-180,928r-170,0r273,-1409r236,0r198,1025r23,157r104,-213r553,-969r256,0r-273,1409r-172,0","w":1706},"N":{"d":"987,0r-531,-1210r-26,182r-197,1028r-170,0r273,-1409r212,0r534,1215r45,-284r181,-931r172,0r-273,1409r-220,0","w":1479},"O":{"d":"644,-1382v161,-58,391,-66,549,-6v233,89,372,307,337,638v-39,371,-229,613,-530,723v-162,59,-396,63,-553,3v-234,-89,-365,-313,-331,-643v37,-365,229,-606,528,-715xm1342,-764v35,-318,-111,-512,-413,-512v-409,0,-581,261,-623,630v-37,317,108,515,412,511v408,-5,583,-261,624,-629","w":1593},"P":{"d":"852,-1409v227,1,391,76,466,227v52,103,43,257,-4,360v-83,180,-268,273,-530,273r-424,0r-106,549r-191,0r273,-1409r516,0xm1159,-1011v0,-181,-130,-245,-312,-245r-349,0r-108,556r387,0v239,0,382,-88,382,-311","w":1366,"k":{"A":152,".":264,",":264," ":76}},"Q":{"d":"822,12v19,136,66,232,216,232v37,0,92,-7,123,-13r-18,134v-88,27,-231,33,-313,-3v-125,-54,-173,-182,-192,-345v-372,-28,-571,-272,-532,-684v35,-366,229,-606,528,-715v161,-58,391,-66,549,-6v233,89,372,307,337,638v-36,340,-199,569,-452,692v-75,36,-157,59,-246,70xm1332,-764v35,-318,-111,-512,-413,-512v-409,0,-581,261,-623,630v-37,317,108,515,412,511v408,-5,583,-261,624,-629","w":1593},"R":{"d":"1416,-1039v-3,273,-169,403,-427,437r268,602r-206,0r-243,-585r-441,0r-113,585r-191,0r273,-1409r612,0v210,1,363,75,434,215v23,46,34,98,34,155xm1222,-1024v0,-164,-117,-232,-297,-232r-427,0r-101,520r460,0v220,2,365,-87,365,-288","w":1479,"k":{"Y":76,"W":37,"V":37,"T":37}},"S":{"d":"823,-1286v-207,2,-376,44,-376,236v0,129,87,161,189,196v43,15,95,27,153,44v220,64,457,122,457,402v0,137,-54,239,-155,317v-166,128,-673,156,-868,19v-86,-61,-142,-146,-165,-266r177,-37v35,180,174,247,395,245v229,-3,421,-42,421,-266v0,-133,-84,-166,-189,-206v-241,-93,-607,-104,-607,-439v0,-228,165,-324,357,-367v198,-45,454,-19,578,62v77,50,131,119,154,214r-173,51v-43,-141,-160,-207,-348,-205","w":1366},"T":{"d":"858,-1253r-244,1253r-190,0r244,-1253r-484,0r30,-156r1158,0r-30,156r-484,0","w":1251,"k":{"y":152,"w":152,"u":152,"s":188,"r":152,"o":188,"i":18,"e":188,"c":188,"a":188,"O":37,"A":152,";":152,":":152,".":188,"-":188,",":188}},"U":{"d":"343,-492v-32,237,105,359,327,357v283,-2,414,-160,461,-406r168,-868r190,0r-170,879v-68,339,-267,550,-665,550v-337,0,-541,-195,-494,-555r16,-100r150,-774r191,0r-162,843v-5,24,-9,48,-12,74","w":1479},"V":{"d":"677,0r-198,0r-302,-1409r194,0r198,992r35,249r133,-249r580,-992r208,0","w":1366,"k":{"y":37,"u":37,"r":37,"o":76,"i":37,"e":76,"a":76,"A":113,";":37,":":37,".":152,"-":76,",":152}},"W":{"d":"1406,0r-223,0r-82,-1095v-2,-40,-4,-81,-5,-124r-94,231r-460,988r-223,0r-142,-1409r197,0r79,895r13,236v1,39,2,75,3,110r159,-364r415,-877r183,0r86,1045r6,196r100,-234r475,-1007r201,0","w":1933,"k":{"i":18,"e":37,"a":37,"A":37,".":76,"-":37,",":76}},"X":{"d":"999,0r-303,-606r-524,606r-211,0r654,-746r-340,-663r199,0r270,551r475,-551r211,0r-600,676r368,733r-199,0","w":1366},"Y":{"d":"785,-584r-113,584r-190,0r115,-584r-384,-825r196,0r306,674r560,-674r214,0","w":1366,"k":{"v":76,"u":76,"q":113,"p":113,"o":113,"i":37,"e":113,"a":152,"A":113,";":76,":":76,".":188,"-":152,",":188," ":37}},"Z":{"d":"1082,0r-1122,0r27,-143r1054,-1110r-765,0r30,-156r1002,0r-27,139r-1054,1114r885,0","w":1251},"[":{"d":"-39,425r370,-1909r407,0r-25,129r-233,0r-321,1651r233,0r-25,129r-406,0","w":569},"\\":{"d":"320,20r-174,-1504r148,0r178,1504r-152,0","w":569},"]":{"d":"-169,425r25,-129r232,0r321,-1651r-233,0r25,-129r407,0r-371,1909r-406,0","w":569},"^":{"d":"817,-673r-309,-633r-306,633r-162,0r368,-736r203,0r370,736r-164,0","w":961},"_":{"d":"-160,250r0,-76r1178,0r0,76r-1178,0"},"`":{"d":"412,-1201r-282,-278r5,-29r207,0r161,287r-3,20r-88,0","w":682},"a":{"d":"927,10v-142,0,-197,-79,-173,-217r-6,0v-84,125,-179,230,-387,227v-194,-3,-315,-111,-315,-298v0,-386,398,-383,787,-382v6,-41,18,-82,19,-127v1,-123,-77,-177,-200,-178v-150,-1,-234,56,-268,172r-178,-29v56,-189,204,-282,456,-280v239,2,398,118,364,370v-4,29,-8,56,-13,82r-82,423v-24,95,43,137,138,109r-14,112v-37,9,-84,16,-128,16xm237,-286v0,105,66,169,174,169v209,0,325,-129,371,-294r27,-125v-255,12,-572,-32,-572,250"},"b":{"d":"390,-921v80,-104,173,-182,354,-181v258,1,358,190,328,464v-32,290,-114,538,-336,628v-53,21,-113,30,-179,30v-165,1,-267,-75,-309,-198r-3,0r-43,178r-173,0r49,-223r245,-1261r180,0r-95,478r-22,85r4,0xm812,-318v69,-184,181,-652,-120,-645v-251,6,-328,184,-375,409v-13,65,-19,124,-19,177v2,164,79,264,240,264v158,0,228,-84,274,-205"},"c":{"d":"322,-758v-80,190,-157,649,147,636v167,-7,240,-105,289,-230r156,49v-71,187,-197,318,-449,323v-330,7,-449,-264,-382,-594v61,-301,191,-528,542,-528v227,0,356,111,376,318r-177,25v-10,-124,-73,-202,-205,-202v-164,0,-246,82,-297,203","w":1024},"d":{"d":"754,-160v-81,104,-172,182,-353,181v-257,-2,-357,-187,-327,-461v32,-292,112,-539,335,-630v53,-21,113,-31,179,-31v165,-1,268,75,310,198v12,-1,8,-16,11,-33r22,-129r82,-419r180,0r-283,1484r-172,0v1,-45,11,-110,21,-160r-5,0xm334,-764v-68,183,-182,653,119,646v251,-6,328,-184,375,-409v13,-65,19,-124,19,-177v-2,-164,-79,-264,-240,-264v-157,0,-228,83,-273,204"},"e":{"d":"1063,-708v0,73,-10,144,-24,205r-783,0v-7,36,-9,74,-9,113v0,177,89,277,267,275v154,-2,243,-79,299,-179r138,63v-83,149,-218,254,-458,251v-274,-3,-424,-150,-424,-425v0,-317,126,-542,339,-647v68,-34,142,-50,222,-50v271,3,433,130,433,394xm880,-641v24,-198,-55,-334,-246,-328v-212,7,-309,141,-354,328r600,0"},"f":{"d":"720,-1335v-71,-13,-163,-13,-196,35v-37,54,-47,142,-64,218r211,0r-26,131r-211,0r-185,951r-180,0r185,-951r-152,0r26,-131r152,0v30,-165,54,-328,200,-380v65,-23,188,-28,266,-10","w":569},"g":{"d":"588,-1101v167,0,270,80,314,204r40,-162v4,-13,7,-21,8,-23r171,0r-49,224r-161,827v-52,275,-186,458,-514,456v-217,-1,-355,-76,-393,-252r163,-42v24,103,104,157,234,157v291,0,320,-245,364,-489r-2,0v-76,111,-165,212,-353,209v-255,-4,-368,-196,-334,-470v43,-349,152,-639,512,-639xm843,-628v22,-201,-50,-340,-236,-340v-233,0,-281,182,-325,388v-14,65,-22,139,-23,207v-1,152,63,248,207,248v159,0,243,-106,304,-225v36,-72,62,-173,73,-278"},"h":{"d":"855,-724v23,-145,-26,-244,-174,-238v-157,5,-243,99,-301,210v-22,44,-38,92,-49,146r-118,606r-179,0r288,-1484r180,0r-88,452r-34,135r3,0v81,-112,174,-204,365,-204v222,0,333,141,290,365r-141,736r-181,0r126,-645v5,-26,10,-52,13,-79"},"i":{"d":"287,-1312r34,-172r180,0r-34,172r-180,0xm33,0r210,-1082r180,0r-211,1082r-179,0","w":455},"j":{"d":"289,-1312r33,-172r180,0r-33,172r-180,0xm-206,275v62,11,142,16,172,-34v18,-29,36,-73,47,-134r231,-1189r180,0r-237,1216v-30,183,-124,320,-355,286v-23,-3,-44,-6,-61,-9","w":455},"k":{"d":"721,0r-268,-502r-168,124r-72,378r-179,0r288,-1484r180,0r-179,917r204,-190r361,-325r222,0r-530,465r336,617r-195,0","w":1024},"l":{"d":"33,0r288,-1484r180,0r-289,1484r-179,0","w":455},"m":{"d":"1409,-634v38,-147,51,-341,-137,-328v-145,10,-221,99,-272,208v-20,44,-34,93,-44,147r-118,607r-178,0r140,-726r9,-82v-1,-105,-52,-157,-162,-154v-146,4,-221,101,-272,210v-20,44,-33,94,-44,148r-118,604r-179,0r205,-1082r170,0r-28,185r3,0v71,-108,147,-204,322,-204v163,0,260,84,277,232v78,-117,158,-228,348,-232v209,-4,315,148,273,365r-141,736r-178,0","w":1706},"n":{"d":"749,-1101v222,0,334,141,291,365r-142,736r-181,0r126,-645v9,-44,18,-102,18,-150v-2,-112,-59,-170,-179,-167v-157,4,-244,99,-302,210v-22,44,-37,92,-48,146r-118,606r-180,0r205,-1082r170,0r-28,185r3,0v81,-112,174,-204,365,-204"},"o":{"d":"642,-1101v315,-4,469,195,426,523v-45,343,-197,598,-577,598v-306,0,-458,-211,-419,-536v41,-341,197,-580,570,-585xm343,-798v-110,197,-176,685,159,685v275,0,339,-224,378,-470v5,-33,8,-67,8,-100v2,-181,-73,-286,-248,-286v-152,0,-238,65,-297,171"},"p":{"d":"741,-1102v258,1,357,190,327,464v-32,290,-113,538,-335,628v-53,21,-113,30,-179,30v-165,1,-268,-75,-310,-198v-10,-1,-5,5,-7,20r-27,160r-82,423r-179,0r263,-1361r21,-146r167,0v-1,53,-9,113,-17,161r4,0v80,-104,173,-182,354,-181xm809,-318v69,-184,181,-652,-120,-645v-251,6,-328,184,-375,409v-13,65,-19,124,-19,177v2,164,79,264,240,264v158,0,228,-84,274,-205"},"q":{"d":"755,-160v-80,104,-173,182,-354,181v-257,-2,-357,-187,-327,-461v32,-292,112,-539,335,-630v53,-21,113,-31,179,-31v165,-1,268,75,310,198r5,0r39,-163v4,-15,7,-25,10,-30r173,0v-3,11,-11,41,-22,89v-11,48,-26,117,-43,206r-238,1226r-180,0r117,-585r-4,0xm334,-764v-68,183,-182,653,119,646v251,-6,328,-184,375,-409v13,-65,19,-124,19,-177v-2,-164,-79,-264,-240,-264v-157,0,-228,83,-273,204"},"r":{"d":"378,-861v64,-139,164,-284,373,-227r-33,150v-68,-20,-151,-17,-205,24v-98,74,-162,208,-189,350r-110,564r-180,0r205,-1082r170,0r-35,221r4,0","w":682,"k":{".":76,"-":37,",":113}},"s":{"d":"572,-968v-131,0,-257,26,-257,151v0,139,155,150,264,190v154,57,328,108,328,310v0,259,-214,334,-482,337v-226,2,-367,-74,-420,-243r147,-56v41,112,133,170,289,168v157,-2,291,-38,291,-190v0,-99,-79,-127,-156,-159v-33,-13,-71,-23,-111,-37v-154,-53,-324,-104,-324,-300v0,-234,205,-302,443,-302v217,0,366,70,398,255r-163,25v-30,-107,-110,-149,-247,-149","w":1024},"t":{"d":"289,-306v-19,82,-25,190,78,183v40,-3,64,-6,100,-14r-19,133v-50,12,-110,24,-173,24v-136,0,-204,-109,-177,-254r136,-717r-125,0r26,-131r127,0r105,-242r120,0r-47,242r200,0r-26,131r-200,0","w":569},"u":{"d":"383,19v-222,0,-334,-141,-291,-365r142,-736r181,0r-126,645v-9,44,-18,102,-18,150v2,112,59,170,179,167v157,-4,244,-99,302,-210v22,-44,37,-92,48,-146r118,-606r180,0r-205,1082r-170,0r28,-185r-3,0v-81,112,-174,204,-365,204"},"v":{"d":"507,0r-213,0r-182,-1082r187,0r107,758r17,183r119,-235r384,-706r196,0","w":1024,"k":{".":152,",":152}},"w":{"d":"1068,0r-209,0r-41,-836r-2,-98r-101,240r-313,694r-208,0r-92,-1082r178,0r47,933r81,-190r341,-743r193,0r48,847v1,33,2,62,2,86r87,-198r334,-735r176,0","w":1479,"k":{".":113,",":113}},"x":{"d":"706,0r-209,-444r-380,444r-199,0r492,-556r-264,-526r189,0r193,421r350,-421r206,0r-469,524r281,558r-190,0","w":1024},"y":{"d":"-85,277v234,44,321,-130,414,-289r-217,-1070r183,0r125,672r29,214v29,-63,68,-133,101,-194r378,-692r199,0r-626,1082v-95,157,-175,313,-335,394v-74,38,-191,37,-282,17","w":1024,"k":{".":152,",":152}},"z":{"d":"-44,0r27,-137r797,-806r-601,0r27,-139r824,0r-27,137r-799,806r679,0r-27,139r-900,0","w":1024},"{":{"d":"306,43v-29,130,-16,266,133,253r48,0r-25,129r-96,0v-199,4,-271,-164,-232,-367r56,-287v6,-29,9,-55,9,-77v0,-114,-68,-154,-178,-160r25,-127v158,-6,235,-94,261,-236r70,-362v37,-178,117,-292,321,-293r135,0r-25,129v-130,-9,-215,24,-246,119v-44,134,-65,304,-96,452v-29,135,-120,216,-243,254v105,23,170,120,144,254","w":684},"|":{"d":"213,454r0,-1938r166,0r0,1938r-166,0","w":532},"}":{"d":"368,-1102v29,-130,16,-266,-133,-253r-48,0r25,-129r96,0v199,-4,271,164,232,367r-56,287v-6,29,-9,54,-9,77v0,114,68,154,178,160r-25,127v-158,6,-235,94,-261,236r-70,362v-37,178,-117,292,-321,293r-135,0r25,-129v130,9,215,-23,246,-118v44,-134,65,-305,96,-453v29,-135,120,-216,243,-254v-105,-23,-169,-121,-144,-254","w":684},"~":{"d":"1134,-633v-69,49,-143,81,-260,80v-172,-1,-347,-117,-504,-115v-112,1,-181,41,-248,88r0,-143v89,-78,274,-103,422,-61v116,33,208,94,346,94v103,0,182,-43,244,-92r0,149","w":1196}}});
/*!
 * The following copyright notice may not be removed under any circumstances.
 * 
 * Copyright:
 * Digitized data © 2007 Ascender Corporation. All rights reserved.
 * 
 * Trademark:
 * Liberation is a trademark of Red Hat, Inc. registered in U.S. Patent and
 * Trademark Office and certain other jurisdictions.
 * 
 * Manufacturer:
 * Ascender Corporation
 * 
 * Designer:
 * Steve Matteson
 * 
 * Vendor URL:
 * http://www.ascendercorp.com/
 * 
 * License information:
 * http://www.ascendercorp.com/liberation.html
 */
Cufon.registerFont({"w":1139,"face":{"font-family":"liberation_sans","font-weight":700,"font-style":"italic","font-stretch":"normal","units-per-em":"2048","panose-1":"2 11 7 4 2 2 2 9 2 4","ascent":"1638","descent":"-410","bbox":"-220 -1520 2079 426.159","underline-thickness":"215","underline-position":"-110","slope":"-12","unicode-range":"U+0020-U+007E"},"glyphs":{" ":{"w":569,"k":{"Y":37,"A":76}},"\u00a0":{"w":569},"!":{"d":"423,-426r-230,0r160,-983r294,0xm79,0r52,-270r288,0r-52,270r-288,0","w":682},"\"":{"d":"864,-898r-219,0r72,-511r275,0xm438,-898r-219,0r72,-511r273,0","w":971},"#":{"d":"939,-862r-69,332r215,0r0,149r-246,0r-82,381r-156,0r80,-381r-307,0r-80,381r-153,0r79,-381r-155,0r0,-149r188,0r70,-332r-207,0r0,-148r238,0r84,-385r153,0r-82,385r307,0r84,-385r156,0r-84,385r164,0r0,148r-197,0xm479,-862r-72,332r309,0r70,-332r-307,0"},"$":{"d":"1051,-608v47,92,32,240,-9,328v-81,177,-273,249,-526,259r-33,173r-112,0r32,-175v-238,-6,-391,-121,-414,-343r262,-42v9,116,71,177,194,177r73,-388v-151,-38,-282,-107,-344,-233v-61,-123,-15,-304,54,-377v98,-104,248,-162,444,-165r24,-126r110,4r-27,130v220,3,353,102,378,297r-261,57v-17,-89,-58,-153,-155,-158r-67,353v164,41,309,98,377,229xm554,-231v137,-4,256,-48,256,-182v0,-121,-73,-152,-183,-180xm633,-1194v-129,3,-221,64,-221,188v0,96,79,116,154,143"},"%":{"d":"407,-524v-223,6,-324,-164,-289,-400v41,-270,132,-491,428,-497v228,-4,340,151,302,391v-43,273,-148,498,-441,506xm641,-1131v0,-111,-61,-166,-155,-129v-112,44,-135,208,-156,352v-15,98,-13,223,81,223v142,0,170,-129,202,-260v18,-73,28,-135,28,-186xm1316,15v-223,6,-325,-163,-290,-399v41,-270,133,-492,429,-498v228,-4,341,152,303,392v-43,273,-149,497,-442,505xm1550,-592v0,-111,-61,-166,-155,-129v-112,44,-134,207,-155,351v-15,98,-14,224,80,224v142,0,170,-129,202,-260v18,-73,28,-135,28,-186xm486,0r-197,0r1086,-1409r199,0","w":1821},"&":{"d":"464,20v-258,0,-415,-125,-415,-374v0,-202,121,-304,256,-382v51,-30,109,-54,170,-75v-32,-106,-54,-267,-7,-377v61,-144,195,-229,400,-229v192,0,336,69,336,257v0,201,-147,283,-290,355v-56,28,-116,53,-178,78r31,83v37,93,84,172,141,249v99,-105,170,-224,234,-365r187,83v-70,158,-166,300,-278,416v63,61,190,81,295,48r-39,203v-45,15,-80,22,-139,22v-135,-1,-227,-48,-305,-117v-96,80,-216,125,-399,125xm304,-360v0,141,108,213,256,184v64,-13,121,-41,165,-73v-82,-110,-151,-242,-200,-382v-110,51,-221,113,-221,271xm855,-1247v-177,0,-219,189,-168,351v106,-43,216,-75,271,-162v15,-24,22,-52,22,-84v0,-71,-52,-105,-125,-105","w":1479},"'":{"d":"417,-898r-219,0r73,-511r272,0","w":487},"(":{"d":"74,-296v0,-555,215,-922,519,-1188r281,0v-307,295,-524,655,-524,1204v0,277,52,510,147,705r-275,0v-93,-198,-148,-440,-148,-721","w":682},")":{"d":"622,-793v-4,566,-214,944,-521,1218r-281,0v308,-303,525,-674,525,-1234v0,-262,-62,-492,-149,-675r265,0v94,187,163,420,161,691","w":682},"*":{"d":"574,-1135r235,-104r68,197r-250,61r186,213r-184,121r-146,-252r-149,252r-186,-123r190,-211r-250,-61r68,-197r239,104r-18,-274r215,0","w":797},"+":{"d":"750,-569r0,408r-226,0r0,-408r-399,0r0,-224r399,0r0,-408r226,0r0,408r402,0r0,224r-402,0","w":1196},",":{"d":"347,-66v-30,162,-91,285,-182,383r-185,0v83,-86,163,-182,195,-317r-129,0r59,-305r289,0","w":569},"-":{"d":"56,-409r47,-244r520,0r-47,244r-520,0","w":682},"\u00ad":{"d":"56,-409r47,-244r520,0r-47,244r-520,0","w":682},".":{"d":"46,0r59,-305r289,0r-59,305r-289,0","w":569},"\/":{"d":"-76,41r587,-1525r238,0r-583,1525r-242,0","w":569},"0":{"d":"478,20v-333,7,-429,-267,-384,-605v52,-391,153,-751,510,-833v40,-9,81,-12,120,-12v281,2,404,174,395,466v-10,346,-108,660,-288,842v-85,86,-193,139,-353,142xm370,-556v-21,159,-34,355,127,355v158,0,208,-118,253,-252v45,-136,96,-350,96,-524v0,-130,-34,-233,-152,-233v-161,0,-205,115,-247,251v-31,101,-60,275,-77,403"},"1":{"d":"33,0r43,-231r349,0r179,-921r-381,214r47,-242r396,-229r270,0r-230,1178r323,0r-44,231r-952,0","k":{"1":152}},"2":{"d":"687,-1430v260,0,431,95,431,347v0,246,-165,358,-312,470v-159,121,-348,219,-463,382r654,0r-44,231r-985,0r37,-195v147,-256,404,-396,631,-571v94,-72,188,-147,193,-297v3,-102,-62,-143,-162,-143v-134,0,-192,75,-223,184r-266,-59v65,-221,222,-349,509,-349"},"3":{"d":"745,-416v0,-132,-80,-186,-220,-186r-107,0r44,-227v200,7,369,-27,369,-222v0,-99,-54,-156,-157,-155v-134,2,-206,69,-237,184r-267,-52v65,-228,226,-356,515,-356v252,0,431,99,431,344v0,230,-147,337,-361,361r-1,4v164,28,276,116,276,303v0,214,-128,340,-296,402v-185,68,-477,32,-588,-66v-71,-63,-119,-146,-130,-261r282,-38v13,124,89,177,226,175v140,-2,221,-73,221,-210"},"4":{"d":"874,-286r-54,286r-268,0r54,-286r-640,0r41,-207r717,-916r370,0r-178,913r188,0r-42,210r-188,0xm648,-496r111,-564r41,-146r-86,128r-455,582r389,0"},"5":{"d":"589,-707v-96,0,-154,36,-202,91r-274,0r203,-793r847,0r-43,231r-594,0r-87,334v78,-80,265,-120,401,-63v140,59,224,190,224,389v0,264,-135,423,-334,498v-119,45,-312,54,-438,14v-152,-48,-244,-156,-272,-323r283,-45v18,110,76,171,207,168v175,-3,268,-108,268,-280v0,-135,-58,-221,-189,-221"},"6":{"d":"725,-907v231,4,353,139,353,374v0,256,-135,424,-320,508v-67,30,-142,45,-225,45v-305,0,-438,-199,-438,-507v0,-404,136,-716,386,-872v146,-92,387,-95,525,-4v78,52,131,135,144,257r-266,41v-18,-89,-56,-143,-154,-143v-77,0,-143,38,-200,115v-57,77,-98,192,-124,347v65,-88,172,-163,319,-161xm614,-700v-155,0,-242,107,-245,271v-2,132,62,233,189,229v164,-5,234,-128,234,-299v0,-125,-58,-201,-178,-201"},"7":{"d":"188,-1409r1031,0r-44,223r-162,194r-147,182v-178,228,-327,472,-394,810r-298,0v102,-526,422,-842,719,-1178r-750,0"},"8":{"d":"386,-741v-115,-50,-187,-156,-187,-311v0,-276,223,-377,508,-377v196,0,335,68,399,199v60,122,17,297,-54,370v-56,57,-133,104,-232,117r-1,4v135,42,230,134,230,307v0,230,-131,357,-313,418v-69,23,-150,34,-243,34v-278,-3,-466,-113,-466,-380v0,-236,167,-333,359,-377r0,-4xm476,-1020v0,112,55,181,172,180v139,-1,203,-91,203,-224v0,-110,-58,-170,-172,-168v-132,2,-203,76,-203,212xm760,-444v0,-126,-69,-196,-199,-196v-163,0,-244,101,-244,263v0,129,72,199,203,199v157,0,240,-104,240,-266"},"9":{"d":"322,-359v18,95,66,157,176,157v146,0,204,-107,256,-228v25,-58,46,-132,63,-223v-73,86,-160,153,-317,150v-233,-4,-353,-155,-353,-390v0,-254,139,-415,325,-495v115,-49,275,-57,395,-11v196,74,290,288,255,573v-35,286,-123,528,-268,685v-116,125,-318,199,-533,141v-150,-40,-245,-146,-273,-311xm611,-710v171,0,244,-123,244,-299v0,-117,-61,-201,-177,-201v-173,0,-246,131,-246,310v0,117,63,190,179,190"},":":{"d":"235,-752r55,-282r288,0r-55,282r-288,0xm89,0r55,-281r288,0r-55,281r-288,0","w":682},";":{"d":"235,-752r55,-282r288,0r-55,282r-288,0xm390,-66v-30,162,-91,285,-183,383r-184,0v83,-86,163,-182,195,-317r-129,0r55,-281r288,0","w":682},"\u037e":{"d":"235,-752r55,-282r288,0r-55,282r-288,0xm390,-66v-30,162,-91,285,-183,383r-184,0v83,-86,163,-182,195,-317r-129,0r55,-281r288,0","w":682},"<":{"d":"124,-516r0,-322r1027,-391r0,228r-833,325r833,324r0,227","w":1196},"=":{"d":"123,-842r0,-223r1027,0r0,223r-1027,0xm123,-291r0,-221r1027,0r0,221r-1027,0","w":1196},">":{"d":"124,-125r0,-227r832,-324r-832,-325r0,-228r1027,391r0,322","w":1196},"?":{"d":"184,-1048v74,-240,248,-382,561,-382v206,0,360,67,431,203v44,84,41,217,0,303v-88,186,-311,244,-452,377v-32,30,-51,67,-58,121r-267,0v39,-282,323,-335,478,-498v34,-35,49,-70,49,-131v0,-98,-80,-148,-197,-146v-154,2,-246,65,-279,193xm309,0r52,-270r289,0r-52,270r-289,0","w":1251},"@":{"d":"1604,117v-211,131,-571,234,-898,149v-342,-89,-556,-336,-556,-757v0,-422,192,-695,462,-859v135,-82,306,-134,513,-134v390,1,633,169,739,450v95,253,31,595,-94,748v-79,96,-185,179,-340,182v-142,4,-214,-92,-185,-239r-6,0v-65,123,-172,239,-350,239v-233,0,-330,-159,-330,-385v0,-262,114,-460,289,-559v62,-35,132,-53,211,-53v141,0,223,71,264,174r6,0r39,-152r156,0r-117,506v-17,81,-35,163,-37,240v-5,115,122,106,192,54v122,-90,197,-260,197,-474v0,-286,-145,-461,-360,-545v-142,-55,-361,-59,-517,-14v-294,85,-475,296,-546,600v-43,183,-25,407,44,542v100,195,280,320,573,320v244,0,427,-71,589,-155xm805,-808v-96,156,-151,574,117,563v136,-6,208,-100,262,-201v44,-82,75,-185,80,-305v7,-168,-157,-259,-314,-195v-65,26,-109,79,-145,138","w":1997},"A":{"d":"1039,0r-55,-360r-537,0r-195,360r-294,0r787,-1409r348,0r238,1409r-292,0xm961,-582r-83,-580v-1,-14,-2,-23,-2,-30v-88,217,-207,408,-310,610r395,0","w":1479,"k":{"Y":152,"W":113,"V":152,"T":152," ":76}},"B":{"d":"1079,-738v166,31,289,120,289,307v0,342,-283,431,-627,431r-705,0r274,-1409r584,0v279,4,509,63,509,326v0,215,-143,305,-324,345xm1110,-1038v0,-132,-113,-151,-248,-152r-301,0r-67,349v256,-14,616,69,616,-197xm1072,-437v0,-145,-116,-186,-290,-186r-330,0r-79,404r328,0v202,-2,371,-20,371,-218","w":1479},"C":{"d":"1229,-967v-41,-135,-136,-231,-311,-231v-273,0,-419,155,-484,371v-22,77,-33,161,-33,254v0,225,105,362,330,362v218,0,334,-121,418,-258r227,117v-125,217,-322,372,-665,372v-306,0,-496,-133,-575,-358v-77,-220,-22,-513,66,-674v133,-245,356,-418,725,-418v323,0,508,141,576,392","w":1479},"D":{"d":"734,-1409v423,4,687,182,687,602v0,366,-168,588,-411,715v-108,57,-242,91,-396,92r-578,0r274,-1409r424,0xm1145,-794v0,-262,-148,-385,-409,-387r-176,0r-185,953v163,-2,323,12,445,-37v200,-80,325,-252,325,-529","w":1479},"E":{"d":"36,0r273,-1409r1108,0r-44,228r-813,0r-69,354r752,0r-44,228r-752,0r-72,371r854,0r-45,228r-1148,0","w":1366},"F":{"d":"560,-1181r-85,436r668,0r-44,228r-668,0r-101,517r-294,0r273,-1409r986,0r-44,228r-691,0","w":1251,"k":{"A":113,".":227,",":227}},"G":{"d":"399,-592v0,237,122,381,365,381v157,0,285,-38,384,-96r46,-228r-342,0r39,-208r614,0r-105,568v-169,119,-371,196,-660,194v-316,-1,-517,-131,-601,-361v-65,-178,-45,-416,20,-585v117,-303,372,-503,783,-503v321,0,512,147,588,391r-282,78v-40,-142,-139,-237,-322,-237v-272,0,-423,153,-492,365v-23,74,-35,154,-35,241","w":1593},"H":{"d":"956,0r118,-604r-626,0r-118,604r-294,0r273,-1409r295,0r-109,561r626,0r109,-561r284,0r-274,1409r-284,0","w":1479},"I":{"d":"36,0r273,-1409r295,0r-274,1409r-294,0","w":569},"J":{"d":"292,-437v27,117,69,226,207,226v138,0,171,-112,194,-229r143,-738r-281,0r44,-231r575,0r-193,986v-51,269,-182,444,-501,443v-284,-1,-411,-158,-455,-399"},"K":{"d":"995,0r-355,-640r-211,123r-101,517r-292,0r273,-1409r295,0r-130,639r760,-639r369,0r-747,616r465,793r-326,0","w":1479},"L":{"d":"36,0r273,-1409r295,0r-229,1181r756,0r-45,228r-1050,0","w":1251,"k":{"Y":152,"W":113,"V":113,"T":152," ":37}},"M":{"d":"1206,0r172,-884r74,-322r-183,390r-412,816r-210,0r-119,-1050r-15,-156r-35,275r-180,931r-262,0r274,-1409r395,0r104,957r9,107r129,-271r402,-793r393,0r-274,1409r-262,0","w":1706},"N":{"d":"884,0r-374,-1131r-38,239r-174,892r-262,0r274,-1409r350,0r377,1141r41,-256r174,-885r262,0r-274,1409r-356,0","w":1479},"O":{"d":"630,-1382v163,-59,398,-65,563,-8v246,85,398,298,361,640v-40,370,-227,613,-530,723v-165,59,-405,63,-567,3v-241,-89,-389,-305,-353,-643v38,-364,227,-606,526,-715xm1252,-757v21,-269,-85,-440,-338,-440v-342,0,-476,232,-511,545v-30,268,90,442,338,440v315,-4,447,-201,502,-468v5,-24,7,-50,9,-77","w":1593},"P":{"d":"850,-1409v241,0,409,82,484,246v50,110,44,273,-6,381v-82,182,-262,286,-523,286r-377,0r-98,496r-294,0r273,-1409r541,0xm1070,-971v0,-149,-99,-209,-248,-209r-262,0r-89,457r289,0v195,-1,310,-61,310,-248","w":1366,"k":{"A":152,".":264,",":264," ":76}},"Q":{"d":"882,8v13,176,166,211,349,172r-45,195v-94,33,-265,31,-358,-3v-151,-55,-224,-181,-244,-363v-325,-55,-520,-283,-480,-676v37,-364,227,-606,526,-715v163,-59,398,-65,563,-8v246,85,397,298,361,640v-35,331,-191,557,-434,682v-72,37,-151,62,-238,76xm1252,-757v21,-269,-85,-440,-338,-440v-342,0,-476,232,-511,545v-30,268,90,442,338,440v315,-4,447,-201,502,-468v5,-24,7,-50,9,-77","w":1593},"R":{"d":"961,-1409v299,3,504,120,504,403v0,259,-177,382,-403,423r274,583r-326,0r-230,-534r-346,0r-103,534r-295,0r274,-1409r651,0xm1166,-989v0,-140,-103,-191,-242,-191r-364,0r-81,416r393,0v171,-1,294,-58,294,-225","w":1479,"k":{"Y":37,"W":37,"T":37}},"S":{"d":"770,-1221v-144,2,-266,41,-266,174v0,153,171,163,300,202v224,68,450,136,450,422v0,347,-291,440,-654,443v-325,3,-535,-104,-575,-385r289,-49v25,149,128,216,306,213v178,-3,345,-28,345,-199v0,-164,-162,-177,-298,-218v-228,-68,-454,-133,-454,-419v0,-220,163,-320,349,-367v208,-53,487,-21,617,68v84,57,143,135,166,245r-288,67v-30,-121,-133,-199,-287,-197","w":1366},"T":{"d":"895,-1181r-230,1181r-295,0r230,-1181r-455,0r44,-228r1206,0r-44,228r-456,0","w":1251,"k":{"y":76,"w":76,"u":37,"s":76,"r":37,"o":76,"i":37,"e":76,"c":76,"a":76,"O":37,"A":152,";":152,":":152,".":152,"-":113,",":152}},"U":{"d":"414,-427v0,204,228,248,414,199v141,-37,200,-156,230,-313r168,-868r295,0r-171,879v-67,348,-265,550,-678,550v-362,0,-596,-175,-546,-555r16,-100r148,-774r295,0r-153,810v-9,45,-18,117,-18,172","w":1479},"V":{"d":"737,0r-339,0r-227,-1409r305,0r114,905r22,266r78,-172r511,-999r308,0","w":1366,"k":{"y":37,"u":37,"r":37,"o":76,"i":76,"e":76,"a":76,"A":152,";":76,":":76,".":188,"-":76,",":188}},"W":{"d":"1441,0r-350,0r-32,-1116r-117,301r-348,815r-355,0r-89,-1409r280,0r40,923r3,238r154,-380r334,-781r316,0r42,1161r135,-347r334,-814r291,0","w":1933,"k":{"y":37,"u":37,"r":37,"o":37,"i":18,"e":37,"a":37,"A":113,";":76,":":76,".":152,"-":76,",":152}},"X":{"d":"220,-1409r309,0r224,471r402,-471r313,0r-600,677r367,732r-307,0r-253,-532r-455,532r-314,0r652,-736","w":1366},"Y":{"d":"836,-578r-112,578r-294,0r112,-578r-370,-831r292,0r259,605r474,-605r323,0","w":1366,"k":{"v":76,"u":76,"q":76,"p":76,"o":76,"i":76,"e":76,"a":76,"A":152,";":113,":":113,".":188,"-":152,",":188," ":37}},"Z":{"d":"1082,0r-1130,0r40,-209r927,-969r-663,0r45,-231r1014,0r-40,205r-930,973r782,0","w":1251},"[":{"d":"-54,425r370,-1909r542,0r-37,190r-276,0r-297,1528r276,0r-37,191r-541,0","w":682},"\\":{"d":"289,41r-178,-1526r238,0r183,1526r-243,0","w":569},"]":{"d":"-174,425r37,-191r277,0r297,-1528r-278,0r37,-190r542,0r-371,1909r-541,0","w":682},"^":{"d":"962,-514r-326,-752r-324,752r-227,0r391,-895r322,0r393,895r-229,0","w":1196},"_":{"d":"-120,250r0,-78r1177,0r0,78r-1177,0"},"`":{"d":"596,-1183r-307,-276r8,-43r258,0r195,288r-6,31r-148,0","w":682},"a":{"d":"938,-225v-1,71,80,72,141,58r-14,155v-51,21,-106,21,-173,22v-142,3,-233,-73,-203,-217r-6,0v-80,123,-165,229,-366,227v-193,-2,-307,-113,-307,-298v0,-370,359,-385,732,-382v7,-42,21,-83,21,-131v1,-85,-46,-127,-127,-128v-116,-2,-181,46,-203,142r-263,-31v51,-201,216,-291,471,-294v276,-4,443,106,392,369r-93,473v-2,13,-2,24,-2,35xm297,-325v-3,119,99,174,211,137v124,-41,177,-170,203,-315r-162,0v-138,2,-249,52,-252,178"},"b":{"d":"499,-913v71,-105,186,-190,356,-189v263,0,365,193,332,472v-34,287,-115,531,-337,620v-53,21,-114,30,-181,30v-170,0,-268,-78,-315,-198r-48,178r-271,0r49,-223r246,-1261r281,0r-106,532v-4,28,-16,41,-6,39xm877,-516v37,-161,55,-400,-142,-391v-239,11,-291,211,-323,435v-24,169,36,299,196,299v200,0,229,-168,269,-343","w":1251},"c":{"d":"430,-728v-67,156,-154,562,106,555v132,-4,185,-92,223,-208r271,50v-67,218,-222,352,-510,351v-319,0,-493,-180,-454,-512v43,-361,211,-610,614,-610v259,0,403,128,429,361r-284,23v-7,-113,-53,-191,-167,-191v-136,0,-184,80,-228,181"},"d":{"d":"738,0v0,-54,8,-110,15,-160r-4,0v-81,104,-175,183,-357,181v-255,-3,-359,-200,-330,-472v31,-289,129,-530,350,-621v52,-21,109,-30,168,-30v172,0,274,69,314,198r5,0r26,-162r84,-418r277,0r-238,1253v-14,75,-23,152,-29,231r-281,0xm373,-565v-31,165,-41,398,142,393v240,-8,292,-214,323,-438v23,-169,-22,-305,-184,-300v-131,4,-190,77,-234,178v-19,44,-35,100,-47,167","w":1251},"e":{"d":"1082,-691v0,68,-11,154,-24,215r-700,0v-27,159,17,314,177,308v123,-4,176,-79,213,-169r245,74v-78,178,-214,287,-477,283v-288,-4,-453,-152,-453,-438v0,-322,126,-540,349,-638v71,-31,149,-46,234,-46v278,2,436,138,436,411xm822,-663v28,-180,-76,-304,-248,-250v-104,33,-157,127,-183,250r431,0"},"f":{"d":"528,-892r-174,892r-280,0r174,-892r-158,0r37,-190r158,0v24,-130,49,-256,135,-326v90,-73,284,-92,433,-59r-36,181v-66,-8,-156,-19,-193,22v-34,37,-47,117,-59,182r213,0r-37,190r-213,0","w":682,"k":{"f":37}},"g":{"d":"586,-1101v169,0,272,81,317,208r40,-165v4,-14,7,-22,8,-24r265,0r-49,229r-165,843v-53,287,-224,435,-571,435v-245,0,-403,-77,-438,-283r283,-30v19,88,81,127,188,127v246,2,259,-230,297,-440r-2,0v-76,111,-165,212,-354,209v-256,-3,-367,-193,-335,-469v41,-353,155,-640,516,-640xm366,-482v-27,157,14,292,166,285v131,-6,200,-91,250,-191v36,-74,64,-184,64,-298v0,-138,-65,-223,-198,-223v-228,0,-247,222,-282,427","w":1251},"h":{"d":"880,-726v31,-146,-122,-196,-244,-143v-102,45,-176,139,-201,263r-118,606r-282,0r286,-1484r280,0r-118,587r3,0v81,-110,183,-197,373,-204v262,-10,334,196,285,448r-127,653r-279,0","w":1251},"i":{"d":"282,-1277r41,-207r281,0r-41,207r-281,0xm35,0r210,-1082r281,0r-211,1082r-280,0","w":569},"j":{"d":"283,-1277r40,-207r281,0r-40,207r-281,0xm-184,218v60,8,129,5,157,-31v25,-32,38,-74,49,-127r223,-1142r281,0r-236,1210v-36,203,-182,328,-437,292v-29,-4,-53,-9,-73,-14","w":569},"k":{"d":"728,0r-188,-497r-140,75r-85,422r-280,0r288,-1484r281,0r-167,850r465,-448r322,0r-473,422r275,660r-298,0"},"l":{"d":"35,0r288,-1484r281,0r-289,1484r-280,0","w":569},"m":{"d":"1451,-1101v212,-4,321,147,279,365r-143,736r-279,0r134,-698v21,-105,-9,-202,-120,-194v-160,12,-223,141,-251,285r-119,607r-279,0r135,-707v19,-104,-10,-192,-121,-185v-161,11,-224,143,-252,288r-118,604r-282,0r205,-1082r272,0r-28,185r3,0v73,-108,150,-204,328,-204v166,0,264,83,282,232v79,-118,162,-228,354,-232","w":1821},"n":{"d":"859,-1101v262,-10,334,196,285,448r-127,653r-279,0r142,-726v31,-147,-121,-196,-244,-143v-102,44,-176,139,-201,263r-118,606r-282,0r179,-922r25,-160r268,0r-24,185r3,0v81,-110,183,-197,373,-204","w":1251},"o":{"d":"704,-1101v296,2,481,128,481,418v0,335,-152,554,-391,655v-131,55,-313,66,-453,18v-168,-57,-278,-188,-278,-409v0,-325,149,-535,381,-633v79,-32,165,-49,260,-49xm434,-761v-90,167,-152,589,132,589v234,0,286,-192,318,-404v27,-179,-21,-337,-201,-333v-129,3,-200,56,-249,148","w":1251},"p":{"d":"870,-516v33,-165,45,-398,-142,-391v-239,9,-292,211,-324,435v-24,169,37,299,197,299v198,0,233,-165,269,-343xm512,-1082v-4,53,-12,122,-23,169r4,0v78,-109,172,-189,355,-189v263,0,365,192,332,470v-35,288,-116,533,-338,622v-53,21,-113,30,-180,30v-170,0,-268,-78,-315,-198v-7,59,-21,129,-32,188r-80,415r-280,0r263,-1367r19,-140r275,0","w":1251},"q":{"d":"580,-1102v178,0,267,69,313,199r5,0v12,-59,29,-128,47,-179r270,0r-61,287r-236,1220r-281,0r101,-504r20,-84r-4,0v-81,105,-177,186,-360,184v-256,-3,-359,-196,-330,-469v31,-292,128,-533,350,-624v52,-21,108,-30,166,-30xm374,-565v-33,165,-42,398,144,393v239,-6,292,-212,321,-437v21,-160,-15,-305,-170,-301v-208,5,-258,159,-295,345","w":1251},"r":{"d":"480,-861v72,-145,188,-284,410,-227r-46,235v-118,-31,-244,-12,-314,72v-50,60,-90,147,-113,267r-101,514r-281,0r195,-1030v3,-20,6,-37,8,-52r268,0r-30,221r4,0","w":797,"k":{".":113,",":113}},"s":{"d":"618,-913v-106,0,-205,17,-205,120v0,115,155,115,255,142v174,47,332,103,332,317v0,274,-221,354,-503,354v-264,0,-417,-88,-474,-291r251,-36v26,103,110,142,243,141v117,-2,222,-25,222,-136v0,-114,-125,-111,-224,-137v-186,-49,-362,-105,-362,-330v0,-258,222,-326,484,-330v245,-4,401,76,432,288r-251,29v-23,-92,-86,-131,-200,-131"},"t":{"d":"560,-8v-195,55,-444,25,-444,-201v0,-53,9,-116,16,-157r102,-526r-148,0r37,-190r162,0r137,-254r176,0r-48,254r202,0r-35,190r-205,0r-112,584v-21,96,34,148,132,128v16,-3,37,-6,60,-10","w":682},"u":{"d":"391,19v-262,10,-334,-196,-285,-448r127,-653r279,0r-142,726v-31,147,121,196,244,143v103,-44,176,-138,201,-263r118,-606r282,0r-179,922r-25,160r-268,0r24,-185r-3,0v-81,111,-183,197,-373,204","w":1251},"v":{"d":"622,0r-336,0r-176,-1082r289,0r78,671r15,203r90,-201r348,-673r302,0","k":{".":113,",":113}},"w":{"d":"1207,0r-297,0r-46,-731r-2,-159r-95,232r-302,658r-297,0r-69,-1082r258,0r14,827r79,-191r294,-636r301,0r45,695r2,132r77,-191r267,-636r266,0","w":1593,"k":{".":76,",":76}},"x":{"d":"724,0r-186,-383r-327,383r-301,0r508,-562r-279,-520r292,0r173,347r296,-347r308,0r-483,525r294,557r-295,0"},"y":{"d":"-47,211v80,18,172,6,221,-34v61,-49,107,-126,150,-201r-212,-1058r291,0r83,594r23,237r156,-330r259,-501r300,0r-654,1139v-95,142,-173,278,-333,343v-87,36,-228,29,-322,7","k":{".":76,",":76}},"z":{"d":"-35,0r38,-199r653,-680r-480,0r40,-203r809,0r-39,201r-650,676r567,0r-40,205r-898,0","w":1024},"{":{"d":"409,90v-18,93,31,146,119,144r80,0r-37,191r-183,0v-190,4,-284,-126,-245,-324r61,-308v5,-23,7,-46,7,-68v0,-116,-78,-155,-192,-158r38,-192v163,-3,246,-85,274,-227r67,-338v38,-186,134,-293,350,-294r194,0r-37,190v-88,-3,-166,1,-205,52v-30,39,-49,91,-61,153r-60,310v-30,134,-125,216,-256,247r-1,4v106,25,184,109,158,247","w":797},"|":{"d":"191,425r0,-1909r262,0r0,1909r-262,0","w":573},"}":{"d":"378,-1150v18,-93,-31,-146,-119,-144r-80,0r37,-191r183,0v190,-4,283,126,245,324r-66,344v-15,135,64,190,190,190r-38,192v-164,3,-242,86,-274,228v-54,240,-50,545,-281,613v-88,26,-217,16,-330,19r37,-190v88,3,167,0,206,-51v30,-39,48,-92,60,-154r60,-310v30,-134,124,-217,256,-248r1,-3v-106,-25,-184,-110,-158,-248","w":797},"~":{"d":"1156,-596v-71,50,-147,82,-267,80v-195,-1,-326,-115,-516,-115v-115,0,-185,41,-255,88r0,-213v66,-49,157,-85,271,-84v200,0,327,117,519,117v102,0,187,-43,248,-92r0,219","w":1196}}});
